tree
version=v4
num_class=1
num_tree_per_iteration=1
label_index=0
max_feature_idx=99
objective=regression
feature_names=month_lag_max_c1_0 c1_sum_c3_NA_0 days_active_c3_B_1 latest_transaction_new_flag_0 c2_NA_changes earliest_transaction_new_flag_1 purchase_amount_var_new_flag_1 month_lag_max_new_flag_0 hour_sum_new_flag_0 days_active_new_flag_0 days_active_c1_1 month_lag_max_c1_1 month_lag_sum_c1_1 days_active_new_flag_1 merchant_category_id_unique_c3_B_1 month_sum_c1_1 month_lag_min_c3_B_1 purchase_amount_skew_c3_A_0 latest_transaction_new_flag_1 purchase_amount_std_new_flag_1 c1_changes days_active_auth_flag_0 purchase_amount_sum_c2_3_0 day_mean_new_flag_1 month_range_c3_NA_0 month_lag_skew month_lag_max_c2_4_0 hour_std_new_flag_1 new_flag_mean_c3_B_0 c1_mean_c2_4_0 transaction_frequency_new_flag_1 hour_sum_auth_flag_0 month_lag_min_c2_4_1 auth_flag_mean_c3_B_0 hour_mean_new_flag_1 new_flag_sum_c3_B_0 c1_sum_c3_A_0 purchase_amount_skew_c2_3_0 latest_transaction_c2_2_0 month_lag_sum_new_flag_1 purchase_amount_min_c2_NA_1 hour_std_c3_A_1 month_lag_mean_new_flag_1 earliest_transaction_c2_2_0 auth_flag_sum0_c2_5_0 latest_transaction purchase_amount_mean_new_flag_0 latest_transaction_c2_NA_0 latest_transaction_c2_3_0 purchase_amount_max_new_flag_0 month_lag_sum_auth_flag_0 installments_sum_auth_flag_0 transaction_frequency_c1_0 purchase_amount_sum_new_flag_1 latest_transaction_c1_0 auth_flag_mean_c3_NA_0 day_max_new_flag_1 purchase_amount_median_c3_B_0 auth_flag_changes purchase_amount_skew_new_flag_1 auth_flag_mean_c1_0 new_flag_mean_c2_2_0 earliest_transaction_auth_flag_1 purchase_amount_max_new_flag_1 year_sum latest_transaction_c2_5_0 purchase_amount_range_new_flag_1 earliest_transaction_c1_1 purchase_amount_sum_c3_NA_1 merchant_id_unique_c3_A_0 month_lag_var_c3_A_1 latest_transaction_c3_A_0 purchase_amount_std_auth_flag_1 c1_mean_new_flag_1 purchase_amount_sum_auth_flag_0 c3_B_sum0_new_flag_1 purchase_amount_range_c3_B_1 subsector_id_mode_auth_flag_1 transaction_frequency_new_flag_0 auth_flag_mean_new_flag_0 purchase_amount_mean_new_flag_1 day_sum_c3_NA_0 auth_flag_mean latest_transaction_c3_B_1 month_mean_new_flag_1 month_lag_sum_c2_NA_0 month_mean_auth_flag_1 hour_median_c1_0 feature_2 latest_transaction_c3_A_1 month_max_new_flag_1 month_lag_max_c3_A_0 month_sum_new_flag_1 merchant_category_id_mode_c2_NA_0 day_min_new_flag_1 new_flag_sum_c1_0 month_lag_range_new_flag_0 merchant_id_modelen_auth_flag_1 purchase_amount_median_new_flag_0 feature_1
feature_infos=[-3.6597307794813538:0.5479449870855061] [-0.4873827255032197:6.2240856303676138] [-1.4467350469212339:1.9217241230360063] [-4.0308241411333494:0.65152788568008024] [-0.58539575273153011:5.1976301312332334] [-4.1665406629863231:1.2859877181897639] [-0.17782541314428676:25.077297916433182] [-5.0929036773540917:0.29280879923553493] [-1.0324221169901897:4.2838180090804867] [-2.0474016675296212:1.5167586073749246] [-1.0569559809487559:2.5532060289786989] [-3.4753715695145182:1.1100642612906706] [-5.9852869809018552:0.81629888898798675] [-1.4349280733580605:1.6020772658947127] [-1.0010993340922472:3.3398852486646495] [-0.70657742515151833:5.6498793059809422] [-1.5848086287144791:2.2148019073454854] [-3.5381041334086243:3.7280377729054233] [-4.143730207351302:0.74862424377738834] [-0.68220132630130892:6.6435932596594673] [-0.54036227546828319:5.4019648159542184] [-1.1373261463676474:2.2304213108155717] [-4.6257583285292565:85.138601518083618] [-2.4914418942855967:2.6126762857185444] [-3.828710917516938:0.44089140131206817] [-3.3752374712659057:3.3593672161118016] [-3.3118025791565469:0.59358643191580684] [-2.15955988425342:3.2769416495598587] [-0.82876392476396732:4.0092177357574004] [-0.52623227258496852:4.5630634225271489] [-1.0141987816822482:6.2007909807044124] [-1.0359037237370321:4.5489586570068621] [-1.5087971264967528:1.9167143844219448] [-4.0520666180008913:0.79806345452214489] [-3.2078351180318605:3.0911586104352771] [-0.79994015236316063:4.2064019472117629] [-0.43235861747205184:6.8378164757727369] [-3.4763267943807481:3.6475921781193441] [-3.8244716249438344:0.82471054773071306] [-1.0292508820374051:3.8626461132959178] [-0.4220127946713258:8.1582499556058927] [-2.2174442862466321:3.3115266983856571] [-1.4348905191151833:1.5774545741229768] [-1.1315013517741874:2.9000609463974842] [-0.83400827132866739:4.71563588467051] [-3.8474521495715104:0.81485874793750612] [-0.032052578242206607:165.48711225102718] [-3.7940472658531821:0.81927781460373805] [-3.7200929386702395:0.86128566393563188] [-0.036667933152563469:78.137151177715367] [-4.8059145532950289:0.81382930875566728] [-1.6528071873327801:7.1991367707439977] [-1.194763209052824:3.9552070321597723] [-3.9004321938293822:3.7702651183844882] [-3.798053513137301:0.81205990539062078] [-3.811118312151542:1.0254691051389653] [-2.8666876616776884:1.0337822397047614] [-0.71359792540051536:7.2793459440952741] [-0.9837549332823855:4.0860256770493786] [-3.0553919569380161:3.0774445060853637] [-3.9982249007375419:0.97705789389412256] [-0.97127442473003756:3.9378520424338741] [-1.1332121331593596:2.0753419788680474] [-0.6808215407304038:6.5119706485972468] [-1.0629296882173151:4.2341008061002601] [-3.7849047068944581:0.85883808518743909] [-0.60308099279816751:6.6243978013888798] [-1.6506097552199643:2.1005138745228717] [-5.6518595496979147:6.3338779265616232] [-1.2177819388916633:3.7937192289262796] [-1.1376933958396298:3.577660463439357] [-3.8086288533194863:0.83407458637708842] [-0.87196399540052805:5.9023506758919835] [-0.3207211715757991:5.9159454855155964] [-1.7799896552190939:75.272205557088114] [-0.86410248039742477:4.0722471020690012] [-0.046083782075024352:66.029903997610347] [-3.1681383955577891:1.5446575687241459] [-1.1509314807343842:3.9811199216809086] [-3.7321407363399159:1.028824115825175] [-0.77672312609548722:7.194820774498961] [-1.0754849850865991:4.2391246339320858] [-3.8046463699572595:1.0283934991943771] [-3.2285906805523079:0.9591158610223427] [-1.5918325720870885:4.0820047929682364] [-4.632127115550257:1.0527382555297009] [-3.0011670000714497:2.9998839955873202] [-3.1427416417572145:3.1113027024407289] [-0.99076555592610716:1.6705797816101542] [-3.3854233950832433:1.16307691749471] [-1.7150035692491459:3.786035150024083] [-3.3882960466092875:0.58801396232287462] [-0.97696917928789639:4.6227622548495111] [-2.0256217643022598:1.6973979585501764] [-0.98725086780690041:3.0041837011610562] [-1.0282675241167378:3.834394835516914] [-1.7527504645649523:1.3844144355551273] [-0.32849526540552093:8.3518818712791116] [-0.88096924880031202:7.4131862204390391] [-1.7748901225616962:1.5965432923156948]
tree_sizes=2965 2865 2974 2860 2821 2945 2876 2862 2726 2882 2903 2896 2786 2871 2814 2878 2889 2816 2806 2852 2807 2847 2849 2770 2671 2726 2699 2711 2697 2768 2721 2753 2689 2788 2658 2810 2717 2784 2713 2721 2636 2718 2774 2685 2740 2677 2741 2689 2673 2671 2753 2507 2672 2756 2687 2696 2585 2752 2790 2615 2620 2765 2688 2665 2707 2690 2691 2629 2666 2798 2646 2681 2836 2759 2695 2807 2670 2619 2638 2691 2764 2776 2595 2698 2716 2633 2680 2751 2818 2668 2606 2763 2585 2599 2674 2752 2679 2665 2667 2681 2627 2818 2639 2727 2600 2724 2644 2724 2668 2603 2756 2653 2664 2574 2631 2700 2620 2640 2750 2640 2575 2610 2655 2613 2765 2674 2828 2687 2809 2605 2660 2622 2674 2636 2724 2696 2655 2702 2704 2710 2714 2533 2585 2701 2689 2594 2624 2699 2667 2662 2664 2668 2589 2531 2609 2610 2605 2595 2542 2563 2546 2588 2656 2772 2700 2683 2652 2616 2784 2617 2678 2714 2614 2678 2597 2693 2556 2545 2550 2637 2620 2573 2623 2672 2678 2693 2474 2596 2550 2615 2634 2596 2550 2577 2634 2676 2546 2595 2640 2668 2623 2516 2579 2487 2654 2661 2570 2604 2631 2591 2550 2514 2610 2493 2643 2654 2539 2522 2489 2569 2672 2587 2642 2690 2528 2695 2549 2620 2594 2616 2479 2611 2522 2642 2546 2581 2534 2546 2415 2648 2581 2485 2618 2572 2659 2762 2455 2601 2582 2474 2518 2486 2655 2618 2524 2591 2560 2688 2534 2444 2594 2558 2487 2524 2578 2563 2766 2524 2596 2464 2574 2606 2441 2564

Tree=0
num_leaves=31
num_cat=0
split_feature=3 10 13 45 64 6 2 42 53 63 75 55 30 9 40 13 66 7 45 26 54 38 43 63 64 74 35 83 36 3
split_gain=43689.9 28959.2 10461 9059.66 5030.24 4537.93 4158.75 3796.31 2787.09 2515.58 1982.53 1790.83 1710.08 1568.64 1414.78 1754.83 1261.75 1127.93 1091.83 1055.47 1032.08 872.766 869.162 835.248 813.982 810.97 800.531 779.808 720.57 1165.39
threshold=-0.35686984296263574 -0.15441547846689227 -1.3602476141961068 -0.33884143777856474 -0.69008854449378998 -0.10149300238995072 -0.39931127609775313 -0.88212521892474804 0.94336317066475261 -0.44801603095289516 -1.0000000180025095e-35 -2.3099070002630628 0.072721964885960028 -0.8016347467987669 0.70092102861448524 1.0793140517610389 -0.42085719573938102 1.0000000180025095e-35 0.20237824858596923 inf 0.49512152194356529 -0.59907628504369836 -0.24560639441798796 -0.56269174200057004 -0.80577270227968689 -0.034397228255185944 -1.0000000180025095e-35 0.665431917077555 5.1743018357929982 0.1642151677540854
decision_type=8 10 10 10 8 8 10 8 10 10 8 10 8 2 8 10 10 10 10 8 10 8 8 10 8 8 8 10 8 8
left_child=1 4 8 6 9 10 -3 12 23 26 18 -9 21 -14 15 19 17 -13 -4 24 -12 25 -11 28 -8 -6 -1 -7 -2 -30
right_child=2 3 5 -5 7 27 14 11 -10 22 20 16 13 -15 -16 -17 -18 -19 -20 -21 -22 -23 -24 -25 -26 -27 -28 -29 29 -31
leaf_value=-0.35584760365078738 -0.33450081477623966 -0.39532488234648427 -0.38762829083462352 -0.41597478785912223 -0.50180553825346019 -0.42027392934952679 -0.46788882266562243 -0.5078710960470697 -0.40124158501214063 -0.44431520933328705 -0.40255900395185501 -0.35438187908156066 -0.42282887256062907 -0.55412756201336499 -0.38762829083462352 -0.42213748520539296 -0.43051970069637524 -0.40965098644890635 -0.36482354243393389 -0.38762829083462352 -0.38056479622682016 -0.38318803219326486 -0.39187752304557755 -0.35880773233349678 -0.55412756201336499 -0.41137748012660375 -0.40522665164832422 -0.395935966672118 -0.53739384730901663 -0.35788425500742999
leaf_weight=5237 22206 569 6942 1564 816 7728 592 708 2395 2121 8703 1404 488 1373 147 413 7630 4458 36361 88 23252 395 2173 8057 3424 780 1038 9717 129 625
leaf_count=5237 22206 569 6942 1564 816 7728 592 708 2395 2121 8703 1404 488 1373 147 413 7630 4458 36361 88 23252 395 2173 8057 3424 780 1038 9717 129 625
internal_value=-0.387628 -0.441197 -0.372584 -0.542676 -0.416887 -0.382096 -0.554128 -0.434399 -0.34637 -0.38753 -0.376232 -0.42072 -0.483278 -0.523276 -0.554128 -0.554128 -0.415702 -0.395409 -0.368614 -0.554128 -0.386739 -0.44289 -0.419154 -0.341944 -0.554128 -0.461334 -0.364953 -0.407055 -0.336283 -0.387628
internal_weight=0 35418 126115 6797 28621 92703 5233 18052 33412 10569 75258 14200 3852 1861 4664 4517 13492 5862 43303 4104 31955 1991 4294 31017 4016 1596 6275 17445 22960 754
internal_count=161533 35418 126115 6797 28621 92703 5233 18052 33412 10569 75258 14200 3852 1861 4664 4517 13492 5862 43303 4104 31955 1991 4294 31017 4016 1596 6275 17445 22960 754
is_linear=0
shrinkage=1


Tree=1
num_leaves=31
num_cat=0
split_feature=18 10 71 36 27 36 28 6 58 13 64 9 30 13 40 64 3 16 9 75 9 13 26 50 82 42 17 54 16 28
split_gain=37653.8 17384.8 7727.81 13331.8 10393.9 4072.82 2784.18 3048.04 2713.68 2703.55 2310.67 1976.61 1651.64 1585.61 1385.52 1362.4 1233.48 1201.05 1195.46 1046.98 890.249 876.488 845.911 806.434 870.822 716.67 694.746 667.55 642.765 614.705
threshold=-0.37196293495365196 -0.15441547846689227 -1.0314000043357063 0.36859287585152656 inf -0.12430035080913708 -0.3845492555708096 -0.029958628883030077 -0.26878587285098293 0.38229643291613985 -0.67721492182259613 -0.83541825651350188 0.70470981564582369 -1.4100345869707425 -0.12162295684442141 -0.79298192965538672 -0.39090493130702098 -1.2048475751084824 -1.0465651922305959 0.56484081979022494 -1.1310239665174333 0.83037918788786058 -2.6609044106444872 -0.074090221448342777 -2.3828198709211241 -0.22392776146908328 -1.577513822261593 0.54545181999830661 0.82161137745683199 -0.41093825019990732
decision_type=8 10 8 8 8 8 8 8 8 10 10 2 8 10 8 8 8 10 2 8 2 10 10 8 10 10 8 10 10 8
left_child=1 8 3 10 6 -3 -4 19 13 15 -2 -5 23 -1 16 -7 22 -13 -15 -8 -14 -22 -12 24 -10 -20 -19 -21 -17 -6
right_child=2 5 4 11 29 9 7 -9 12 -11 14 17 20 18 -16 28 -18 26 25 27 21 -23 -24 -25 -26 -27 -28 -29 -30 -31
leaf_value=0.014763677809364398 0.024024363414720213 -0.050040289408005659 0.018298807878769481 0 0.047425064871713531 -0.035098473028694573 0.010276101375142659 -0.02779258737864003 -0.15207818403716064 -0.079085539005544159 0 0 -0.0013186361142140572 -0.0015796706605324328 -0.02176170346756252 -0.16649927117874144 0 0 -0.068484486893317514 -0.02315354915554917 -0.12917587604059169 -0.029258052104721984 -0.16649927117874144 -0.028427661002457874 -0.05259772798099762 -0.024434520074856698 -0.16649927117874144 0.00017626421115290644 0 0.025487894481132908
leaf_weight=2995 3038 1155 35762 198 23691 349 33785 10396 393 1313 95 82 374 3182 2039 2261 189 69 2524 4901 1766 500 249 5120 2580 3014 848 12486 66 6113
leaf_count=2995 3038 1155 35762 198 23691 349 33785 10396 393 1313 95 82 374 3182 2039 2261 189 69 2524 4901 1766 500 249 5120 2580 3014 848 12486 66 6113
internal_value=0 -0.0582091 0.0118172 -0.0446274 0.0148859 -0.149094 0.00617838 -0.00076668 -0.0371147 -0.166499 -0.00695379 -0.166499 -0.0572059 -0.018203 -0.0458204 -0.166499 -0.126629 -0.166499 -0.0301994 0.00460963 -0.0966126 -0.109743 -0.166499 -0.0436143 -0.067774 -0.0455802 -0.166499 -0.00606337 -0.166499 0.0431237
internal_weight=0 27592 133941 6807 127134 5144 97330 61568 22448 3989 5610 1197 10733 11715 2572 2676 533 999 8720 51172 2640 2266 344 8093 2973 5538 917 17387 2327 29804
internal_count=161533 27592 133941 6807 127134 5144 97330 61568 22448 3989 5610 1197 10733 11715 2572 2676 533 999 8720 51172 2640 2266 344 8093 2973 5538 917 17387 2327 29804
is_linear=0
shrinkage=0.0545865


Tree=2
num_leaves=31
num_cat=0
split_feature=3 36 27 18 96 5 66 96 30 63 31 54 84 11 8 13 26 62 71 92 19 29 3 63 66 26 63 49 30 0
split_gain=36571.7 28485 8745.21 6377.05 5012.87 4596.4 4352.49 3257.4 2854.16 2245.9 1571.12 1410.16 1402.53 1380.82 1235.62 1619.41 981.397 882.079 867.478 858.326 826.709 792.575 948.517 775.924 744.961 698.672 690.495 675.363 594.102 623.142
threshold=-0.35686984296263574 0.24536956918636063 inf -0.5191111448330431 -1.0991744437066022 -0.2974076765059131 0.012381711324079005 -0.83774403536326225 0.71946435247448781 0.0065419080192132741 0.12607833409866309 0.27099288086519829 -0.51966978085688253 1.0000000180025095e-35 -0.87603465279685644 0.83037918788786058 -1.0000000180025095e-35 -0.21348625689667308 -1.3328191316473732 -0.32923905071230075 2.0945993592184187 2.1312160605462744 0.19761435574640987 0.1295074295040694 -0.53063056746154147 -1.0000000180025095e-35 -0.44387112573430448 -0.033533613535721998 -0.6527115667214819 -2.9584514850535433
decision_type=8 8 8 10 2 8 8 2 8 10 10 10 8 10 8 10 8 2 8 8 8 8 8 10 8 8 8 10 8 10
left_child=1 5 6 4 -3 7 12 24 13 17 23 -8 -2 26 -6 -16 -10 21 25 -14 27 -4 -23 28 -1 -12 -9 -13 -7 -30
right_child=2 3 9 -5 14 10 11 8 16 -11 18 20 19 -15 15 -17 -18 -19 -20 -21 -22 22 -24 -25 -26 -27 -28 -29 29 -31
leaf_value=0.029467154993391621 -0.01446038022822756 0 0.039581195769022033 -0.023477023582101356 -0.026972204961461729 0.04806679323362744 -0.038571080518821438 -0.019163089259757401 -0.15800272113781746 -0.012972251876770395 -0.15319581050823078 -0.012024775954770117 0.02276760976048928 -0.091245341095983923 -0.16649927117874144 -0.046005601692257897 -0.07703372665776953 0.055023884628264921 -0.010353629532032766 0.0092415900608127221 -0.026341655193375973 -0.057055851216912083 0.022465973956230949 -0.031333962434931827 -0.01780387330121189 0 -0.050343901931597712 0.0072077760367112043 0.040916161123937513 -0.00075235403196974196
leaf_weight=1189 4717 554 12445 1026 290 1798 4804 5099 980 2099 336 9780 28920 1728 3099 468 1827 12534 996 31139 4875 543 2204 915 4760 184 5059 12055 1369 3741
leaf_count=1189 4717 554 12445 1026 290 1798 4804 5099 980 2099 336 9780 28920 1728 3099 468 1827 12534 996 31139 4875 543 2204 915 4760 184 5059 12055 1369 3741
internal_value=0 -0.0492845 0.0134897 -0.16445 -0.166499 -0.0281982 0.00541879 -0.0425942 -0.0564566 0.0393486 0.00299398 -0.0111176 0.0135545 -0.0439126 -0.166499 -0.166499 -0.107444 0.0435216 -0.0470055 0.0158528 -0.00595868 0.033642 0.00459408 0.0134388 -0.00736574 -0.105771 -0.0352737 -0.00113793 0.0202229 0.00926896
internal_weight=0 35418 126115 5437 4411 29981 96290 20642 14693 29825 9339 31514 64776 11886 3857 3567 2807 27726 1516 60059 26710 15192 2747 7823 5949 520 10158 21835 6908 5110
internal_count=161533 35418 126115 5437 4411 29981 96290 20642 14693 29825 9339 31514 64776 11886 3857 3567 2807 27726 1516 60059 26710 15192 2747 7823 5949 520 10158 21835 6908 5110
is_linear=0
shrinkage=0.0545865


Tree=3
num_leaves=31
num_cat=0
split_feature=3 12 6 36 0 65 6 9 58 63 9 0 63 83 0 42 58 96 38 83 2 21 84 66 71 83 38 64 2 10
split_gain=33316.9 21851.1 8702.22 6616.87 4971.14 3716.87 3593.84 3407.14 3272.3 2719.89 1665.17 1810.15 1622.79 1377.39 1201.01 1146.43 1085.82 1081.12 1195.58 1017.81 923.76 871.055 868.665 823.297 737.079 719.633 668.625 666.298 1060.3 666.069
threshold=-0.35686984296263574 -0.12877923516519699 -0.17738922793997625 -0.12430035080913708 -1.0000000180025095e-35 -0.1383218865697611 -0.17738922793997625 -0.93676878565770694 -0.13879149822709155 0.14885032052415914 -1.1479157213748008 1.0000000180025095e-35 0.0065419080192132741 0.58447543039465155 -1.0000000180025095e-35 1.3952076184165725 -0.26878587285098293 -1.0991744437066022 -0.21776702498299019 0.665431917077555 -0.83080811191872195 -0.41680334524452367 -0.51966978085688253 -0.40622074617642628 -0.60534506143863065 0.18092350655419229 -0.59907628504369836 -0.80577270227968689 -0.55938268293456417 -0.19186529184788245
decision_type=8 8 10 8 8 10 10 2 8 8 2 10 10 10 8 8 10 2 10 10 10 10 10 8 8 8 10 8 10 10
left_child=1 5 12 6 7 27 8 -5 25 13 -8 16 15 22 21 -2 -12 -6 -19 -11 -9 -10 29 -13 -23 -3 -18 -1 -29 -4
right_child=2 3 9 4 17 -7 10 20 14 19 11 23 -14 -15 -16 -17 26 18 -20 -21 -22 24 -24 -25 -26 -27 -28 28 -30 -31
leaf_value=-0.034849027837870722 0.024465765593009926 0 -0.0099477294639486891 0 0 0 -0.00077370645381837837 0 0.0089972375302328784 -0.024550792514418749 -0.052355949645908145 -0.010671800532258188 -0.012210104453391595 0.019273810740021761 -0.0051323062497266982 0.04412161610195018 -0.16278812673094303 -0.088401103904847247 0 -0.0019565980309161988 -0.16649927117874144 -0.10228127256864539 0.0048933671270946786 -0.046969872083284694 0 0.036421748631936091 0 0 -0.16649927117874144 -0.076812598896087173
leaf_weight=228 17978 3090 2667 336 956 435 3081 127 203 11379 1141 2994 2057 23467 1663 22132 797 2349 511 13737 985 1383 32075 8256 187 4324 111 83 2178 623
leaf_count=228 17978 3090 2667 336 956 435 3081 127 203 11379 1141 2994 2057 23467 1663 22132 797 2349 511 13737 985 1383 32075 8256 187 4324 111 83 2178 623
internal_value=0 -0.0471644 0.0127508 -0.0338833 -0.0902815 -0.166499 -0.0227618 -0.166499 0.00108139 0.00251245 -0.0389126 -0.0473062 0.0329939 0.00899032 -0.0423684 0.0354588 -0.0964038 -0.0550832 -0.0719298 -0.0124274 -0.166499 -0.0739605 0.00200018 -0.0378335 -0.0884217 0.0220131 -0.145165 -0.166499 -0.166499 -0.0244147
internal_weight=0 35418 126115 32494 5264 2924 27230 1448 10850 83948 16380 13299 42167 58832 3436 40110 2049 3816 2860 25116 1112 1773 35365 11250 1570 7414 908 2489 2261 3290
internal_count=161533 35418 126115 32494 5264 2924 27230 1448 10850 83948 16380 13299 42167 58832 3436 40110 2049 3816 2860 25116 1112 1773 35365 11250 1570 7414 908 2489 2261 3290
is_linear=0
shrinkage=0.0545865


Tree=4
num_leaves=31
num_cat=0
split_feature=3 1 6 13 7 9 11 38 9 19 19 5 63 74 42 5 42 78 35 42 2 26 30 81 40 72 65 71 30 54
split_gain=30304.6 25239.5 7781.84 5639.49 4479.96 3453.5 3938.67 3307.75 2595.48 2482.55 1986.82 1516.1 1461.93 1233.17 2867.56 1132.64 1088.1 1183.02 1056.66 973.062 962.995 1064.34 763.269 665.91 660.595 656.468 709.405 655.573 643.527 625.358
threshold=-0.35686984296263574 0.49352418804713288 -0.17738922793997625 0.38229643291613985 1.0000000180025095e-35 -0.8016347467987669 1.0000000180025095e-35 -0.21776702498299019 -1.1141322116600658 0.3953359062280139 -0.61474129651520915 0.11591053665029584 0.14885032052415914 -0.036552746919488559 -0.90019923633744814 0.58849080337888826 -1.0643719950813935 -1.0014705596561899 -0.14121092873488111 0.40715840054289237 -0.85168699107134949 inf -0.6281205865057834 -0.94074725654070546 0.53560581585068545 -0.70176355216656194 -3.3500903486009963 0.5242833446021804 0.4391273465751489 0.23441259114188348
decision_type=8 8 10 10 10 2 10 8 2 8 10 10 10 8 10 8 10 10 8 8 8 8 10 8 10 10 10 8 8 10
left_child=1 4 12 7 10 22 13 8 -3 11 -1 -4 15 14 25 -2 17 -8 -13 28 -10 23 -6 -22 -19 -7 -27 -12 -15 -11
right_child=2 3 9 -5 5 6 16 -9 20 29 27 18 -14 19 -16 -17 -18 24 -20 -21 21 -23 -24 -25 -26 26 -28 -29 -30 -31
leaf_value=0.033691918486004876 0.021096552014220078 0 -0.014965891665616429 -0.048941011481163622 0.025148463780388187 -0.043817536436723065 0 0 0 -0.040217351148441105 -0.0353197882511384 0.018333501183256832 -0.01605528157231572 -0.030614198205388247 -0.032418216474615048 0.040883993331045594 -0.086091659185891872 -0.16649927117874144 0.0033214371103924235 -0.00465163991982432 0 0 -0.016699931501067883 -0.16649927117874144 0 0 -0.16649927117874144 0.010948253519912644 -0.083872647429492658 -0.010693700231756626
leaf_weight=4272 15749 256 7826 1366 1688 392 142 374 67 2781 2687 27022 1704 3925 3150 24714 1719 542 31331 3751 64 70 4971 2593 68 99 997 1135 1090 14988
leaf_count=4272 15749 256 7826 1366 1688 392 142 374 67 2781 2687 27022 1704 3925 3150 24714 1719 542 31331 3751 64 70 4971 2593 68 99 997 1135 1090 14988
internal_value=0 -0.0450923 0.0120497 -0.161842 -0.0266367 -0.0391918 -0.0530758 -0.166499 -0.166499 0.00236379 0.00759276 0.00728854 0.031193 -0.0407205 -0.0644714 0.0333282 -0.117674 -0.166499 0.010374 -0.027478 -0.166499 -0.166499 -0.00520793 -0.166499 -0.166499 -0.128309 -0.153102 -0.0200453 -0.0433762 -0.015647
internal_weight=0 35418 126115 4790 30628 22534 15875 3424 3050 83948 8094 66179 42167 13404 4638 40463 2471 752 58353 8766 2794 2727 6659 2657 610 1488 1096 3822 5015 17769
internal_count=161533 35418 126115 4790 30628 22534 15875 3424 3050 83948 8094 66179 42167 13404 4638 40463 2471 752 58353 8766 2794 2727 6659 2657 610 1488 1096 3822 5015 17769
is_linear=0
shrinkage=0.0545865


Tree=5
num_leaves=31
num_cat=0
split_feature=18 1 45 36 13 13 66 16 66 62 53 64 42 64 19 42 96 75 64 81 18 62 79 40 83 63 18 45 7 36
split_gain=26168.6 14903.5 6220.94 10845.6 6950.16 4176.5 3263.85 2353.74 2227.98 2101.45 2039.32 1347.65 1526.38 1299.31 1149.39 1137.47 1182.68 1104.7 1022.68 961.6 935.434 893.525 892.943 967.12 844.712 761.798 735.07 720.012 683.402 654.33
threshold=-0.4135236129694792 0.39027082872604313 -1.1437946943708388 0.36859287585152656 -1.3602476141961068 0.38229643291613985 0.012381711324079005 0.56830400838616757 -0.42085719573938102 0.61201468289750738 0.90587226776798768 -0.40734682676729644 -0.73602647759350304 -0.70287931711809015 2.6342795975072164 -0.36852025987020354 -1.0991744437066022 -1.0000000180025095e-35 -0.78011468006472307 -0.79257646140262328 -0.82898234460247722 -0.21348625689667308 0.0055877945914752231 -0.28290609124812821 0.62902254809633307 -0.63039186057088392 0.34668264310830194 0.17278127957362843 -3.7464755582066847 -0.37074696413946884
decision_type=8 8 8 8 10 10 8 8 8 2 10 8 10 10 8 10 2 8 8 8 10 2 10 8 10 8 10 10 10 10
left_child=1 8 3 13 10 9 17 19 11 18 21 25 20 -2 24 16 -10 27 -3 -5 -13 -4 23 -15 -8 -1 -19 -6 -21 -18
right_child=2 5 4 7 6 -7 14 -9 15 -11 -12 12 -14 22 -16 -17 29 26 -20 28 -22 -23 -24 -25 -26 -27 -28 -29 -30 -31
leaf_value=0.035435434920844167 0.021161175910304444 -0.023788221554324133 0.027856720577459516 -0.015274313088611272 0 -0.055029100588052438 -0.016584465647171611 0 -0.011770956505609508 -0.0015499456432678809 -0.0067936209951168442 -0.10409021903760447 -0.0085744629820940672 -0.16649927117874144 -0.035420588809111822 -0.034869399546250728 -0.068133459784379666 -0.012645861896835293 -0.16649927117874144 0 0 0.04792725833957532 -2.0874076714070328e-05 -0.039138506403549302 0.0025211963505731446 -0.0092018945158653994 0.0080012741808294444 0.020486750575414384 -0.16649927117874144 -0.1331850485045922
leaf_weight=1443 2206 246 17173 211 5581 1236 11934 244 964 302 3275 1248 2426 199 4675 7234 2550 6889 2010 49 469 13923 1229 875 15331 5391 19202 31449 598 971
leaf_count=1443 2206 246 17173 211 5581 1236 11934 244 964 302 3275 1248 2426 199 4675 7234 2550 6889 2010 49 469 13923 1229 875 15331 5391 19202 31449 598 971
internal_value=0 -0.0501827 0.00915112 -0.0469062 0.011627 -0.150748 0.00395053 -0.166499 -0.0331064 -0.166499 0.0326865 -0.0146663 -0.0392275 -0.00711692 -0.0101723 -0.0498751 -0.0727552 0.0111899 -0.166499 -0.166499 -0.0790878 0.0370333 -0.0367486 -0.0732734 -0.00562649 0 0.00232438 0.0172777 -0.166499 -0.0877762
internal_weight=0 26490 135043 5611 129432 3794 95061 1102 22696 2558 34371 10977 4143 4509 31940 11719 4485 63121 2256 858 1717 31096 2303 1074 27265 6834 26091 37030 647 3521
internal_count=161533 26490 135043 5611 129432 3794 95061 1102 22696 2558 34371 10977 4143 4509 31940 11719 4485 63121 2256 858 1717 31096 2303 1074 27265 6834 26091 37030 647 3521
is_linear=0
shrinkage=0.0545865


Tree=6
num_leaves=31
num_cat=0
split_feature=5 36 13 63 65 4 95 96 30 10 54 44 91 41 11 74 3 11 84 64 96 24 5 23 63 66 98 96 74 3
split_gain=24515.9 11728.2 6918.14 4356.7 4927.72 12581.2 4374.93 2768.14 2243.52 2101.51 1043.62 1031.86 967.036 1434.37 997.667 964.773 1656.02 945.963 932.813 874.995 1152.87 868.886 727.657 705.878 704.264 647.604 613.617 573.727 556.15 550.412
threshold=-0.2974076765059131 0.24536956918636063 0.18314854181759735 -0.08602764186264468 -0.901361474547279 0.79464451503278843 -0.54200128815337245 -0.83774403536326225 0.94570134114419624 -0.28174484396225891 0.54307852295955394 -0.089543811377558291 -2.7255777117872602 1.4694496458578532 1.0000000180025095e-35 -0.079759055478891949 0.15748666431235095 0.48477755708996301 -0.3363110344287385 -0.79298192965538672 -1.0991744437066022 -1.0000000180025095e-35 0.68337300697223891 -0.82903061863478034 -0.61243060462365773 -0.51599411789858673 -0.14361627029136689 -0.83774403536326225 -0.041311482190398825 -2.0405198455099982
decision_type=8 8 10 10 8 8 8 2 8 10 10 8 10 8 10 8 8 10 8 8 2 8 8 10 8 8 8 2 8 10
left_child=1 7 19 4 5 9 15 25 17 11 26 -2 -11 14 -14 16 -6 24 -8 -3 -21 -13 -17 27 28 -1 -5 -7 -9 -10
right_child=3 2 -4 10 6 23 18 8 29 12 -12 21 13 -15 -16 22 -18 -19 -20 20 -22 -23 -24 -25 -26 -27 -28 -29 -30 -31
leaf_value=0.02552172473356425 0.020204358935253481 -0.027324687547318482 -0.051440646369945789 -0.03520273030626668 -0.16649927117874144 0 -0.0059013985771129186 -0.059955878811360996 -0.046371556226093402 0 0 -0.06152446373493934 0 -0.010801995545145323 -0.16649927117874144 0.023520909156133103 0.0011833363134840244 -0.086052522418481436 0.011610158098929971 0 -0.16649927117874144 0.024380401870502878 0.039994684516629866 0 -0.036148034648994444 -0.013358535838379345 -0.0096642096530037795 -0.16649927117874144 0.016920585842921651 -0.11642368593837349
leaf_weight=1638 4794 236 2004 4949 97 39 11122 349 851 293 22202 1000 103 374 309 16378 379 1157 41320 169 1605 421 22196 66 10146 5231 8654 426 1391 1634
leaf_count=1638 4794 236 2004 4949 97 39 11122 349 851 293 22202 1000 103 374 309 16378 379 1157 41320 169 1605 421 22196 66 10146 5231 8654 426 1391 1634
internal_value=0 -0.0487643 -0.135153 0.00873374 0.014639 -0.026631 0.0182331 -0.0330137 -0.0458097 -0.00402446 -0.00748241 0.00733262 -0.0748151 -0.106497 -0.166499 0.0321143 -0.03965 -0.0360134 0.0077843 -0.166499 -0.166499 -0.0319467 0.0331532 -0.166499 -0.0306411 -0.00322999 -0.0193892 -0.166499 0 -0.0948267
internal_weight=0 26411 4014 135122 99317 7825 91492 22397 15528 7294 35805 6215 1079 786 412 39050 476 13043 52442 2010 1774 1421 38574 531 11886 6869 13603 465 1740 2485
internal_count=161533 26411 4014 135122 99317 7825 91492 22397 15528 7294 35805 6215 1079 786 412 39050 476 13043 52442 2010 1774 1421 38574 531 11886 6869 13603 465 1740 2485
is_linear=0
shrinkage=0.0545865


Tree=7
num_leaves=31
num_cat=0
split_feature=3 1 6 20 91 96 66 54 91 9 74 6 45 63 74 5 38 13 11 75 9 13 76 7 80 46 26 67 38 70
split_gain=23224.2 21531 5816.78 4770.08 3499.49 2925.1 2905.66 2706.75 2233.8 2012.73 1965.96 1614.5 1604.58 1421.47 1316.72 1109.27 1093.99 1008.01 987.68 980.49 963.665 849.024 816.724 790.043 742.662 878.189 665.679 634.113 664.273 700.546
threshold=-0.35686984296263574 1.3195510626158511 -0.17651685753135526 1.0000000180025095e-35 -1.0000000180025095e-35 -0.83774403536326225 -0.55843982163115546 -0.30116144060319666 1.0000000180025095e-35 -0.95366054051507454 -0.041499895610133376 -0.029958628883030077 -0.62645755590843089 -0.64006330608092876 -0.037835341024470552 0.11591053665029584 -0.21776702498299019 1.0793140517610389 -0.76579585131145189 -0.47439067125533846 -1.0296734373732284 0.97974010621176755 -0.043971124315090544 1.0000000180025095e-35 5.2724701191258161 -0.023127109898011391 inf -0.68452310074975997 -0.49160916929067339 1.5751552214759841
decision_type=8 8 10 10 8 2 10 10 10 2 8 8 10 10 8 10 8 10 10 8 2 8 8 10 8 10 8 8 10 8
left_child=1 3 13 6 5 -5 10 9 14 -3 -1 15 18 27 -8 -4 20 22 -7 -17 -6 -22 -11 -12 25 -15 -24 28 29 -2
right_child=2 7 11 4 16 12 8 -9 -10 17 23 -13 -14 24 -16 19 -18 -19 -20 -21 21 -23 26 -25 -26 -27 -28 -29 -30 -31
leaf_value=-0.062813277215099619 -0.064219387003725592 0 -0.016075937207654323 0 0 -0.016522435938920915 -0.164532992878382 -0.017891715724461927 -0.021467221968446887 0 0.034885729038672757 -0.01764491885087938 0 0.012653859340522747 -0.054962791587766714 0.016966948614682429 0.003517615379202174 0 -0.16649927117874144 0.0011636679590356636 -0.089545778022271927 -0.0077433356995780123 -0.16649927117874144 0.0006512438301862132 -0.039911018573716525 0.034175189014915057 0 0.040605807314202796 0.029229070639177041 0.02023160612641749
leaf_weight=1075 579 273 7130 390 908 218 497 454 13422 84 3546 12494 205 25063 2102 18264 1029 147 1191 35069 2048 665 1651 5479 609 8072 34 16142 2248 445
leaf_count=1075 579 273 7130 390 908 218 497 454 13422 84 3546 12494 205 25063 2102 18264 1029 147 1191 35069 2048 665 1651 5479 609 8072 34 16142 2248 445
internal_value=0 -0.0398004 0.0102212 -0.0273411 -0.06888 -0.130561 -0.0165323 -0.166499 -0.0310475 -0.166499 0.00591203 0.000133346 -0.162969 0.0239557 -0.078235 0.00390436 -0.0410103 -0.166499 -0.166499 0.00668584 -0.0552818 -0.0716689 -0.166499 0.0147552 0.016853 0.0180748 -0.166499 0.0359969 0.0114602 -0.0218114
internal_weight=0 35418 126115 32775 6654 2004 26121 2643 16021 2189 10100 72957 1614 53158 2599 60463 4650 1916 1409 53333 3621 2713 1769 9025 33744 33135 1685 19414 3272 1024
internal_count=161533 35418 126115 32775 6654 2004 26121 2643 16021 2189 10100 72957 1614 53158 2599 60463 4650 1916 1409 53333 3621 2713 1769 9025 33744 33135 1685 19414 3272 1024
is_linear=0
shrinkage=0.0545865


Tree=8
num_leaves=31
num_cat=0
split_feature=5 36 13 54 4 28 3 9 6 85 30 0 16 11 63 95 75 42 67 3 94 15 1 15 7 94 13 72 84 3
split_gain=20368.4 9870.98 7435.11 3560.07 8398.28 4599.09 4242.16 2186.42 1968.67 1792.91 1755.47 1201.4 1495.54 1539.23 1121.1 1023.01 1018 955.451 862.723 1188.78 790.824 953.557 723.378 678.763 675.894 653.129 676.74 575.054 562.636 548.826
threshold=-0.20992154134515623 0.24536956918636063 0.18314854181759735 -1.002784582479922 0.79464451503278843 -0.56927219339783119 -0.35686984296263574 -1.0296734373732284 -0.10149300238995072 0.58910590193273549 1.5850663870315993 inf 0.56830400838616757 1.0000000180025095e-35 -0.20622989320177371 -0.73650778253871851 -1.0000000180025095e-35 -0.52817464892329313 -1.5319831418682144 0.19761435574640987 2.3848231645970634 -0.42829936549364561 0.080510750762773878 -0.4673559352701892 1.0000000180025095e-35 1.4213734410530734 1.0295270789864033 -0.61750590700123209 -0.36087316019444154 -0.35686984296263574
decision_type=8 8 10 8 8 8 8 2 10 10 8 8 8 10 8 8 8 10 8 10 10 8 8 8 10 10 10 10 8 8
left_child=1 9 7 4 11 15 24 -3 16 10 17 12 13 -2 -11 18 -7 -1 19 22 21 -9 -5 -15 -6 26 29 -24 -18 -12
right_child=3 2 -4 5 6 8 -8 20 -10 14 25 -13 -14 23 -16 -17 28 -19 -20 -21 -22 -23 27 -25 -26 -27 -28 -29 -30 -31
leaf_value=-0.053895664607676724 -0.031555047362845874 0 -0.043118969894635387 0 0 0.013037045579773903 0 0 -0.015053179306430594 0.0049512127729738741 -0.14316408822228932 0.026840330378540399 0 0 -0.032959148345058836 0.016143453241901994 -0.020142521196018625 -0.021423132428539729 0.035564036159780307 0.021828105845505551 0 -0.16649927117874144 0 -0.16649927117874144 -0.16649927117874144 0 0 -0.16649927117874144 0.0021183174364410202 0
leaf_weight=4683 1024 292 2314 65 55 34464 434 57 15329 5902 985 2141 3044 92 3633 24841 3888 8881 20562 625 88 1751 45 209 423 234 186 197 24944 145
leaf_count=4683 1024 292 2314 65 55 34464 434 57 15329 5902 985 2141 3044 92 3633 24841 3888 8881 20562 625 88 1751 45 209 423 234 186 197 24944 145
internal_value=0 -0.0421109 -0.116846 0.00828704 -0.028227 0.010503 -0.166499 -0.166499 0.00238078 -0.0282182 -0.0400283 -0.00542321 -0.0225798 -0.0709965 -0.00887992 0.0241584 0.00669586 -0.0330706 0.0331469 -0.0138683 -0.166499 -0.166499 -0.105406 -0.166499 -0.166499 -0.0970633 -0.112128 -0.151481 -0.000680645 -0.128151
internal_weight=0 29151 4502 132382 7422 124960 912 2188 78625 24649 15114 6510 4369 1325 9535 46335 63296 13564 21494 932 1896 1808 307 301 478 1550 1316 242 28832 1130
internal_count=161533 29151 4502 132382 7422 124960 912 2188 78625 24649 15114 6510 4369 1325 9535 46335 63296 13564 21494 932 1896 1808 307 301 478 1550 1316 242 28832 1130
is_linear=0
shrinkage=0.0545865


Tree=9
num_leaves=31
num_cat=0
split_feature=18 1 38 4 6 9 11 6 96 11 21 53 30 74 0 38 26 53 66 18 27 80 74 71 41 35 52 40 95 62
split_gain=18118.2 12167 4560.26 10559.3 5063.81 2492 3415.38 1783.61 1630.63 1629.24 2216.96 1229.88 1162.62 1010.93 1269.61 1089.96 1010.2 949.18 877.977 823.122 760.291 826.426 718.785 851.117 706.612 690.168 681.172 649.92 645.704 826.402
threshold=-0.4135236129694792 1.3195510626158511 -1.0665281473779449 0.79464451503278843 -0.17738922793997625 -0.78474299194139929 1.0000000180025095e-35 0.15411152733599742 -1.0991744437066022 1.0000000180025095e-35 -0.21776389742045635 1.0558358793550473 0.38502725605872584 -0.037835341024470552 1.0000000180025095e-35 -0.59907628504369836 -1.0000000180025095e-35 -1.4012827487774573 -0.53355785737413242 0.20337918579396538 3.0653725511551171 1.7899203009580347 -0.034397228255185944 -1.3328191316473732 -0.70658188140520195 0.38577245016774248 0.84811402339371511 0.14852629328178829 -0.34749479376802644 -0.21348625689667308
decision_type=8 8 8 8 10 2 10 10 2 10 10 10 8 8 10 8 8 8 8 10 8 8 8 10 10 8 8 10 8 2
left_child=1 5 3 9 11 18 13 19 -3 22 -11 28 24 14 15 -7 -5 -14 -1 -6 -15 -22 23 -2 -8 -21 -26 -19 29 -4
right_child=2 8 4 16 7 6 12 -9 -10 10 -12 -13 17 20 -16 -17 -18 27 -20 25 21 -23 -24 -25 26 -27 -28 -29 -30 -31
leaf_value=0.027525637690456722 -0.058985056701046486 0 0.02126399755601055 -0.16649927117874144 -0.0059782623425967442 -0.14448437810177736 -0.0085234971914787492 -0.022653113294789012 -0.16649927117874144 -0.017732181552894296 -0.16649927117874144 -0.025647648469808767 -0.012669290783421489 -0.029912956056964039 -0.033718735736937518 0 0 -0.16649927117874144 -0.01558700409494391 0.01195696650968479 0.012842065282896647 -0.090935464796558313 0.015888699328723548 0.016100088548447994 -0.099224513988094745 0 0 0 0.010075805543412343 0.039342832780066679
leaf_weight=1821 1061 198 18868 427 17188 745 634 7992 1723 797 257 1276 211 7008 2990 274 106 606 5651 37623 2592 246 3263 610 1522 22782 156 113 6993 15800
leaf_count=1821 1061 198 18868 427 17188 745 634 7992 1723 797 257 1276 211 7008 2990 274 106 606 5651 37623 2592 246 3263 610 1522 22782 156 113 6993 15800
internal_value=0 -0.0421346 0.00723368 -0.0371115 0.00952966 -0.0314728 -0.0430074 0.00178104 -0.166499 -0.0121748 -0.0737726 0.0248376 -0.0943232 -0.0305695 -0.0545794 -0.109931 -0.166499 -0.15164 -0.00429201 0.00437367 -0.0201921 0.00174674 0 -0.0280723 -0.0686675 0.0074165 -0.0878751 -0.166499 0.0265254 0.0296738
internal_weight=0 26490 135043 6521 128522 24569 17097 85585 1921 5988 1054 42937 3242 13855 4009 1019 533 930 7472 77593 9846 2838 4934 1671 2312 60405 1678 719 41661 34668
internal_count=161533 26490 135043 6521 128522 24569 17097 85585 1921 5988 1054 42937 3242 13855 4009 1019 533 930 7472 77593 9846 2838 4934 1671 2312 60405 1678 719 41661 34668
is_linear=0
shrinkage=0.0545865


Tree=10
num_leaves=31
num_cat=0
split_feature=3 36 0 63 42 9 30 1 60 30 96 66 31 46 80 63 54 50 5 43 84 8 37 96 15 47 75 72 71 5
split_gain=17740.7 17851.9 8585.03 4363.65 2869.74 2335.17 2170.4 1964.95 2139.48 1919.28 1394.54 1142.09 1173.02 1040.19 910.141 875.716 831.207 769.132 748.254 684.419 656.298 866.478 636.281 628.138 689.359 681.006 608.624 571.907 561.263 559.924
threshold=-0.35686984296263574 0.24536956918636063 -1.0000000180025095e-35 -0.35959138628962789 -0.09289073124004836 -0.81852650165613439 -0.67238434356536125 1.6293111405791203 0.49495695482532337 0.25715418825181108 -1.0991744437066022 -0.42085719573938102 0.12607833409866309 -0.027853836795782381 0.088650498612467793 1.1767868147346419 -0.5623672201751857 0.51036314020492968 -0.47891061051840739 -0.20995402256399401 -1.5841212394843598 -0.49510279971697663 -0.75019961504416599 -0.83774403536326225 -0.52594078993500448 -1.1609006322620457 -0.21458279849394765 0.52165745563402599 0.60474609239132959 0.33971571127615979
decision_type=8 8 8 10 8 2 10 8 10 8 2 10 10 10 8 10 10 10 10 8 10 8 8 2 10 8 10 8 10 10
left_child=1 4 5 6 9 -3 19 -4 17 18 -11 12 -6 -5 29 27 -7 22 23 -2 21 -12 -9 -1 -25 26 -26 -15 -17 -8
right_child=3 2 7 13 11 16 14 8 -10 10 20 -13 -14 15 -16 28 -18 -19 -20 -21 -22 -23 -24 24 25 -27 -28 -29 -30 -31
leaf_value=0 0.020164736449266071 0 -0.036207451112484267 -0.019686289314650159 0.016463829613248149 -0.16649927117874144 0.0041737611325781826 0 -0.035412418606556799 -0.00078584303624353751 -0.041373629748625539 -0.020554904862249559 -0.029802553527060346 0.00011249258088249778 -0.034164334587149049 -0.028551503928884038 0 0 0.0099728531331355723 0.0375160082246839 -0.063697510098765092 -0.16649927117874144 -0.16649927117874144 -0.030733405067091369 -0.16649927117874144 -0.024268179204484153 0 0.015647849056406642 -0.0011605945039684399 0.018075454570623775
leaf_weight=1740 16986 250 2434 8980 8470 1243 20722 73 654 829 384 7464 1959 26697 1350 4342 59 112 1439 14699 2025 671 612 4363 246 345 46 10001 5567 16771
leaf_count=1740 16986 250 2434 8980 8470 1243 20722 73 654 829 384 7464 1959 26697 1350 4342 59 112 1439 14699 2025 671 612 4363 246 345 46 10001 5567 16771
internal_value=0 -0.0350302 -0.126208 0.00868757 -0.0182954 -0.166499 0.0177128 -0.0697249 -0.121836 -0.0389003 -0.0710972 -0.0040457 0.00720803 -0.00265803 0.00884296 0.000497342 -0.166499 -0.166499 -0.0227872 0.0284005 -0.0881097 -0.129292 -0.166499 -0.0306528 -0.0405061 -0.0980723 -0.164821 0.00450651 -0.0137571 0.010549
internal_weight=0 35418 5437 126115 29981 1552 70528 3885 1451 12088 3909 17893 10429 55587 38843 46607 1302 797 8179 31685 3080 1055 685 6740 5000 637 292 36698 9909 37493
internal_count=161533 35418 5437 126115 29981 1552 70528 3885 1451 12088 3909 17893 10429 55587 38843 46607 1302 797 8179 31685 3080 1055 685 6740 5000 637 292 36698 9909 37493
is_linear=0
shrinkage=0.0545865


Tree=11
num_leaves=31
num_cat=0
split_feature=5 12 45 4 27 9 11 19 2 71 0 11 64 63 31 13 5 96 9 66 80 58 0 64 90 67 3 36 13 86
split_gain=15416.6 9129.47 4482.19 9684.23 3700.72 2726.17 3090.34 1973.51 1906.98 1668.37 1542.99 1428.58 1413.26 1277.13 1201.85 1166.21 1037.09 1004.91 848.714 831.444 790.472 819.004 1085.59 840.791 833.254 715.339 744.697 742.374 701.118 656.125
threshold=-0.2974076765059131 -0.24784419568843277 -1.1437946943708388 0.79464451503278843 inf -1.0634569470879633 1.0000000180025095e-35 0.81468203733079603 -0.28099762756619717 -0.19602152948570137 -1.0000000180025095e-35 1.0000000180025095e-35 -0.78011468006472307 -0.40656697876698872 -0.59040072132571819 0.33250946014150423 0.11591053665029584 -0.83774403536326225 -0.81852650165613439 -0.39304794156976708 1.293014764629379 -0.52877462209876558 1.0000000180025095e-35 -0.49720726224444195 2.9608793421330994 -0.7547109312548933 0.19761435574640987 0.12214626252119472 0.083574596268326071 0.50527532249419904
decision_type=8 8 8 8 8 2 10 8 10 10 8 10 8 10 10 10 10 2 2 10 8 8 10 8 10 8 10 8 10 8
left_child=1 9 3 8 7 -3 20 16 29 15 12 -10 -8 25 -13 -1 -4 -5 -14 -18 21 -7 23 -23 -24 26 27 -6 -20 -2
right_child=2 5 4 17 13 6 10 -9 11 -11 -12 14 18 -15 -16 -17 19 -19 28 -21 -22 22 24 -25 -26 -27 -28 -29 -30 -31
leaf_value=-0.16649927117874144 -0.0075253271480778747 0.0029771328120048626 -0.011399047072749375 0 0.016176673814931521 -0.0025320188903875177 -0.014972386848599922 -0.016612369090652359 -0.015806170946087425 0 -0.059477013612607571 -0.03078362908184961 0 0 -0.16649927117874144 -0.061160888215169414 0.015153973064326767 -0.16649927117874144 -0.16649927117874144 0.0033615566595936678 -0.079605662207702668 -0.015367542073741561 -0.032212936098357105 -0.093408287744968344 0.0072684576359225246 0.03355996121809831 0.024436201843012748 -0.057981598024418358 0 0.040655933250361348
leaf_weight=957 2417 5380 8554 93 602 4240 294 12774 977 249 3087 343 102 5293 267 491 31992 433 620 43989 929 857 5820 1446 1888 22491 2865 830 51 1202
leaf_count=957 2417 5380 8554 93 602 4240 294 12774 977 249 3087 343 102 5293 267 491 31992 433 620 43989 929 857 5820 1446 1888 22491 2865 830 51 1202
internal_value=0 -0.0390938 0.0064987 -0.0405527 0.00862878 -0.0303872 -0.0399746 0.00325848 -0.0135683 -0.162331 -0.0824305 -0.0638293 -0.143211 0.0247345 -0.13097 -0.166499 0.00633076 -0.166499 -0.166499 0.00840419 -0.0279647 -0.0241805 -0.0327617 -0.0669366 -0.0217813 0.0295758 0.00735296 -0.022722 -0.166499 0.00686357
internal_weight=0 26411 135122 5732 129390 24714 19334 97309 5206 1697 4154 1587 1067 32081 610 1448 84535 526 773 75981 15180 14251 10011 2303 7708 26788 4297 1432 671 3619
internal_count=161533 26411 135122 5732 129390 24714 19334 97309 5206 1697 4154 1587 1067 32081 610 1448 84535 526 773 75981 15180 14251 10011 2303 7708 26788 4297 1432 671 3619
is_linear=0
shrinkage=0.0545865


Tree=12
num_leaves=31
num_cat=0
split_feature=3 1 28 20 38 42 7 16 13 66 42 63 58 40 16 45 42 85 53 80 50 83 46 25 7 45 79 27 16 57
split_gain=14894.4 16778.3 3587.65 3424.12 3295.98 2596.57 2388.36 2788.05 2260.04 2086.95 1953.46 1656.26 1522.38 1324.04 1115.5 986.081 907.093 775.968 766.123 696.4 674.554 669.358 665.975 607.197 602.12 588.695 698.364 559.169 555.514 542.99
threshold=-0.35686984296263574 1.3195510626158511 -0.59566117164248722 1.0000000180025095e-35 -0.31211138878705108 -0.54624866633599323 1.0000000180025095e-35 0.82161137745683199 0.33250946014150423 -0.55843982163115546 -0.88212521892474804 -0.21728297378468206 0.64117474951625675 1.0154231407017142 0.82161137745683199 -0.53309640368510924 1.3952076184165725 0.70280320935433471 0.97675350605718381 -0.71566270002120314 0.33053133661930739 0.63714694121312154 -0.026496159920890713 1.9904934993482024 1.0000000180025095e-35 -0.25381958084385858 -1.5319175585576077 2.1152349637738213 -1.2048475751084824 4.5565929070826092
decision_type=8 8 8 10 8 10 10 8 10 10 10 8 8 8 8 10 8 10 10 10 8 10 10 8 10 10 10 10 10 10
left_child=1 3 16 9 8 6 -5 13 14 12 20 19 18 15 28 17 -2 23 24 -4 -11 -13 -21 27 -1 26 -7 -8 -3 -30
right_child=2 4 11 5 -6 25 7 -9 -10 10 -12 21 -14 -15 -16 -17 -18 -19 -20 22 -22 -23 -24 -25 -26 -27 -28 -29 29 -31
leaf_value=0.037718985431893802 0.01289850303748143 0 0.046875183855737683 0 -0.015353569109008461 -0.11391748800887098 -0.16649927117874144 0 -0.035240289613556124 -0.10481713215723908 -0.014822177030534003 -0.014089273095280774 -0.050536388623046484 0 0 0 0.029219201988507259 0 -0.050674852588314043 0.0013747326342085813 -0.040841956445669972 0 0.016072248935712703 0 0.0061224222232929004 0.0035011137265427003 -0.02748232046804917 0 -0.16649927117874144 0
leaf_weight=3316 25150 29 1406 480 516 386 1196 393 505 1032 13037 20190 1173 94 140 108 19663 95 453 26029 1952 18573 15104 54 5158 985 2789 74 1430 23
leaf_count=3316 25150 29 1406 480 516 386 1196 393 505 1032 13037 20190 1173 94 140 108 19663 95 453 26029 1952 18573 15104 54 5158 985 2789 74 1430 23
internal_value=0 -0.0322718 0.00778428 -0.021394 -0.164879 -0.0565951 -0.101579 -0.127701 -0.166499 -0.0122002 -0.0245318 0.000873291 0.0067801 -0.159311 -0.166499 -0.166499 0.0201912 -0.166499 0.0149743 0.0083746 -0.0649648 -0.00720732 0.00691464 -0.166499 0.0191826 -0.0281958 -0.0398752 -0.166499 -0.166499 -0.166499
internal_weight=0 35418 126115 32775 2643 6654 2494 2014 2127 26121 16021 81302 10100 1621 1622 1527 44813 1419 8927 42539 2984 38763 41133 1324 8474 4160 3175 1270 1482 1453
internal_count=161533 35418 126115 32775 2643 6654 2494 2014 2127 26121 16021 81302 10100 1621 1622 1527 44813 1419 8927 42539 2984 38763 41133 1324 8474 4160 3175 1270 1482 1453
is_linear=0
shrinkage=0.0545865


Tree=13
num_leaves=31
num_cat=0
split_feature=71 4 6 0 91 16 54 11 66 26 84 6 44 96 4 4 42 74 96 46 53 95 70 13 25 25 60 50 2 90
split_gain=11733.3 15722.7 3924.41 3808.3 2993.23 3428.17 2512.09 2479.16 1143.74 1130.86 1094.81 1081.85 1057.61 1060.58 1033.97 1025.53 953.644 1119.1 924.2 870.469 862.994 912.897 795.768 1453.55 747.075 737.219 702.512 638.144 633.212 631.296
threshold=-0.58772460838624874 1.0575093279402779 -0.17651685753135526 1.0000000180025095e-35 -2.7255777117872602 0.82161137745683199 -0.19346842448782894 1.0000000180025095e-35 -0.55843982163115546 -2.6609044106444872 -0.45712216154817337 0.35039486927571872 -0.49561533498725413 -0.83774403536326225 0.66321210857904378 1.1889417343940223 -0.99960660143193836 -0.037468885565904268 -0.83774403536326225 -0.026244738277392255 0.89415636061274861 -0.54200128815337245 -1.100302989742475 -0.065786322055580812 0.94909719262546399 0.39211345366399947 0.54638116738023801 0.37548928751571298 0.080902944412679853 1.8606715982784532
decision_type=8 8 10 10 10 8 8 10 10 10 8 10 8 2 8 8 8 8 2 10 10 8 10 10 10 8 10 8 10 10
left_child=1 4 10 9 -1 7 14 16 -7 -3 15 19 25 -14 -4 -2 17 -6 -11 -8 21 -12 -15 -24 27 -9 -5 -16 -19 -10
right_child=2 3 6 26 5 8 11 12 29 18 20 -13 13 22 24 -17 -18 28 -20 -21 -22 -23 23 -25 -26 -27 -28 -29 -30 -31
leaf_value=0.022370618670913344 0 0 -0.026752735588714004 -0.10044489307872632 -0.13178586711873286 0.013793702694198818 -0.0050609096595583547 -0.074075884916436893 -0.035373469903503513 0 0.027744710572988364 -0.022276397213573003 0 -0.023025509502326347 -0.16649927117874144 -0.097331884605805302 -0.01796604181077124 -0.068170463691919606 -0.16649927117874144 0.0074564065057527301 -0.0079416609291287649 0.01118310121573337 -0.16649927117874144 -0.043515746436729459 0 0 -0.0046784985336336682 -0.042716200249936991 0 -0.0033576314416306915
leaf_weight=4060 4444 82 3018 688 588 4405 27240 1128 4147 88 28760 5740 248 276 403 344 5426 676 938 41036 2838 17401 926 430 95 474 549 368 616 4101
leaf_count=4060 4444 82 3018 688 588 4405 27240 1128 4147 88 28760 5740 248 276 403 344 5426 676 938 41036 2838 17401 926 430 95 474 549 368 616 4101
internal_value=0 -0.0319196 0.00597971 -0.166499 -0.0201037 -0.0277114 -0.00178227 -0.0504225 -0.00788123 -0.166499 0.0173304 0.000384957 -0.0892589 -0.119589 -0.0445815 -0.00668054 -0.0310992 -0.0658499 -0.166499 0.00237641 0.0197965 0.0216292 -0.135677 -0.154243 -0.0998304 -0.0499455 -0.0627259 -0.11864 -0.0312145 -0.020169
internal_weight=0 29846 131687 2345 27501 23441 77900 10788 12653 1108 53787 74016 3482 1880 3884 4788 7306 1880 1026 68276 48999 46161 1632 1356 866 1602 1237 771 1292 8248
internal_count=161533 29846 131687 2345 27501 23441 77900 10788 12653 1108 53787 74016 3482 1880 3884 4788 7306 1880 1026 68276 48999 46161 1632 1356 866 1602 1237 771 1292 8248
is_linear=0
shrinkage=0.0545865


Tree=14
num_leaves=31
num_cat=0
split_feature=5 20 13 71 20 28 96 11 13 74 70 80 30 79 96 30 16 63 37 63 91 23 16 72 91 16 23 48 15 37
split_gain=11776.7 6523.88 6376.3 3682.44 8300.38 3031.18 2276.59 2489.16 1387.78 1335.46 1245.8 1145.63 1142.53 1194.29 1141.61 1124.11 977.973 960.211 907.124 826.901 680.532 668.835 655.206 620.641 608.039 748.164 607.183 883.4 1040.22 703.61
threshold=0.11591053665029584 1.5111554108561522 0.1333615690429617 -1.0314000043357063 0.94521949738734257 -0.59566117164248722 -1.0991744437066022 1.0000000180025095e-35 0.28272248736686861 -0.035209653092573449 -0.10927137028758951 1.549889660528091 0.043212817941838989 -1.1183816359864747 -0.83774403536326225 0.1440357672037495 0.56830400838616757 -0.62762859042515684 -0.60946612316870852 0.036937879622211407 -1.4001410421432063 -0.56225532122438893 0.82161137745683199 0.33966094207691372 -2.7255777117872602 0.56830400838616757 0.16720821910898145 -0.60805843482326605 -0.45759179282605328 -0.62608410006913162
decision_type=8 8 10 8 8 8 2 10 10 8 8 8 8 8 2 8 8 8 10 8 8 10 10 8 10 8 10 8 8 10
left_child=1 6 -3 4 9 -5 -1 15 12 10 16 17 13 22 -6 19 20 -7 -14 23 -2 -16 -9 -8 -11 -26 27 28 -15 -30
right_child=3 2 -4 5 14 11 7 8 -10 24 -12 -13 18 26 21 -17 -18 -19 -20 -21 -22 -23 -24 -25 25 -27 -28 -29 29 -31
leaf_value=0.0065860935058118276 -0.16649927117874144 -0.16649927117874144 -0.032236020533580149 0.02044238820445015 0 0.030166729382503008 -0.0084803344872318442 -0.16026440731345681 -0.026082716857938917 0.02662361910013275 -0.027207270396034357 -0.016813896462528989 -0.02574456623877425 0 -0.16649927117874144 -0.03899639764109019 0 0.0029156027644018758 -0.16460987582061737 -0.040648946751076179 0 0 0 0.034121077689444418 -0.055429672956584457 0.0031881143909762949 0.0051032206414083755 0 0 -0.16649927117874144
leaf_weight=6372 145 1201 1722 43398 96 4180 10167 407 2199 1889 1305 8220 296 167 415 6513 98 64295 868 2289 38 48 49 1099 876 1899 641 343 81 217
leaf_count=6372 145 1201 1722 43398 96 4180 10167 407 2199 1889 1305 8220 296 167 415 6513 98 64295 868 2289 38 48 49 1099 876 1899 641 343 81 217
internal_value=0 -0.0292631 -0.107795 0.00664392 -0.0322184 0.00889648 -0.0218349 -0.0292145 -0.063134 -0.011845 -0.0552421 0.00228647 -0.0877509 -0.0561093 -0.166499 -0.0200148 -0.164008 0.00466531 -0.134394 -0.0104589 -0.166499 -0.166499 -0.136604 -0.00380061 0.00166366 -0.0132166 -0.0266439 -0.0590563 -0.108172 -0.166499
internal_weight=0 34631 2923 126902 6809 120093 31708 25336 5268 6250 1586 76695 3069 1905 559 20068 281 68475 1164 13555 183 463 456 11266 4664 2775 1449 808 465 298
internal_count=161533 34631 2923 126902 6809 120093 31708 25336 5268 6250 1586 76695 3069 1905 559 20068 281 68475 1164 13555 183 463 456 11266 4664 2775 1449 808 465 298
is_linear=0
shrinkage=0.0545865


Tree=15
num_leaves=31
num_cat=0
split_feature=5 29 9 45 11 9 42 63 37 81 42 59 23 13 64 81 46 63 41 30 11 80 74 3 86 40 54 72 74 24
split_gain=10710.3 4493.34 4267.1 3536.06 6246.25 4419.12 2986.65 2834.1 2254.15 1767.17 1438.73 1382.98 1326.37 1599.98 1070.77 972.214 937.833 934.112 905.605 830.667 811.388 797.746 774.195 1355.29 744.477 697.939 1239.83 933.437 674.971 773.957
threshold=-0.20992154134515623 0.27332458156853412 -0.82697237908481813 -1.1437946943708388 1.0000000180025095e-35 -0.78474299194139929 -1.0944955968355725 -0.43696295036998672 -0.50768101465361748 -0.79257646140262328 -0.32484136949369807 -1.5691132963569094 0.21952541098335823 0.68101826956395373 -0.83150720146101398 -0.36516070619661695 -0.025540757675596579 0.14885032052415914 2.6652319400785136 1.5850663870315993 -1.0000000180025095e-35 1.0908836990041633 -0.079759055478891949 0.15748666431235095 -1.6269999545931448 -0.29500232632840623 -0.61457171540361943 -0.70513385797317507 -0.035209653092573449 -1.0000000180025095e-35
decision_type=8 8 2 8 10 2 10 10 8 8 10 10 10 10 8 8 8 10 8 8 8 8 8 10 10 8 10 10 8 8
left_child=1 10 -3 4 28 -6 8 11 -4 -7 15 22 13 18 -10 -1 21 -18 20 25 -8 -9 23 -5 -11 26 27 -17 29 -2
right_child=3 2 6 7 5 9 12 16 14 24 -12 -13 -14 -15 -16 19 17 -19 -20 -21 -22 -23 -24 -25 -26 -27 -28 -29 -30 -31
leaf_value=-0.016951855281592942 -0.06252612037710209 -0.0038507048173986899 -0.029271825172789336 -0.16649927117874144 0 -0.00017416495603644774 -0.014499029128112764 -0.0065647857858861141 0 0 -0.0071956151128458965 0.0052385663598991496 -0.01700888857867431 -0.02182676299866795 -0.16649927117874144 0 0.012464707551218226 -0.003841018278467642 -0.00028714990916528846 -0.11521414134275321 -0.16649927117874144 -0.054601676130366622 0.023392369430064883 0 -0.16649927117874144 -0.026494708094227215 0 -0.16649927117874144 0.010634572617363395 0.027222131381925592
leaf_weight=4957 962 2012 461 98 488 261 190 22750 94 37 13225 23847 1138 673 727 92 21414 19720 197 679 756 1128 37309 384 651 3065 412 473 3032 301
leaf_count=4957 962 2012 461 98 488 261 190 22750 94 37 13225 23847 1138 673 727 92 21414 19720 197 679 756 1128 37309 384 651 3065 412 473 3032 301
internal_value=0 -0.03101 -0.0723887 0.00553138 -0.0362255 -0.13477 -0.103548 0.00746788 -0.166499 -0.166499 -0.0194625 0.0158565 -0.0697236 -0.0994963 -0.166499 -0.035616 -0.000395211 0.00450501 -0.140032 -0.0539615 -0.1629 -0.00908232 0.022401 -0.0420647 -0.166499 -0.0421911 -0.0853451 -0.13824 -0.00186217 -0.0364886
internal_weight=0 29151 6248 132382 5732 1437 4236 126650 1282 949 22903 61638 2954 1816 821 9678 65012 41134 1143 4721 946 23878 37791 482 688 4042 977 565 4295 1263
internal_count=161533 29151 6248 132382 5732 1437 4236 126650 1282 949 22903 61638 2954 1816 821 9678 65012 41134 1143 4721 946 23878 37791 482 688 4042 977 565 4295 1263
is_linear=0
shrinkage=0.0545865


Tree=16
num_leaves=31
num_cat=0
split_feature=3 10 42 64 6 58 28 7 0 23 89 2 60 1 38 45 79 41 43 81 28 53 5 9 66 84 39 76 74 23
split_gain=10570.7 11133.4 6523.11 5195.79 2527.29 2183.91 1691.73 1688.74 1403.98 1305.34 1065.45 1861.1 903.972 910.458 917.784 867.457 867.2 828.65 867.659 747.694 746.658 709.516 709.521 702.547 717.017 641.067 605.728 624.159 550.164 525.362
threshold=-0.35686984296263574 -0.16190544114309027 -0.54624866633599323 -0.80581731384339894 -0.17651685753135526 -0.13879149822709155 -0.30538228806795803 -3.7464755582066847 -1.0000000180025095e-35 0.21952541098335823 0.038245029224513415 -0.40627090248196235 0.43067688070141197 0.39027082872604313 -0.3770791022897737 0.20237824858596923 -2.3483859185057407 -0.25968564721071902 -1.1231068382921927 -0.48809361864634454 -0.12945567359174823 1.2327460773991568 0.55093655325953483 -1.0634569470879633 -0.36377504244385755 -1.1320078504337794 -0.96488381630933495 -0.0085736135029546422 -0.036552746919488559 1.2184012258803081
decision_type=8 10 10 8 10 8 8 10 8 10 10 10 10 8 10 10 10 8 10 10 8 10 8 2 8 10 8 8 8 8
left_child=1 5 3 -3 21 6 19 -5 17 12 11 -9 13 -4 -15 -6 25 26 -19 -1 -17 22 -2 -8 -25 -10 -7 -28 -20 -18
right_child=4 2 9 7 15 8 23 10 16 -11 -12 -13 -14 14 -16 20 29 18 28 -21 -22 -23 -24 24 -26 -27 27 -29 -30 -31
leaf_value=0.033129123153011246 0.0087077113405874557 -0.010745904177611556 -0.025260492935565145 0 -0.015121606359636533 0 0.0052186920405347245 0.0071444336004142352 -0.15237768029174961 -0.0010360152488437342 0 -0.16649927117874144 -0.026797541473408775 -0.16649927117874144 0 0.0088005334747161979 -0.01819761723092312 -0.16649927117874144 -0.059011075255264278 -0.0038856925643645304 -0.0031072349784174382 -0.037553937693231336 0.022024928811431393 -0.0048415508895088104 -0.039716955817721528 -0.019793128397881801 -0.16649927117874144 0 0 0.027109061881737267
leaf_weight=4665 23600 754 392 180 10120 95 3558 119 259 1712 165 1855 1069 437 156 27907 6159 147 1436 2091 34930 678 28880 3990 3904 411 239 42 807 776
leaf_count=4665 23600 754 392 180 10120 95 3558 119 259 1712 165 1855 1069 437 156 27907 6159 147 1436 2091 34930 678 28880 3990 3904 411 239 42 807 776
internal_value=0 -0.0274448 -0.0901378 -0.149861 0.00629787 -0.0122339 -0.000515874 -0.166499 -0.0322387 -0.0398165 -0.166499 -0.166499 -0.0692656 -0.10932 -0.154855 -0.000219036 -0.0190236 -0.0664292 -0.0506929 0.0208055 0.00208786 0.0153523 0.0161484 -0.0136075 -0.0228359 -0.079961 -0.150443 -0.166499 -0.0387241 -0.0122781
internal_weight=0 35418 6839 3073 126115 28579 18208 2319 10371 3766 2139 1974 2054 985 593 72957 7605 2766 2390 6756 62837 53158 52480 11452 7894 670 376 281 2243 6935
internal_count=161533 35418 6839 3073 126115 28579 18208 2319 10371 3766 2139 1974 2054 985 593 72957 7605 2766 2390 6756 62837 53158 52480 11452 7894 670 376 281 2243 6935
is_linear=0
shrinkage=0.0545865


Tree=17
num_leaves=31
num_cat=0
split_feature=3 12 0 16 0 36 63 11 95 36 42 60 11 2 74 25 46 13 23 48 37 44 53 96 8 3 41 48 63 96
split_gain=9672.89 10377 4074.97 2785.07 2842.85 3827.71 2370 1648.12 1405.85 1292.24 1188.78 1121.99 1103.9 1023.48 1013.21 842.582 806.361 803.631 1031.54 776.935 756.893 721.113 675.426 627.311 623.569 620.241 601.324 748.834 588.023 587.886
threshold=-0.35686984296263574 -0.20319483549221937 -1.0000000180025095e-35 0.82161137745683199 -1.0000000180025095e-35 -1.0000000180025095e-35 -0.34853830570671945 1.0000000180025095e-35 -0.54200128815337245 2.2169424758290153 1.4765409660983624 0.49495695482532337 1.0000000180025095e-35 -0.39931127609775313 -0.034487113556343707 -0.036056456417126341 -0.028004689781881455 0.83037918788786058 0.48715133309997577 -0.14054155699804924 -1.3230005063306216 1.6700994575977905 0.89415636061274861 -0.83774403536326225 -0.70891013882308562 0.26378043625627606 0.074573252752184419 -0.18458007399894982 0.17371975183570307 -1.0991744437066022
decision_type=8 8 8 8 8 8 10 10 8 8 8 10 10 10 8 8 10 10 10 8 10 10 8 2 8 10 8 10 10 2
left_child=1 2 13 4 5 14 10 -7 21 -4 22 19 -6 -1 15 20 -8 18 26 -11 -3 -5 -2 -9 -15 -18 27 -14 -16 -10
right_child=6 3 9 8 12 7 16 23 29 11 -12 -13 17 24 28 -17 25 -19 -20 -21 -22 -23 -24 -25 -26 -27 -28 -29 -30 -31
leaf_value=0 0.0084175239615894883 0 -0.022509554768651973 0.020233777355089612 -0.0058793767086593477 0 -0.018530728237212944 0 0 -0.16649927117874144 0.022309052249389588 -0.030732426105720786 -0.155634715127863 0 -0.0055750435715348811 -0.034807627277702473 -0.012077419865313748 0 -0.00026565263064969681 0 -0.16279206624412984 -0.095292678874920975 -0.030497124169246759 -0.16649927117874144 -0.16649927117874144 0.0034522583013824552 -0.046552810947966268 0 -0.083305697628948711 -0.025467350615074373
leaf_weight=54 45692 55 1060 6625 7544 246 8021 90 4083 378 24665 376 582 50 2094 728 9668 914 753 78 491 148 1308 598 697 36761 942 126 386 6320
leaf_count=54 45692 55 1060 6625 7544 246 8021 90 4083 378 24665 376 582 50 2094 728 9668 914 753 78 491 148 1308 598 697 36761 942 126 386 6320
internal_value=0 -0.0263256 -0.129648 -0.0176395 -0.0344025 -0.0703791 0.00595154 -0.166499 -0.00212134 -0.0695697 0.0124881 -0.12237 -0.0183277 -0.166499 -0.0436043 -0.0847528 -0.00254396 -0.0448588 -0.0614278 -0.166499 -0.14041 0.0168275 0.00720895 -0.166499 -0.166499 9.18464e-05 -0.0857658 -0.129506 -0.0200714 -0.0150229
internal_weight=0 35418 2693 32725 15549 4688 126115 934 17176 1892 71665 832 10861 801 3754 1274 54450 3317 2403 456 546 6773 47000 688 747 46429 1650 708 2480 10403
internal_count=161533 35418 2693 32725 15549 4688 126115 934 17176 1892 71665 832 10861 801 3754 1274 54450 3317 2403 456 546 6773 47000 688 747 46429 1650 708 2480 10403
is_linear=0
shrinkage=0.0545865


Tree=18
num_leaves=31
num_cat=0
split_feature=45 20 13 2 59 11 42 71 63 27 81 72 2 70 10 13 47 8 56 64 15 74 3 43 53 66 2 24 42 16
split_gain=8416.61 13010.1 3833.2 3321.58 2627.02 2534.34 2193.31 1914.98 1763.52 1522.37 1421.48 1050.29 846.544 800.881 1129.92 797.008 715.65 705.496 703.037 662.016 646.298 633.482 621.648 610.732 605.546 589.364 580.599 558.295 513.701 605.783
threshold=-0.59502874968456376 1.5111554108561522 0.33250946014150423 -0.39235164971354392 -1.5691132963569094 1.0000000180025095e-35 -0.39111300607327787 0.18018460876960232 0.14885032052415914 3.0653725511551171 -0.86910423471569864 2.142774548614971 -0.35755351779249805 -1.0334759989370947 -0.97082141017247847 0.83037918788786058 -0.30689420038349763 -0.68930335226750361 -0.85144487929675605 -0.78000633769570815 -0.30136551371987913 -0.042568147843123766 -1.9624443319326486 -0.45420976844032251 0.91729527724434579 0.20704649051137708 0.20617621932844502 -1.3381095648666841 0.35594865461528186 -1.2048475751084824
decision_type=8 8 10 10 10 10 10 8 10 8 10 10 10 10 10 10 8 8 10 10 10 8 10 8 10 8 10 8 10 10
left_child=1 3 12 9 8 -5 10 16 23 22 -7 13 -3 17 -15 -16 20 -12 19 -8 -6 27 -1 -2 -23 -9 -21 -11 29 -14
right_child=4 2 -4 5 7 6 18 25 -10 21 11 -13 28 14 15 -17 -18 -19 -20 26 -22 24 -24 -25 -26 -27 -28 -29 -30 -31
leaf_value=-0.0042904305611354259 0.010806332269339398 0 -0.013549065592033378 -0.020069292556550919 -0.032359911807515733 -0.0027269597568534598 0 0.0050121668182592366 -0.015768355827312688 -0.1054208332793542 -0.16211105422040295 0 0 0 -0.16649927117874144 0 -0.016323944221692432 0 -0.0082845798088811134 0 -0.12522406506515554 0.02459711654895962 -0.03266056613574065 0.024170395152918793 -0.048575764850794616 -0.0057577323453519326 -0.16649927117874144 0 -0.037135235315097721 -0.16649927117874144
leaf_weight=5737 21666 98 572 6020 1247 380 72 50551 4958 210 115 124 97 153 1062 96 8094 255 1444 75 395 6451 4597 23909 304 21246 79 514 209 803
leaf_count=5737 21666 98 572 6020 1247 380 72 50551 4958 210 115 124 97 153 1062 96 8094 255 1444 75 395 6451 4597 23909 304 21246 79 514 209 803
internal_value=0 -0.0275215 -0.166499 -0.0180825 0.00473362 -0.0435307 -0.0786295 -0.00126127 0.0145221 -0.0036434 -0.115525 -0.136006 -0.166499 -0.147382 -0.166499 -0.166499 -0.0240191 -0.0505804 -0.0267982 -0.11862 -0.0583418 0.0146912 -0.0174808 0.0179464 0.0204277 0.00174337 -0.166499 -0.0306849 -0.166499 -0.166499
internal_weight=0 29467 1779 27688 132066 9875 3855 81533 50533 17813 2185 1805 1207 1681 1311 1158 9736 370 1670 226 1642 7479 10334 45575 6755 71797 154 724 1109 900
internal_count=161533 29467 1779 27688 132066 9875 3855 81533 50533 17813 2185 1805 1207 1681 1311 1158 9736 370 1670 226 1642 7479 10334 45575 6755 71797 154 724 1109 900
is_linear=0
shrinkage=0.0545865


Tree=19
num_leaves=31
num_cat=0
split_feature=3 36 0 9 28 42 82 30 7 63 96 76 33 13 63 47 62 21 80 74 63 79 84 36 60 78 18 17 29 31
split_gain=8203.02 10664.2 8584.66 2590.89 2105.27 1762.32 1402.88 1330.16 1256.67 970.305 911.221 906.908 831.463 830.566 818.521 799.798 723.603 639.177 621.395 610.892 597.034 581.654 574.905 631.98 672.821 567.834 567.769 523.471 779.676 523.189
threshold=-0.35686984296263574 0.24536956918636063 -1.0000000180025095e-35 -0.81852650165613439 -0.44612355998759606 -0.09289073124004836 -1.7391947067483875 0.25715418825181108 1.0000000180025095e-35 0.14885032052415914 -1.0991744437066022 -0.040361417678912256 0.2296888817402867 0.8801661606624962 -0.53091413532470833 -0.53329245080515653 -0.21348625689667308 -0.16203285202971751 0.6781994400193474 -0.02996173435574688 0.17371975183570307 -0.33372373162073649 -0.80556080137761177 0.86148610251219015 -0.95777417630503658 -0.98131852535351216 0.53966990792941194 -0.2399573267321681 -0.48310264825959903 0.5486172642207342
decision_type=8 8 8 2 8 8 10 8 10 8 2 8 10 10 8 10 2 10 10 8 8 10 8 8 10 8 8 8 8 10
left_child=1 5 3 -3 16 7 8 20 -4 19 -9 -10 -13 27 29 25 22 18 -16 -6 -1 -19 23 -2 -25 -5 -11 -12 -29 -7
right_child=4 2 6 15 9 14 -8 10 11 26 13 12 -14 -15 17 -17 -18 21 -20 -21 -22 -23 -24 24 -26 -27 -28 28 -30 -31
leaf_value=-0.0064303849045203344 -0.0050851137311075292 0 0 0 -0.00050080655078604689 0.028517164428997085 -0.028186285938053283 0 -0.019160596147327295 -0.021248668956786274 -0.043167593173146834 -0.16649927117874144 0 0 0.0071746312555175471 0 0.020620494294872001 -0.044577158927811812 -0.033560785905512057 0.012724111818932011 -0.047834773391495847 -0.0025574999696045234 0.0089467723405780488 0 -0.16649927117874144 -0.16649927117874144 -0.0030357284488269705 -0.06964367753827766 -0.16649927117874144 -0.022068706113305879
leaf_weight=6824 685 250 168 47 32074 3717 3117 829 220 8644 1105 310 70 551 7735 54 23785 2164 1293 14878 1355 2389 31160 44 96 1201 14749 1003 421 595
leaf_count=6824 685 250 168 47 32074 3717 3117 829 220 8644 1105 310 70 551 7735 54 23785 2164 1293 14878 1355 2389 31160 44 96 1201 14749 1003 421 595
internal_value=0 -0.0243888 -0.0948666 -0.166499 0.00533329 -0.011409 -0.0470264 -0.027516 -0.115707 -0.00086834 -0.0542559 -0.152836 -0.166499 -0.0679482 -0.000198429 -0.166499 0.0132608 -0.00709943 0.000686917 0.00356505 -0.014013 -0.023824 0.00760381 -0.0359574 -0.144178 -0.166499 -0.0100172 -0.0812438 -0.106614 0.0201721
internal_weight=0 35418 5437 1552 126115 29981 3885 12088 768 70345 3909 600 380 3080 17893 1302 55770 13581 9028 46952 8179 4553 31985 825 140 1248 23393 2529 1424 4312
internal_count=161533 35418 5437 1552 126115 29981 3885 12088 768 70345 3909 600 380 3080 17893 1302 55770 13581 9028 46952 8179 4553 31985 825 140 1248 23393 2529 1424 4312
is_linear=0
shrinkage=0.0545865


Tree=20
num_leaves=31
num_cat=0
split_feature=45 4 13 51 59 23 54 2 11 9 96 16 96 15 42 79 66 37 30 60 64 43 73 46 28 69 33 4 8 72
split_gain=7240.96 11260.6 4129.63 2505.75 2212.15 1957.59 1557.9 1452.95 1398.41 1577.35 1119.89 1021.91 962.769 1128.84 954.664 840.615 805.044 753.008 727.071 715.483 682.247 633.49 825.189 630.865 627.417 566.106 535.111 601.116 532.788 525.623
threshold=-0.53309640368510924 1.3203741408477669 0.33250946014150423 0.16755225565881557 -1.5691132963569094 1.0848436550533009 0.17220069340004504 -0.37147277056091643 1.0000000180025095e-35 -0.27799034622037389 -0.83774403536326225 -1.2048475751084824 -1.0991744437066022 -0.42829936549364561 0.35594865461528186 -1.9136430255463459 -0.23058335142096953 -0.5154706913256909 1.2703020308163204 -3.2911429359561244 -0.75439930012498679 0.87835532899099189 0.33424477587561247 -0.020814030777825596 0.53026907744460361 0.80537964367187687 0.45703856028517709 0.66321210857904378 -0.87603465279685644 1.9540374234446318
decision_type=8 8 10 10 10 8 8 10 10 2 2 10 2 10 10 8 10 8 8 10 10 8 8 10 8 8 10 10 10 10
left_child=1 3 10 5 16 12 21 -5 15 -10 -3 -12 -1 18 -13 23 -2 -11 -14 20 -7 22 -6 -9 -8 -19 -15 28 -28 -30
right_child=4 2 -4 7 6 19 24 8 9 17 11 14 13 26 -16 -17 -18 25 -20 -21 -22 -23 -24 -25 -26 -27 27 -29 29 -31
leaf_value=0.0038219155906359836 0.01581889610808429 0 -0.013604221370907376 0 -0.020382067864927779 0 0.0051464562552183523 -0.16649927117874144 -0.026718833056167315 -0.049307773643462068 0 -0.16649927117874144 -0.015856972576045993 -0.018289472473999445 -0.017344483878188613 -0.011201741054620818 -0.0069161561594959396 -0.16649927117874144 -0.059892033796744841 0.017085851717464358 -0.10337491744709605 0 -0.073143282147943148 0 -0.0056260344943185776 0 0 -0.016015191090534831 -0.16649927117874144 0
leaf_weight=3306 44732 139 637 1011 5401 774 48463 204 505 307 160 896 9854 445 216 1336 4797 489 1429 7833 274 2397 1246 169 23778 60 70 242 323 40
leaf_count=3306 44732 139 637 1011 5401 774 48463 204 505 307 160 896 9854 445 216 1336 4797 489 1429 7833 274 2397 1246 169 23778 60 70 242 323 40
internal_value=0 -0.0250441 -0.149013 -0.0159787 0.00439576 -0.00911711 -0.00107857 -0.0558714 -0.0745583 -0.117989 -0.166499 -0.166499 -0.0208275 -0.0278708 -0.166499 -0.0364842 0.0134983 -0.164881 -0.0219596 0.0109358 -0.0294054 -0.0224772 -0.0311659 -0.111046 0.00151942 -0.166499 -0.082103 -0.115391 -0.157225 -0.166499
internal_weight=0 30719 2048 28671 130814 24590 81285 4081 3070 1361 1411 1272 15709 12403 1112 1709 49529 856 11283 8881 1048 9044 6647 373 72241 549 1120 675 433 363
internal_count=161533 30719 2048 28671 130814 24590 81285 4081 3070 1361 1411 1272 15709 12403 1112 1709 49529 856 11283 8881 1048 9044 6647 373 72241 549 1120 675 433 363
is_linear=0
shrinkage=0.0545865


Tree=21
num_leaves=31
num_cat=0
split_feature=3 1 0 7 16 0 40 30 2 64 74 2 70 45 53 6 25 62 79 28 94 62 94 74 1 96 80 13 86 96
split_gain=6959.47 10417.4 3727.72 1850.33 2514.41 2300.46 2750.33 1661.39 1476.19 1229.76 918.272 1108.82 956.022 833.967 804.871 788.138 619.871 597.736 579.531 576.095 568.85 562.563 559.707 545.225 539.748 513.855 506.883 591.705 506.757 485.328
threshold=-0.35686984296263574 1.3195510626158511 -1.0000000180025095e-35 1.0000000180025095e-35 0.82161137745683199 -1.0000000180025095e-35 -0.26677777780775747 -0.5543477008237826 -0.39931127609775313 -0.67727227954736879 -0.036117148921570148 0.99957362712829101 -0.95914118982866536 0.21962688759588436 1.2327460773991568 -0.17738922793997625 1.2121676882261558 -1.1112751239971062 -1.8606255995756877 -0.12945567359174823 0.45792371750908384 -0.16567146057104096 2.1095518150130661 -0.038867293424301071 1.5260577812580305 -1.0991744437066022 -0.65249674201332308 0.33250946014150423 0.30339947611672086 -1.0991744437066022
decision_type=8 8 8 10 8 8 8 10 10 8 8 10 10 10 10 10 10 2 10 8 8 2 10 8 8 2 8 10 8 2
left_child=1 3 8 15 5 6 9 14 -3 -5 11 12 -4 29 21 28 17 -14 -7 -15 25 -2 -10 -8 -19 -6 -27 -28 -1 -9
right_child=7 2 10 4 20 18 23 13 22 -11 -12 -13 16 19 -16 -17 -18 24 -20 -21 -22 -23 -24 -25 -26 26 27 -29 -30 -31
leaf_value=0.0050371155088408228 0.0081131624349866059 0 0 -0.031266045579234507 0.0023617295396539313 -0.076751785323665264 -0.095053464990839817 0.001047250648765352 -0.16649927117874144 -0.16649927117874144 -0.025066890395654531 0 0 0.0078017466079637974 -0.028843047112801477 -0.0094976841263858577 0 0 -0.017651099967915185 -0.0022338345376598542 0.011583918060520783 0.020890348125213103 0 -0.022068483486878548 -0.16649927117874144 0.015416453879326296 -0.050431779336899261 -0.0084472461589674523 0.044983173867674829 -0.020843918957232855
leaf_weight=2616 24060 99 164 330 3425 618 495 4007 648 846 970 247 36 31396 1242 3874 47 30 7291 35971 4031 21263 58 1841 344 683 2312 2476 1937 8176
leaf_count=2616 24060 99 164 330 3425 618 495 4007 648 846 970 247 36 31396 1242 3874 47 30 7291 35971 4031 21263 58 1841 344 683 2312 2476 1937 8176
internal_value=0 -0.0226022 -0.127106 -0.0139918 -0.0216857 -0.0404184 -0.0779055 0.00477276 -0.166499 -0.147938 -0.0698023 -0.112944 -0.152091 0 0.0129616 0.00754152 -0.166499 -0.166499 -0.0230214 0.00235611 -0.00467924 0.0142374 -0.166499 -0.0400838 -0.166499 -0.0127088 -0.0232146 -0.0299532 0.0233273 -0.0131627
internal_weight=0 35418 2643 32775 24348 11421 3512 126115 805 1176 1838 868 621 79550 46565 8427 457 410 7909 67367 12927 45323 706 2336 374 8896 5471 4788 4553 12183
internal_count=161533 35418 2643 32775 24348 11421 3512 126115 805 1176 1838 868 621 79550 46565 8427 457 410 7909 67367 12927 45323 706 2336 374 8896 5471 4788 4553 12183
is_linear=0
shrinkage=0.0545865


Tree=22
num_leaves=31
num_cat=0
split_feature=45 1 9 84 13 20 41 9 14 80 42 30 16 91 46 30 48 42 54 10 15 80 46 94 96 74 13 83 40 73
split_gain=6187.36 10443.3 3068.34 2338.24 2318.49 1990.46 1892.7 2350.63 1504.34 1294.01 1273.48 1130.13 1023.5 999.796 1221.45 957.116 916.298 843.667 796.48 1091.56 762.754 661.34 660.576 628.188 577.785 567.273 614.902 545.47 538.408 880.927
threshold=-0.53309640368510924 1.3195510626158511 -0.81852650165613439 0.096666747389037536 0.33250946014150423 1.0000000180025095e-35 0.0082085531238483746 -0.97055229537244203 -0.85311122331644385 2.3626249868961464 -0.49202643454813344 -0.17564679238334832 -1.2048475751084824 -1.0000000180025095e-35 -0.015232470292159858 -0.094496619965317316 -0.47936910064651356 -0.062767309035628244 -0.32646149452321688 0.90915922155322926 -0.54546907482327611 -0.31982269650515566 -0.017444980754946274 2.1095518150130661 -1.0991744437066022 -0.038749751107402454 0.8801661606624962 0.52361015705524983 -0.17403997552562625 1.7021381812777092
decision_type=10 8 2 8 10 10 8 2 8 8 8 8 10 8 10 8 10 8 8 10 10 10 10 10 2 8 10 10 8 10
left_child=1 5 -3 9 8 10 7 -7 -4 11 15 22 -10 14 16 -1 20 28 19 -13 -9 -12 -2 -14 -17 26 -26 -20 29 -8
right_child=3 2 4 -5 -6 6 17 13 12 -11 21 18 23 -15 -16 24 -18 -19 27 -21 -22 -23 -24 -25 25 -27 -28 -29 -30 -31
leaf_value=-0.0061694189857380132 0.004914775953056125 0 0 0.01971425132422986 -0.0024004138372828564 0 -0.037338298337022575 0 -0.010577388943732152 -0.026619935698508145 0.0072820229783421304 -0.0231184824349292 -0.16649927117874144 -0.059475749993416614 -0.014929727700635173 -0.0038926209678450349 0 0.0071119148558778812 -0.0080938950990605274 -0.16649927117874144 -0.16649927117874144 -0.015372762455146799 0.021829438178851669 0 -0.13559253328789564 -0.040278930629620728 0 0.0035147767541297741 0 -0.16649927117874144
leaf_weight=4089 39979 474 167 24131 338 751 849 89 206 4868 14087 813 1310 948 249 928 78 2055 25292 101 501 5234 8794 78 539 1736 109 22239 366 135
leaf_count=4089 39979 474 167 24131 338 751 849 89 206 4868 14087 813 1310 948 249 928 78 2055 25292 101 501 5234 8794 78 539 1736 109 22239 366 135
internal_value=0 -0.0214144 -0.127539 0.00442313 -0.155856 -0.0128916 -0.0414194 -0.0768078 -0.166499 0.000750948 -0.00624254 0.00218216 -0.166499 -0.109667 -0.155026 -0.025524 -0.166499 -0.0124916 -0.00363988 -0.0544054 -0.166499 0.000840585 0.00808535 -0.166499 -0.0476374 -0.0621947 -0.111694 -0.00253893 -0.046658 -0.0679286
internal_weight=0 35316 2573 126217 2099 32743 6021 2616 1761 102086 26722 97218 1594 1865 917 7401 668 3405 48445 914 590 19321 48773 1388 3312 2384 648 47531 1350 984
internal_count=161533 35316 2573 126217 2099 32743 6021 2616 1761 102086 26722 97218 1594 1865 917 7401 668 3405 48445 914 590 19321 48773 1388 3312 2384 648 47531 1350 984
is_linear=0
shrinkage=0.0545865


Tree=23
num_leaves=31
num_cat=0
split_feature=3 10 26 8 63 74 23 54 48 0 6 36 95 15 48 77 8 43 46 13 48 98 70 78 33 76 62 66 60 6
split_gain=5884.46 7139.69 4687.26 4399.77 1592.82 1526.57 1411.22 1378.39 1191.43 1162.66 915.992 847.535 792.938 787.046 1144.58 732.494 765.457 770.77 725.604 634.983 586.365 763.708 586.426 579.649 550.213 542.185 510.966 482.235 488.475 466.941
threshold=-0.35686984296263574 -0.16190544114309027 -1.0000000180025095e-35 -0.26822426957381285 -0.34853830570671945 -0.034397228255185944 0.55035733249178254 -2.5388030073980814 -0.27453533343594977 -1.0000000180025095e-35 -0.17738922793997625 -0.12430035080913708 -0.73650778253871851 1.1632558529005037 -0.20045416811294151 0.73852141693907825 -0.6370185881192848 0.47948446285906798 -0.025792179319095034 1.0295270789864033 -0.45084880346661926 0.17178326964887594 0.14004757140707105 -0.4775176677865659 0.52440161388841988 -0.043971124315090544 -1.1175384574986289 -0.39304794156976708 -0.50781327429819301 -0.074449519722700239
decision_type=8 10 8 8 10 8 8 8 8 8 10 10 8 8 10 8 10 10 10 10 8 10 8 8 10 8 2 10 10 10
left_child=1 5 3 7 12 9 13 11 25 15 -7 -3 26 29 19 16 -1 20 23 -15 21 22 -18 -6 -24 -5 -2 -11 -29 -4
right_child=4 2 6 8 18 10 -8 -9 -10 27 -12 -13 -14 14 -16 -17 17 -19 -20 -21 -22 -23 24 -25 -26 -27 -28 28 -30 -31
leaf_value=0 -0.012494017239020421 0 -0.020989448257882837 0 -0.032462111865031527 0.015194931715768266 0.0067414087241512806 -0.030631642925514492 0 0 -0.0094364418402029353 -0.16649927117874144 0.0052735154570135358 -0.16649927117874144 0 0 -0.16649927117874144 0 0.0014217561886562017 0 0 0 -0.10129781961346397 -0.0064155859017524857 0 -0.16649927117874144 0.019580448790264517 -0.054710388497572107 -0.0090123930662018154 -0.086162948943313375
leaf_weight=414 1350 54 1789 32 3460 7568 1409 1324 77 3624 11039 178 46706 283 166 511 233 150 37549 77 193 114 1023 13441 72 880 23609 1341 2297 570
leaf_count=414 1350 54 1789 32 3460 7568 1409 1324 77 3624 11039 178 46706 283 166 511 233 150 37549 77 193 114 1023 13441 72 880 23609 1341 2297 570
internal_value=0 -0.0208835 -0.0710999 -0.130644 0.00428692 -0.00865897 -0.0344173 -0.0578867 -0.166499 -0.0259003 0.000266708 -0.166499 0.00965207 -0.0565474 -0.122704 -0.057112 -0.0707912 -0.0863131 -0.00266674 -0.166499 -0.0976559 -0.109648 -0.121516 -0.012097 -0.0899529 -0.166499 0.0176099 -0.0134377 -0.0274817 -0.0392577
internal_weight=0 35418 6839 2545 126115 28579 4294 1556 989 9972 18607 232 71665 2885 526 2710 2199 1785 54450 360 1635 1442 1328 16901 1095 912 24959 7262 3638 2359
internal_count=161533 35418 6839 2545 126115 28579 4294 1556 989 9972 18607 232 71665 2885 526 2710 2199 1785 54450 360 1635 1442 1328 16901 1095 912 24959 7262 3638 2359
is_linear=0
shrinkage=0.0545865


Tree=24
num_leaves=31
num_cat=0
split_feature=3 20 13 5 36 9 0 70 63 42 30 23 90 5 49 70 9 20 17 13 9 63 79 47 14 61 86 57 60 23
split_gain=5377.34 8261.24 5170.78 1849.35 1829.6 1523.65 1456.3 2330.17 1424.56 1228 846.385 797.396 778.305 754.556 734.25 694.09 668.172 614.647 575.431 572.631 639.753 546.484 532.002 739.892 827.226 509.056 506.102 811.415 476.706 461.677
threshold=-0.35686984296263574 1.5111554108561522 0.1333615690429617 -0.55071497576813455 -0.24752365747430297 -0.81852650165613439 -1.0000000180025095e-35 0.12250455296609038 -0.34853830570671945 0.37703515788823144 0.48339110363472682 1.247750009258882 -1.439951633285484 0.33971571127615979 -0.034089590407888996 0.52227708091413227 -0.81852650165613439 1.0000000180025095e-35 -1.2907417096200839 0.68101826956395373 0.13585764778513024 0.87420873377752384 -1.8606255995756877 -2.3956140562157544 -0.85311122331644385 -0.84553955978081163 -1.7503344382462547 2.4408838016684737 0.17355620106630257 1.5956807448429413
decision_type=8 8 10 10 8 2 8 8 10 8 8 10 8 8 8 8 2 10 10 10 2 8 10 10 8 10 10 10 10 10
left_child=1 4 3 16 9 -6 7 11 13 10 21 17 15 -2 -10 -9 -3 -7 -19 20 -12 -1 23 24 -8 -17 -18 29 -26 -28
right_child=8 2 -4 -5 5 6 22 12 14 -11 19 -13 -14 -15 -16 25 26 18 -20 -21 -22 -23 -24 -25 28 -27 27 -29 -30 -31
leaf_value=-0.0038005196277643956 0.0015307047243278209 0 -0.024253518074184292 -0.00021951758570311762 0 0 0 0 -0.0096724339467491819 0.0073186436393324122 -0.030383140420337847 0 0 0.013417394434015835 0.0029966489348579508 0 0 0 -0.16649927117874144 0 -0.099892173997380498 -0.047603318844413461 -0.019333169740806368 -0.021313666193825281 -0.16649927117874144 -0.16649927117874144 -0.16649927117874144 0 0 0
leaf_weight=9852 26372 91 1109 270 2225 105 62 32 24178 11434 1638 87 629 45293 30272 28 21 40 497 986 774 987 2998 426 130 141 773 29 24 30
leaf_count=9852 26372 91 1109 270 2225 105 62 32 24178 11434 1638 87 629 45293 30272 28 21 40 497 986 774 987 2998 426 130 141 773 29 24 30
internal_value=0 -0.0200102 -0.119798 -0.166499 -0.0128248 -0.0368366 -0.053015 -0.0990424 0.00405036 -0.00565066 -0.0164786 -0.166499 -0.0276292 0.00912521 -0.00252122 -0.120884 -0.166499 -0.166499 -0.166499 -0.0407162 -0.0551568 -0.00833521 -0.0316651 -0.0799914 -0.166499 -0.166499 -0.166499 -0.166499 -0.166499 -0.166499
internal_weight=0 35418 2323 1214 33095 7424 5199 1559 126115 25671 14237 729 830 71665 54450 201 944 642 537 3398 2412 10839 3640 642 216 169 853 832 154 803
internal_count=161533 35418 2323 1214 33095 7424 5199 1559 126115 25671 14237 729 830 71665 54450 201 944 642 537 3398 2412 10839 3640 642 216 169 853 832 154 803
is_linear=0
shrinkage=0.0545865


Tree=25
num_leaves=31
num_cat=0
split_feature=5 10 0 20 48 1 2 35 50 60 55 71 2 37 14 86 85 35 53 69 85 94 87 89 17 42 17 6 17 40
split_gain=4958.04 3562.11 2360.7 3133.46 1552.95 2045.36 1326.57 1308.54 1087.85 895.255 876.815 1204.38 2089.44 707.392 944.764 695.997 660.609 657.214 621.803 606.097 785.739 580.341 610.688 679.762 566.925 546.678 546.044 533.003 510.548 779.909
threshold=0.11591053665029584 -0.15441547846689227 -1.0000000180025095e-35 1.5111554108561522 -1.7850935059138384 0.59677754736822275 -0.12788584711359538 -0.40470261818619285 0.44292621386032133 0.49495695482532337 -2.1346683257235517 -0.98063816495209444 0.094822197181098203 -0.7413713148158162 0.42945240340718466 -1.6269999545931448 0.66743071371205942 -0.14121092873488111 1.1305247874696962 -0.82799851472804542 0.69017017519637924 0.87083074188507936 -0.66718242217886181 0.55602005206873339 -0.84239277231862097 -0.88212521892474804 -1.1238146589780118 0.41320553869642956 0.5877226327014401 -0.34338726664951841
decision_type=8 10 8 8 8 8 10 8 8 10 10 8 10 10 10 10 10 8 10 10 10 10 10 8 8 10 8 10 8 8
left_child=1 8 3 13 5 -2 -7 10 25 21 11 12 -6 -3 19 -8 -14 -10 -12 20 -15 22 23 26 -5 -1 -4 -9 29 -16
right_child=4 2 9 24 7 6 15 27 17 -11 18 -13 16 14 28 -17 -18 -19 -20 -21 -22 -23 -24 -25 -26 -27 -28 -29 -30 -31
leaf_value=-0.045696724067933292 -0.013057211811619606 0.0040893234624691348 0 0 0 0 0 0.00081989854743828557 0.0079267507145144526 -0.0080408528586248945 0.014397918931561764 0 -0.16649927117874144 -0.16649927117874144 -0.16649927117874144 -0.16649927117874144 0 -0.01333120038186463 -0.018499171140455749 0.01191912050220042 0 0 -0.047945596132560893 0 -0.16649927117874144 -0.01556443525518059 -0.16649927117874144 -0.021346928230658417 0 0
leaf_weight=2902 4382 332 56 49 445 208 46 60891 9112 2489 50347 5115 196 142 122 227 24 8084 1617 319 151 515 1596 75 521 7676 338 3404 59 93
leaf_count=2902 4382 332 56 49 445 208 46 60891 9112 2489 50347 5115 196 142 122 227 24 8084 1617 319 151 515 1596 75 521 7676 338 3404 59 93
internal_value=0 -0.0195318 -0.0549696 -0.110426 0.00375917 -0.0262956 -0.134415 0.00500512 -0.0105695 -0.0342308 0.0109722 -0.00858749 -0.0776367 -0.0485936 -0.0749319 -0.166499 -0.166499 -0.0017257 0.0132609 -0.0252227 -0.0855093 -0.0572083 -0.070182 -0.133072 -0.166499 -0.0243898 -0.161851 -0.000262747 -0.164071 -0.166499
internal_weight=0 34631 6857 1788 126902 4863 481 122039 27774 5069 57744 5780 665 1218 886 273 220 17196 51964 612 293 2580 2065 469 570 10578 394 64295 274 215
internal_count=161533 34631 6857 1788 126902 4863 481 122039 27774 5069 57744 5780 665 1218 886 273 220 17196 51964 612 293 2580 2065 469 570 10578 394 64295 274 215
is_linear=0
shrinkage=0.0545865


Tree=26
num_leaves=31
num_cat=0
split_feature=38 20 42 51 63 79 95 42 83 9 11 16 30 64 54 2 77 47 85 31 70 76 44 10 74 9 17 67 70 77
split_gain=4591.24 8654.7 4651.8 1882 1574.4 1351.88 1262.65 1144.57 897.673 876.053 807.48 1015 791.311 730.748 582.007 580.989 544.152 529.304 456.793 648.645 455.965 454.227 1132.07 448.281 445.827 443.578 439.886 433.46 441.592 452.815
threshold=-0.54175273165719118 1.5111554108561522 -0.54624866633599323 0.16755225565881557 -0.08602764186264468 -1.5319175585576077 -0.34749479376802644 0.17219563552851166 0.5033827962892492 -0.87764764365692061 1.0000000180025095e-35 0.31499663931550326 0.48339110363472682 -0.18853347984018207 0.54064605428731582 0.81862334113885249 0.73852141693907825 -0.85807497743420391 0.63458482490137513 0.60373103771491732 -1.0334759989370947 -0.012099373473175292 1.9408138066709213 -0.87345189538190382 -0.054142608930670126 -1.2323744956616383 -1.1783869639956126 -1.0076956602580851 -0.5306010242021223 0.61450047051060619
decision_type=8 8 10 10 10 8 8 8 10 2 10 8 8 10 8 10 8 10 10 8 8 8 10 8 8 2 10 10 10 10
left_child=1 3 9 7 6 13 24 12 -6 -3 -7 16 -1 17 -8 27 21 18 19 23 -15 22 26 -5 -2 -14 -12 28 -4 -30
right_child=4 2 15 5 8 10 14 -9 -10 -11 11 -13 25 20 -16 -17 -18 -19 -20 -21 -22 -23 -24 -25 -26 -27 -28 -29 29 -31
leaf_value=-0.01010404141559333 -0.0072774510666708259 0 0 0 -0.015739240831649848 0 -0.0084680296051888194 0.0038318707164572575 0.0011024518304115444 -0.16649927117874144 0 0 0 0 0.0047592321254820375 0.032798380641291189 0 0 -0.002726453861688149 -0.017581963444520642 -0.16649927117874144 0 0.0041799472354770205 -0.16649927117874144 0.014619603289433517 -0.054073736647099052 -0.16649927117874144 0 -0.16649927117874144 0
leaf_weight=8613 2583 84 117 42 16383 1699 14414 13414 20837 891 61 485 497 23 31366 246 101 297 247 216 209 101 66 223 44956 2433 415 298 159 57
leaf_count=8613 2583 84 117 42 16383 1699 14414 13414 20837 891 61 485 497 23 31366 246 101 297 247 216 209 101 66 223 44956 2433 415 298 159 57
internal_value=0 -0.0201033 -0.13482 -0.0126067 0.0032549 -0.046716 0.00707024 -0.00664988 -0.00615325 -0.166499 -0.0236487 -0.0573378 -0.0193383 -0.0957137 0.000466259 -0.0244995 -0.0973984 -0.0655013 -0.0905604 -0.123378 -0.166499 -0.116152 -0.135985 -0.166499 0.0133062 -0.0444663 -0.166499 -0.0561421 -0.09914 -0.145552
internal_weight=0 30994 1852 29142 130539 4185 93319 24957 37220 975 2928 1229 11543 1257 45780 877 744 1025 728 481 232 643 542 265 47539 2930 476 631 333 216
internal_count=161533 30994 1852 29142 130539 4185 93319 24957 37220 975 2928 1229 11543 1257 45780 877 744 1025 728 481 232 643 542 265 47539 2930 476 631 333 216
is_linear=0
shrinkage=0.0545865


Tree=27
num_leaves=31
num_cat=0
split_feature=38 1 91 64 28 42 1 62 2 47 58 84 18 91 90 54 61 2 23 58 27 33 84 89 29 78 3 3 22 13
split_gain=4197.86 8314.56 2297.23 1925.19 1523.93 1522.64 1252.31 912.197 869.774 944.005 798.07 721.059 713.143 692.508 837.806 680.037 644.982 696.626 846.451 644.761 601.389 586.825 582.755 819.165 1241.85 731.993 581.976 571.815 816.605 857.43
threshold=-0.54175273165719118 1.3195510626158511 -1.0000000180025095e-35 -0.17586379574595759 -0.49890154924579139 -0.52817464892329313 1.0000000180025095e-35 0.5857287661419931 -0.35755351779249805 -0.56488282282314362 0.38118600026847399 3.6673057960836686 -1.007496175168231 -2.7255777117872602 2.9608793421330994 0.54064605428731582 -0.025529570538791745 0.7142289453757148 0.72959697910128196 -1.0000000180025095e-35 -1.0137895721134538 0.2296888817402867 -0.87610533802436763 -1.8187902866783203 -0.11152435493590281 0.72824571799032556 0.16229268670105765 -0.44958512365878051 0.044126612321078292 0.8801661606624962
decision_type=8 8 8 8 8 8 10 2 10 8 10 8 8 10 10 8 8 10 10 8 10 10 8 10 8 10 10 8 8 10
left_child=1 5 3 -3 19 6 10 15 -8 11 -1 -10 16 -7 -15 -6 17 18 20 -2 -4 27 23 -21 -25 -26 -5 28 29 -12
right_child=4 2 12 26 7 13 8 -9 9 -11 21 -13 -14 14 -16 -17 -18 -19 -20 22 -22 -23 -24 24 25 -27 -28 -29 -30 -31
leaf_value=-0.010079163994896487 0.01702059310010676 -0.063993556643333366 0 -0.16649927117874144 -0.015320405106273716 0.021649760252305274 0 0.0044937501000622227 -0.16649927117874144 0 -0.15010958117172299 -0.02107125325959807 0.009161972952866285 -0.013240360405720743 0.015661520549664909 -0.00095693356469913075 0 0 0 0.00082479308152543949 -0.16649927117874144 0 0.0064664595692758954 0 -0.16649927117874144 0 0 0 0 0
leaf_weight=5366 24067 735 48 646 17768 2868 355 37414 473 115 590 214 308 14150 3627 24095 223 148 55 827 178 420 25728 245 292 103 35 217 132 91
leaf_count=5366 24067 735 48 646 17768 2868 355 37414 473 115 590 214 308 14150 3627 24095 223 148 55 827 178 420 25728 245 292 103 35 217 132 91
internal_value=0 -0.0192594 -0.117611 -0.163522 0.00307476 -0.0108845 -0.0312192 -0.0016039 -0.0854535 -0.117291 -0.0211394 -0.141929 -0.0436733 -0.00274572 -0.00701279 -0.00719371 -0.0775927 -0.116663 -0.166499 0.0104247 -0.166499 -0.0579857 0.00437124 -0.028353 -0.0751475 -0.135946 -0.166499 -0.0801728 -0.101162 -0.125624
internal_weight=0 30994 2376 1416 130539 28618 7973 79277 1157 802 6816 687 960 20645 17777 41863 652 429 281 51262 226 1450 27195 1467 640 395 681 1030 813 681
internal_count=161533 30994 2376 1416 130539 28618 7973 79277 1157 802 6816 687 960 20645 17777 41863 652 429 281 51262 226 1450 27195 1467 640 395 681 1030 813 681
is_linear=0
shrinkage=0.0545865


Tree=28
num_leaves=31
num_cat=0
split_feature=45 20 91 16 11 5 21 23 80 70 3 94 3 30 25 23 13 2 23 5 96 13 1 4 25 9 74 65 22 94
split_gain=4031.15 7936.02 3657.16 2137.06 2136.16 1923.6 1196.15 1229.11 1124.63 1029.3 994.396 926.58 918.077 900.928 891.707 842.065 711.082 1002.41 785.938 684.812 644.133 594.769 637.458 582.624 545.261 488.128 471.192 466.015 456.566 467.293
threshold=-0.53309640368510924 1.5111554108561522 -1.0000000180025095e-35 0.82161137745683199 1.0000000180025095e-35 0.82873866809541608 -1.0696527341074644 -0.45226163675142989 3.8954522345540328 -1.0334759989370947 0.16229268670105765 0.18265236792508679 -0.35686984296263574 -0.1117102951232873 1.8090655713477253 0.28817573300610633 0.33250946014150423 0.81862334113885249 0.72959697910128196 0.11591053665029584 -0.83774403536326225 0.78059221511322496 3.3846182490376457 4.0804546763764042 0.39211345366399947 -1.0296734373732284 -0.029785420880398952 -1.4493357202737216 0.082704566414393568 1.6966447906370703
decision_type=10 8 8 8 10 8 10 10 8 10 10 8 10 8 8 8 8 10 10 10 2 10 10 10 8 2 8 8 10 10
left_child=1 3 10 4 15 8 24 9 13 -8 20 -5 14 26 21 -1 17 18 25 -15 -3 22 -11 28 -6 -4 -2 -9 29 -22
right_child=5 2 16 11 6 -7 7 27 -10 12 -12 -13 -14 19 -16 -17 -18 -19 -20 -21 23 -23 -24 -25 -26 -27 -28 -29 -30 -31
leaf_value=-0.030396855346755638 0.0025428956770602103 0 0 -0.009594885087619966 -0.042454046566035963 0.018481584445092718 -0.015291724529702112 0 -0.034348340452199852 -0.16649927117874144 0 0.014729150953592928 -0.029401950337998358 -0.021381295157379476 0 0.0007347859450664002 0 0 0 -0.0015200430572887608 -0.16649927117874144 0 0 0 0.014805420126526208 -0.16649927117874144 0.01376480584555176 -0.070982188800478171 0 0
leaf_weight=4252 39043 78 41 10574 1292 20955 331 639 2705 644 67 8291 268 6088 37 5727 600 131 75 40711 611 48 47 63 610 190 16715 606 30 64
leaf_count=4252 39043 78 41 10574 1292 20955 331 639 2705 644 67 8291 268 6088 37 5727 600 131 75 40711 611 48 47 63 610 190 16715 606 30 64
internal_value=0 -0.0174778 -0.124778 -0.011027 -0.0267967 0.00337339 -0.0582643 -0.0830508 0.000309808 -0.120769 -0.166499 0.000784419 -0.148542 0.00128154 -0.166499 -0.011944 -0.041274 -0.0941947 -0.149608 -0.00422963 -0.166499 -0.166499 -0.166499 -0.166499 -0.0210078 -0.166499 0.00601245 -0.0366123 -0.166499 -0.166499
internal_weight=0 35316 1950 33366 14501 126217 4522 2620 105262 1375 913 18865 1044 102557 776 9979 1037 437 306 46799 846 739 691 768 1902 231 55758 1245 705 675
internal_count=161533 35316 1950 33366 14501 126217 4522 2620 105262 1375 913 18865 1044 102557 776 9979 1037 437 306 46799 846 739 691 768 1902 231 55758 1245 705 675
is_linear=0
shrinkage=0.0545865


Tree=29
num_leaves=31
num_cat=0
split_feature=5 1 13 37 45 36 70 5 96 82 30 69 14 73 25 57 80 98 61 75 80 77 79 51 31 24 13 58 29 34
split_gain=3533.57 3980.75 2848.57 1680.87 1536.65 3484.6 2425.85 1249.81 1145.12 1270.24 1235.94 1120.52 1017.58 938.171 935.989 929.393 863.914 718.037 717.604 707.364 615.302 602.905 567.92 566.614 550.569 726.684 850.953 1350.04 802.146 539.97
threshold=0.17255971903868064 1.4228044219369409 0.1333615690429617 0.40163390886640438 -1.1437946943708388 0.49181618251669246 -0.86756071982333982 0.82873866809541608 -1.0991744437066022 -1.7391947067483875 0.71946435247448781 0.025812795344641145 -0.75445248279924171 1.522457328150207 1.5804663820671243 -0.14233261452488369 3.8954522345540328 -0.54425892913437701 -0.036463018461831594 -0.47439067125533846 1.1793160402151954 -0.99777183305952954 0.1646400725034495 1.3811252176532125 -0.020891728552492075 -0.62650917839518327 0.1333615690429617 1.5511353718834964 0.68471482915297044 1.3869336749645138
decision_type=8 8 10 8 10 8 10 8 2 10 10 8 10 8 8 8 8 10 8 8 8 10 10 10 10 8 10 10 8 10
left_child=1 8 3 15 5 24 23 16 -1 11 20 21 -8 22 18 -3 19 -17 -14 -6 -11 -10 -12 -7 -2 26 27 28 -26 -15
right_child=4 2 -4 -5 7 6 12 -9 9 10 13 -13 14 29 -16 17 -18 -19 -20 -21 -22 -23 -24 -25 25 -27 -28 -29 -30 -31
leaf_value=0.008997910755594276 0.0015508779013163174 0 -0.018207746764704307 -0.16649927117874144 0.0088793317432330938 0 0 0.015798806260199468 0 -0.0026015983556516935 -0.057806344391277388 -0.16649927117874144 -0.16649927117874144 -0.16649927117874144 0 0 -0.030638454213236726 -0.1404267129848436 0 -0.0010075640546458192 -0.036062334046817086 -0.058757167155576558 -0.010522727669048061 -0.16649927117874144 -0.16649927117874144 0.003577190858239983 0 0.031139124738842446 0 0
leaf_weight=6470 7146 294 1322 535 34855 592 111 24780 652 17819 1595 214 420 168 34 100 2342 439 62 54259 1878 1485 2180 61 438 677 432 104 41 28
leaf_count=6470 7146 294 1322 535 34855 592 111 24780 652 17819 1595 214 420 168 34 100 2342 439 62 54259 1878 1485 2180 61 438 677 432 104 41 28
internal_value=0 -0.0164709 -0.0806197 -0.136581 0.00307694 -0.0171975 -0.101552 0.00489242 -0.0109763 -0.0161689 -0.0120471 -0.0551434 -0.166499 -0.0400989 -0.166499 -0.0672307 0.001873 -0.110034 -0.166499 0.00279367 -0.00609175 -0.0394895 -0.0320665 -0.0170087 -0.00430515 -0.0324891 -0.0622993 -0.105321 -0.147178 -0.163965
internal_weight=0 35179 2690 1368 126354 10118 1280 116236 32489 26019 23668 2351 627 3971 516 833 91456 539 482 89114 19697 2137 3775 653 8838 1692 1015 583 479 196
internal_count=161533 35179 2690 1368 126354 10118 1280 116236 32489 26019 23668 2351 627 3971 516 833 91456 539 482 89114 19697 2137 3775 653 8838 1692 1015 583 479 196
is_linear=0
shrinkage=0.0545865


Tree=30
num_leaves=31
num_cat=0
split_feature=45 20 0 2 5 51 63 72 27 2 9 60 37 13 3 26 74 37 20 77 81 94 83 29 57 94 25 56 3 9
split_gain=3432.15 7146.85 3798.73 1743.82 1550.51 1080.15 1005.19 941.628 941.019 759.701 713.937 698.795 787.405 970.555 692.834 670.074 1989.03 760.727 668.665 755.872 665.879 632.941 632.734 791.914 579.724 538.262 535.743 966.965 500.514 496.363
threshold=-0.53309640368510924 1.5111554108561522 -1.0000000180025095e-35 -0.39235164971354392 0.82873866809541608 0.16755225565881557 1.602330417176616 1.1350531124376266 1.9050396906833955 -0.39931127609775313 -1.1479157213748008 0.48210109325632661 0.17469466182000262 0.92995313343713182 0.16229268670105765 -1.0000000180025095e-35 -0.035799093240550355 -0.43705461282681979 0.096315627184127769 -1.4938556187734173 -0.7779222069384174 0.87083074188507936 -1.1083872023965509 -0.05180641736516324 2.4408838016684737 2.1095518150130661 -0.065084924897202648 -0.3313822257790961 0.15748666431235095 -0.85231001137086937
decision_type=10 8 8 10 8 10 8 8 8 10 2 10 8 10 10 8 10 10 10 8 10 10 10 8 10 10 8 8 10 2
left_child=1 3 9 8 6 18 7 29 10 -3 -1 12 -4 21 24 16 17 -7 -5 20 -20 -14 23 -18 25 -11 27 -21 -19 -2
right_child=4 2 11 5 -6 15 -8 -9 -10 14 -12 -13 13 -15 -16 -17 22 28 19 26 -22 -23 -24 -25 -26 -27 -28 -29 -30 -31
leaf_value=0.0047455337606394392 0.0072799855797851306 0 0 -0.0053932862705313505 0.016610439388967911 -0.04430966963047786 -0.016904560740212508 0.020074481340242516 0.010129577518759749 -0.16649927117874144 -0.022425743990907829 0 -0.16649927117874144 0 0 -0.024059012773624561 0 -0.16649927117874144 0 -0.16649927117874144 -0.16649927117874144 0 0.0034235943406723457 -0.16649927117874144 0 0 0 -0.016143847224284687 0 -0.0020467144978829981
leaf_weight=4194 22903 72 268 5763 20955 329 9176 7887 10872 630 7455 578 188 62 43 1574 59 501 115 137 190 40 659 74 27 42 819 582 43 65296
leaf_count=4194 22903 72 268 5763 20955 329 9176 7887 10872 630 7455 578 188 62 43 1574 59 501 115 137 190 40 659 74 27 42 819 582 43 65296
internal_value=0 -0.0161926 -0.118022 -0.0100618 0.00304554 -0.0280691 0.000289199 0.00199243 -0.00112872 -0.166499 -0.0121399 -0.0410693 -0.0845835 -0.147648 -0.166499 -0.0552277 -0.0811338 -0.138683 -0.0157256 -0.0448286 -0.128368 -0.166499 -0.0101921 -0.120888 -0.166499 -0.166499 -0.0243668 -0.0590405 -0.166499 0.000308698
internal_weight=0 35316 1950 33366 126217 10845 105262 96086 22521 814 11649 1136 558 290 742 3239 1665 873 7606 1843 305 228 792 133 699 672 1538 719 544 88199
internal_count=161533 35316 1950 33366 126217 10845 105262 96086 22521 814 11649 1136 558 290 742 3239 1665 873 7606 1843 305 228 792 133 699 672 1538 719 544 88199
is_linear=0
shrinkage=0.0545865


Tree=31
num_leaves=31
num_cat=0
split_feature=3 20 42 11 9 23 41 53 89 28 20 58 28 9 56 62 91 87 9 30 53 38 37 62 51 77 38 43 27 40
split_gain=3053.78 5717.44 4856.61 1291.92 1953.02 1422.03 1071.72 1220.16 1035.48 1011.14 827.408 825.167 972.022 800.483 798.684 714.2 704.006 629.68 571.202 548.402 629.32 505.934 488.349 484.171 621.575 661.317 657.54 471.134 448.343 424.52
threshold=-0.30530063153194048 1.5111554108561522 -0.59595234888323834 1.0000000180025095e-35 -0.82697237908481813 -0.40649470131774879 0.064831645467291185 0.72515439989842578 0.038245029224513415 -0.050288706088896691 4.1993509998329985 -0.13879149822709155 -0.10306669534709212 -1.0127816825158609 -0.59141355253792594 -0.21348625689667308 -1.0000000180025095e-35 0.63574348286237636 -0.19353157193353634 1.0686561322924994 -1.4012827487774573 -0.31211138878705108 -1.4382877210773064 0.064706623608963634 -0.33215425810358318 -0.74972994020258554 -0.82557417903438235 -0.75024598105041107 0.94940680204483374 0.019499785758822451
decision_type=8 8 10 10 2 10 8 10 10 8 10 8 8 2 10 2 8 10 2 10 10 8 10 2 10 8 8 8 10 10
left_child=1 3 8 11 -5 6 7 22 10 15 13 12 -1 -3 17 -2 -13 -4 -11 -7 -21 -15 -6 24 -8 26 -26 -14 29 -22
right_child=9 2 14 4 5 19 23 -9 -10 18 -12 16 27 21 -16 -17 -18 -19 -20 20 28 -23 -24 -25 25 -27 -28 -29 -30 -31
leaf_value=0.018204761877643964 0.001939270208489216 0 -0.16649927117874144 0.0056292930387357781 0 -0.0095601315830158521 -0.0032617419009080715 0 0 0.00087496792138103412 0 -0.039647780208118918 -0.024645528138973 -0.16649927117874144 -0.0047183253026959722 0.012770317767502327 -0.0060082632457331558 0 -0.011424943242043217 0 -0.16649927117874144 0 -0.16649927117874144 0.021253916889687849 -0.16649927117874144 -0.029752921425820963 0 0.00037987644372960028 0 0
leaf_weight=7652 42320 58 144 2573 23 2213 474 214 84 32705 74 2798 3268 647 1198 33893 7216 78 16577 102 127 52 517 136 182 327 39 5755 53 34
leaf_count=7652 42320 58 144 2573 23 2213 474 214 84 32705 74 2798 3268 647 1198 33893 7216 78 16577 102 127 52 517 136 182 327 39 5755 53 34
internal_value=0 -0.0151458 -0.0979927 -0.00922876 -0.0301886 -0.0522582 -0.0889021 -0.144006 -0.166499 0.00286856 -0.166499 -0.00349944 0.00365437 -0.166499 -0.0275925 0.00683313 -0.0159969 -0.12408 -0.00314342 -0.0222072 -0.0919204 -0.166499 -0.166499 -0.0478541 -0.0628009 -0.103499 -0.166499 -0.00803543 -0.145508 -0.166499
internal_weight=0 36038 2335 33703 7014 4441 1912 754 915 125495 831 26689 16675 757 1420 76213 10014 222 49282 2529 316 699 540 1158 1022 548 221 9023 214 161
internal_count=161533 36038 2335 33703 7014 4441 1912 754 915 125495 831 26689 16675 757 1420 76213 10014 222 49282 2529 316 699 540 1158 1022 548 221 9023 214 161
is_linear=0
shrinkage=0.0545865


Tree=32
num_leaves=31
num_cat=0
split_feature=45 4 0 36 5 23 9 63 3 32 98 47 9 78 13 0 41 15 9 57 94 3 41 82 58 3 50 63 56 79
split_gain=2951.22 5944.46 4138.85 1368.19 1360.98 1084.69 929.703 902.553 869.535 866.467 827.466 750.372 700.109 699.208 693.296 632.272 1546.96 628.624 973.484 592.772 669.533 553.785 537.782 515.398 859.817 636.93 696.209 424.426 417.484 410.633
threshold=-0.53309640368510924 1.3203741408477669 -1.0000000180025095e-35 0.24536956918636063 0.84257605834715321 0.28817573300610633 -0.93676878565770694 0.14885032052415914 0.16229268670105765 -0.252776239159897 -0.39082131510939405 -2.2602609400756539 -1.0634569470879633 -0.82010225093208933 0.53165735124004676 -1.0000000180025095e-35 0.94644710475014049 0.68481287313784522 -0.81852650165613439 2.4408838016684737 2.1095518150130661 -0.082505156652416214 -1.1827029374543649 -2.3126062166477346 0.38118600026847399 -0.30530063153194048 -0.79341743579083179 0.76229629287557621 0.83875874463563893 -1.8606255995756877
decision_type=10 8 8 8 8 8 2 8 10 8 8 8 2 8 10 8 8 10 2 10 10 8 10 10 10 10 10 8 10 8
left_child=1 3 6 5 7 9 -3 10 19 -1 -2 14 -11 -9 22 16 17 18 -5 20 -8 28 -4 24 -7 26 -26 -14 -20 -17
right_child=4 2 11 15 -6 23 8 13 -10 12 -12 -13 27 -15 -16 29 -18 -19 21 -21 -22 -23 -24 -25 25 -27 -28 -29 -30 -31
