tree
version=v4
num_class=1
num_tree_per_iteration=1
label_index=0
max_feature_idx=99
objective=regression
feature_names=month_lag_max_c1_0 c1_sum_c3_NA_0 days_active_c3_B_1 latest_transaction_new_flag_0 c2_NA_changes earliest_transaction_new_flag_1 purchase_amount_var_new_flag_1 month_lag_max_new_flag_0 hour_sum_new_flag_0 days_active_new_flag_0 days_active_c1_1 month_lag_max_c1_1 month_lag_sum_c1_1 days_active_new_flag_1 merchant_category_id_unique_c3_B_1 month_sum_c1_1 month_lag_min_c3_B_1 purchase_amount_skew_c3_A_0 latest_transaction_new_flag_1 purchase_amount_std_new_flag_1 c1_changes days_active_auth_flag_0 purchase_amount_sum_c2_3_0 day_mean_new_flag_1 month_range_c3_NA_0 month_lag_skew month_lag_max_c2_4_0 hour_std_new_flag_1 new_flag_mean_c3_B_0 c1_mean_c2_4_0 transaction_frequency_new_flag_1 hour_sum_auth_flag_0 month_lag_min_c2_4_1 auth_flag_mean_c3_B_0 hour_mean_new_flag_1 new_flag_sum_c3_B_0 c1_sum_c3_A_0 purchase_amount_skew_c2_3_0 latest_transaction_c2_2_0 month_lag_sum_new_flag_1 purchase_amount_min_c2_NA_1 hour_std_c3_A_1 month_lag_mean_new_flag_1 earliest_transaction_c2_2_0 auth_flag_sum0_c2_5_0 latest_transaction purchase_amount_mean_new_flag_0 latest_transaction_c2_NA_0 latest_transaction_c2_3_0 purchase_amount_max_new_flag_0 month_lag_sum_auth_flag_0 installments_sum_auth_flag_0 transaction_frequency_c1_0 purchase_amount_sum_new_flag_1 latest_transaction_c1_0 auth_flag_mean_c3_NA_0 day_max_new_flag_1 purchase_amount_median_c3_B_0 auth_flag_changes purchase_amount_skew_new_flag_1 auth_flag_mean_c1_0 new_flag_mean_c2_2_0 earliest_transaction_auth_flag_1 purchase_amount_max_new_flag_1 year_sum latest_transaction_c2_5_0 purchase_amount_range_new_flag_1 earliest_transaction_c1_1 purchase_amount_sum_c3_NA_1 merchant_id_unique_c3_A_0 month_lag_var_c3_A_1 latest_transaction_c3_A_0 purchase_amount_std_auth_flag_1 c1_mean_new_flag_1 purchase_amount_sum_auth_flag_0 c3_B_sum0_new_flag_1 purchase_amount_range_c3_B_1 subsector_id_mode_auth_flag_1 transaction_frequency_new_flag_0 auth_flag_mean_new_flag_0 purchase_amount_mean_new_flag_1 day_sum_c3_NA_0 auth_flag_mean latest_transaction_c3_B_1 month_mean_new_flag_1 month_lag_sum_c2_NA_0 month_mean_auth_flag_1 hour_median_c1_0 feature_2 latest_transaction_c3_A_1 month_max_new_flag_1 month_lag_max_c3_A_0 month_sum_new_flag_1 merchant_category_id_mode_c2_NA_0 day_min_new_flag_1 new_flag_sum_c1_0 month_lag_range_new_flag_0 merchant_id_modelen_auth_flag_1 purchase_amount_median_new_flag_0 feature_1
feature_infos=[-3.6597307794813538:0.5479449870855061] [-0.4873827255032197:6.2240856303676138] [-1.4467350469212339:1.9217241230360063] [-4.0308241411333494:0.65152788568008024] [-0.58539575273153011:5.1976301312332334] [-4.1665406629863231:1.2859877181897639] [-0.17782541314428676:25.077297916433182] [-5.0929036773540917:0.29280879923553493] [-1.0324221169901897:4.2838180090804867] [-2.0474016675296212:1.5167586073749246] [-1.0569559809487559:2.5532060289786989] [-3.4753715695145182:1.1100642612906706] [-5.9852869809018552:0.81629888898798675] [-1.4349280733580605:1.6020772658947127] [-1.0010993340922472:3.3398852486646495] [-0.70657742515151833:5.6498793059809422] [-1.5848086287144791:2.2148019073454854] [-3.5381041334086243:3.7280377729054233] [-4.143730207351302:0.74862424377738834] [-0.68220132630130892:6.6435932596594673] [-0.54036227546828319:5.4019648159542184] [-1.1373261463676474:2.2304213108155717] [-4.6257583285292565:85.138601518083618] [-2.4914418942855967:2.6126762857185444] [-3.828710917516938:0.44089140131206817] [-3.3752374712659057:3.3593672161118016] [-3.3118025791565469:0.59358643191580684] [-2.15955988425342:3.2769416495598587] [-0.82876392476396732:4.0092177357574004] [-0.52623227258496852:4.5630634225271489] [-1.0141987816822482:6.2007909807044124] [-1.0359037237370321:4.5489586570068621] [-1.5087971264967528:1.9167143844219448] [-4.0520666180008913:0.79806345452214489] [-3.2078351180318605:3.0911586104352771] [-0.79994015236316063:4.2064019472117629] [-0.43235861747205184:6.8378164757727369] [-3.4763267943807481:3.6475921781193441] [-3.8244716249438344:0.82471054773071306] [-1.0292508820374051:3.8626461132959178] [-0.4220127946713258:8.1582499556058927] [-2.2174442862466321:3.3115266983856571] [-1.4348905191151833:1.5774545741229768] [-1.1315013517741874:2.9000609463974842] [-0.83400827132866739:4.71563588467051] [-3.8474521495715104:0.81485874793750612] [-0.032052578242206607:165.48711225102718] [-3.7940472658531821:0.81927781460373805] [-3.7200929386702395:0.86128566393563188] [-0.036667933152563469:78.137151177715367] [-4.8059145532950289:0.81382930875566728] [-1.6528071873327801:7.1991367707439977] [-1.194763209052824:3.9552070321597723] [-3.9004321938293822:3.7702651183844882] [-3.798053513137301:0.81205990539062078] [-3.811118312151542:1.0254691051389653] [-2.8666876616776884:1.0337822397047614] [-0.71359792540051536:7.2793459440952741] [-0.9837549332823855:4.0860256770493786] [-3.0553919569380161:3.0774445060853637] [-3.9982249007375419:0.97705789389412256] [-0.97127442473003756:3.9378520424338741] [-1.1332121331593596:2.0753419788680474] [-0.6808215407304038:6.5119706485972468] [-1.0629296882173151:4.2341008061002601] [-3.7849047068944581:0.85883808518743909] [-0.60308099279816751:6.6243978013888798] [-1.6506097552199643:2.1005138745228717] [-5.6518595496979147:6.3338779265616232] [-1.2177819388916633:3.7937192289262796] [-1.1376933958396298:3.577660463439357] [-3.8086288533194863:0.83407458637708842] [-0.87196399540052805:5.9023506758919835] [-0.3207211715757991:5.9159454855155964] [-1.7799896552190939:75.272205557088114] [-0.86410248039742477:4.0722471020690012] [-0.046083782075024352:66.029903997610347] [-3.1681383955577891:1.5446575687241459] [-1.1509314807343842:3.9811199216809086] [-3.7321407363399159:1.028824115825175] [-0.77672312609548722:7.194820774498961] [-1.0754849850865991:4.2391246339320858] [-3.8046463699572595:1.0283934991943771] [-3.2285906805523079:0.9591158610223427] [-1.5918325720870885:4.0820047929682364] [-4.632127115550257:1.0527382555297009] [-3.0011670000714497:2.9998839955873202] [-3.1427416417572145:3.1113027024407289] [-0.99076555592610716:1.6705797816101542] [-3.3854233950832433:1.16307691749471] [-1.7150035692491459:3.786035150024083] [-3.3882960466092875:0.58801396232287462] [-0.97696917928789639:4.6227622548495111] [-2.0256217643022598:1.6973979585501764] [-0.98725086780690041:3.0041837011610562] [-1.0282675241167378:3.834394835516914] [-1.7527504645649523:1.3844144355551273] [-0.32849526540552093:8.3518818712791116] [-0.88096924880031202:7.4131862204390391] [-1.7748901225616962:1.5965432923156948]
tree_sizes=2799 2658 2757 2670 2694 2654 2567 2665 2694 2716 2660 2640 2623 2662 2610 2592 2604 2611 2580 2693 2509 2605 2472 2553 2606 2514 2603 2579 2539 2523 2548 2588 2537 2514 2670 2581 2578 2615 2628 2532 2548 2434 2557 2654 2537 2585 2522 2513 2479 2600 2476 2563 2478 2530 2519 2518 2663 2472 2492 2544 2471 2548 2520 2655 2592 2557 2477 2510 2431 2534 2532 2577 2498 2556 2516 2533 2456 2585 2558 2561 2596 2491 2495 2550 2523 2528 2660 2527 2565 2572 2497 2564 2543 2465 2614 2526 2563 2492 2520 2527 2518 2645 2459 2538 2555 2548 2588 2549 2429 2451 2504 2596 2396 2448 2460 2384 2440 2506 2517 2452 2443 2534 2578 2500 2457 2576 2461 2529 2468 2444 2457 2493 2413 2474 2432 2485 2470 2545 2438 2362 2424 2587 2560 2406 2445 2358 2491 2371 2287 2382 2498 2360 2491 2446 2435 2520 2442 2410 2460 2476 2392 2550 2396 2536 2468 2479 2451 2460 2463 2397 2582 2450 2400 2423 2480 2372 2376 2506 2402 2393 2518 2493 2326 2474 2371 2341 2457 2328 2404 2378 2324 2435 2439 2347 2356 2480 2409 2475 2424 2462 2424 2421 2527 2389 2359 2385 2493 2416 2399 2378 2368 2339 2357 2404 2341 2391 2487 2421 2437 2424 2383 2380 2390 2394 2352 2349 2419 2533 2424 2506 2391 2526 2481 2466 2423 2426 2388 2382 2408 2434 2371 2463 2439 2429 2423 2502 2490 2505 2405 2439 2361 2429 2393 2446 2370 2449 2401 2381 2375 2349 2402 2349 2264 2382 2439 2384 2455 2339 2397 2375 2453 2391 2321 2376 2473

Tree=0
num_leaves=29
num_cat=0
split_feature=3 36 6 48 6 96 6 74 96 91 13 53 8 2 45 26 35 74 13 11 21 25 90 47 9 37 3 47
split_gain=35190.4 27554.1 9447.88 6010.69 4805.05 4421.99 3075.73 2505.87 2387.58 2380.76 1790.77 1623.93 1534.46 1512.26 1245.7 1207.08 1172.72 1031.78 1026.5 1024.15 899.989 860.86 660.358 643.965 620.539 582.666 581.521 556.075
threshold=-0.35686984296263574 0.24536956918636063 -0.17738922793997625 -0.18458007399894982 -0.17738922793997625 -1.0991744437066022 -0.10149300238995072 -0.036317662285691318 -1.0991744437066022 -1.0000000180025095e-35 0.83037918788786058 1.0558358793550473 -0.87603465279685644 -0.50370567186089066 -0.043166459635552719 -1.0000000180025095e-35 -1.0000000180025095e-35 -0.034487113556343707 -0.91216485922438639 1.0000000180025095e-35 -0.066493917074165201 0.21068552566352242 -0.88984776135816135 -0.4259267450940421 -1.0465651922305959 -1.1734387142268146 0.3866415032002139 0.55219525974652994
decision_type=8 8 10 8 10 2 10 8 2 8 10 10 8 10 10 8 8 8 10 10 10 8 8 8 2 8 10 8
left_child=1 4 11 5 7 -3 14 15 -6 17 12 18 -7 -9 24 20 -16 -10 22 27 -1 -15 -2 25 -4 -22 -8 -11
right_child=2 3 6 -5 8 10 26 13 9 19 -12 -13 -14 21 16 -17 -18 -19 -20 -21 23 -23 -24 -25 -26 -27 -28 -29
leaf_value=-0.38762829083462352 -0.38762829083462352 -0.38762829083462352 -0.38762829083462352 -0.41623230469416156 -0.39289424142496454 -0.38762829083462352 -0.43409212461503421 -0.34880339228593366 -0.60631079392224296 -0.43942009346716532 -0.43521357689519424 -0.41861925512954767 -0.60631079392224296 -0.45363821397483794 -0.3642262419899816 -0.38971266052364251 -0.38508041268911536 -0.48547944596565579 -0.36170894309588453 -0.4999864539920062 -0.38762829083462352 -0.37726858015222164 -0.3297434697248377 -0.38762829083462352 -0.4391550557149464 -0.56443107639521439 -0.40134568669042797 -0.38648882151116098
leaf_weight=291 838 447 2159 844 3167 217 3706 5236 633 7655 407 1003 2544 1147 28348 1095 22236 1452 7823 1535 53 1115 25084 85 1842 738 10933 605
leaf_count=291 838 447 2159 844 3167 217 3706 5236 633 7655 407 1003 2544 1147 28348 1095 22236 1452 7823 1535 53 1115 25084 85 1842 738 10933 605
internal_value=-0.387628 -0.451484 -0.369185 -0.603636 -0.42376 -0.606311 -0.383491 -0.387628 -0.447261 -0.460977 -0.606311 -0.340949 -0.606311 -0.369076 -0.376141 -0.448686 -0.373211 -0.528538 -0.338367 -0.445647 -0.496097 -0.411923 -0.331679 -0.529704 -0.410883 -0.548656 -0.410267 -0.434427
internal_weight=0 29266 103972 4459 24807 3615 69224 9760 15047 11880 3168 34748 2761 7498 54585 2262 50584 2085 33745 9795 1167 2262 25922 876 4001 791 14639 8260
internal_count=133238 29266 103972 4459 24807 3615 69224 9760 15047 11880 3168 34748 2761 7498 54585 2262 50584 2085 33745 9795 1167 2262 25922 876 4001 791 14639 8260
is_linear=0
shrinkage=1


Tree=1
num_leaves=29
num_cat=0
split_feature=18 1 71 1 6 13 6 66 91 21 22 40 3 83 28 16 42 81 80 10 66 89 8 95 43 24 84 23
split_gain=30419.4 16249.3 5721.55 10304.7 9025.16 3040.35 2896.46 2328.88 2191.57 1887.11 1644.61 1661.22 1512.77 1195.12 1132.54 1091.49 1059.85 920.3 905 873.332 810.139 663.701 642.598 621.49 617.373 617.114 565.059 521.976
threshold=-0.4135236129694792 0.59677754736822275 -1.0314000043357063 0.70003090668931234 -0.17738922793997625 0.33250946014150423 -0.029958628883030077 -0.42085719573938102 -1.0000000180025095e-35 -0.13018654037786673 0.036650176681890322 -0.08936632996367995 -0.97554573089569796 0.64025600614534328 -0.71001346531746912 0.82161137745683199 -0.90019923633744814 -0.79257646140262328 1.0908836990041633 -1.0007812608772704 -0.35206588279349377 -2.3914856979900594 -0.83868839269098594 -0.34749479376802644 0.66418577319877115 -2.7613103378096864 -1.3619202112604338 1.1307806343004538
decision_type=8 8 8 8 10 10 8 8 8 10 8 8 8 10 8 10 10 8 8 10 8 8 8 10 10 10 10 10
left_child=1 7 3 10 14 15 13 9 17 -1 11 12 -2 20 21 -3 22 -5 -16 26 -6 -4 -9 27 -24 -18 -11 -21
right_child=2 5 4 8 6 -7 -8 16 -10 19 -12 -13 -14 -15 18 -17 25 -19 -20 23 -22 -23 24 -25 -26 -27 -28 -29
leaf_value=-0.00067562886854953996 -0.21868250308761938 -0.21868250308761938 0 0 0.012924151889955564 -0.078017571308575603 -0.027851843733965861 0 0 -0.083368336834248366 0.019346167710152743 -0.017178413533554579 -0.010596226146234788 0.021101809841964927 0.038017574511638993 0 -0.014357088610552396 -0.21868250308761938 -0.0011037702772419341 -0.21868250308761938 -0.0069883016548146597 0.059020182870388613 -0.15483944802669503 0 0 -0.069052785214222284 -0.013385754522135279 0
leaf_weight=6009 168 1533 579 118 16171 880 10580 273 240 1163 2918 1404 265 24154 13377 178 1578 518 2666 287 19773 18447 1418 118 235 6522 1606 60
leaf_count=6009 168 1533 579 118 16171 880 10580 273 240 1163 2918 1404 265 24154 13377 178 1578 518 2666 287 19773 18447 1418 118 235 6522 1606 60
internal_value=0 -0.071374 0.0141683 -0.0505272 0.0177007 -0.218683 0.0039137 -0.0497594 -0.218683 -0.0242246 -0.0092463 -0.0596765 -0.176028 0.00965953 0.0452237 -0.218683 -0.072378 -0.218683 0.0309418 -0.0651222 0.00171367 0.0567806 -0.121565 -0.158309 -0.137573 -0.0595373 -0.0461184 -0.203555
internal_weight=0 21860 111378 5631 105747 2591 70678 19269 876 9243 4755 1837 433 60098 35069 1711 10026 636 16043 3234 35944 19026 1926 465 1653 8100 2769 347
internal_count=133238 21860 111378 5631 105747 2591 70678 19269 876 9243 4755 1837 433 60098 35069 1711 10026 636 16043 3234 35944 19026 1926 465 1653 8100 2769 347
is_linear=0
shrinkage=0.0663016


Tree=2
num_leaves=29
num_cat=0
split_feature=45 36 13 94 54 16 66 9 13 12 42 58 14 75 10 30 89 6 16 28 80 37 72 45 7 74 29 38
split_gain=23143.3 23561.9 8092.87 5448.05 5257.77 4460.8 3315.64 2814.27 2256.4 1918.23 1829.28 1386.68 1365.64 1216.97 1204.6 1737.69 1177.52 1063.11 1009.39 812.35 1449.58 802.639 745.984 741.764 735.996 648.772 633.898 544.125
threshold=-0.59502874968456376 0.36859287585152656 -1.4100345869707425 1.9719161402210672 -0.19346842448782894 0.56830400838616757 0.012381711324079005 -0.78474299194139929 0.33250946014150423 -0.14366235523060147 -0.36852025987020354 -0.13879149822709155 -0.85311122331644385 -1.0000000180025095e-35 -0.81353219397231957 0.48339110363472682 -0.27306947915091023 0.35039486927571872 -1.2048475751084824 -0.8155694289854597 -0.037681417403291742 -0.69930706078662042 1.1754967821169851 0.43875017388802467 -1.0000000180025095e-35 -0.036317662285691318 -0.40347873355848946 0.62406281590771895
decision_type=8 8 10 8 8 8 8 2 10 8 10 8 8 8 10 8 8 8 10 8 8 8 10 10 8 10 8 10
left_child=1 3 19 7 9 8 13 -1 12 21 14 -5 -3 -6 15 -9 25 27 -14 -2 -21 -4 -16 -15 -18 -13 -12 -8
right_child=2 5 4 11 6 -7 17 10 -10 -11 26 16 18 23 22 -17 24 -19 -20 20 -22 -23 -24 -25 -26 -27 -28 -29
leaf_value=-0.011890357062407805 0.058284902547263852 -0.026538112449107774 0 0.041744843783841148 0.024655576752500099 -0.046738958479835106 -0.018865121952271219 -0.055191997017150392 -0.04687843502496767 -0.051701661486905567 -0.029575596378423247 -0.1997060862535413 -0.0041092623818461439 -0.017065114283690147 -0.21868250308761938 -0.16872593251709556 0.073351696170838421 -0.040962624455338936 -0.21868250308761938 0.049719692336874753 0.0029365127568975013 -0.21868250308761938 0 0.011054732893333832 -0.025886889325956678 0 -0.091639690531037613 0.002234500916547351
leaf_weight=5122 12624 272 52 4223 31160 800 8474 2631 473 3498 4032 228 184 5382 566 987 469 4815 1715 8196 5197 394 125 16118 1058 227 1223 12993
leaf_count=5122 12624 272 52 4223 31160 800 8474 2631 473 3498 4032 228 184 5382 566 987 469 4815 1715 8196 5197 394 125 16118 1058 227 1223 12993
internal_value=0 -0.0585591 0.0129578 -0.031551 0.00271303 -0.218683 0.00655283 -0.0537291 -0.218683 -0.0717968 -0.0751699 0.0194542 -0.218683 0.0162287 -0.108861 -0.0887315 -0.0233866 -0.0124833 -0.218683 0.0452408 0.0322554 -0.208522 -0.200783 0.00358644 0 -0.117238 -0.0457818 -0.00566511
internal_weight=0 24335 108903 20891 82886 3444 78942 14686 2644 3944 9564 6205 2171 52660 4309 3618 1982 26282 1899 26017 13393 446 691 21500 1527 455 5255 21467
internal_count=133238 24335 108903 20891 82886 3444 78942 14686 2644 3944 9564 6205 2171 52660 4309 3618 1982 26282 1899 26017 13393 446 691 21500 1527 455 5255 21467
is_linear=0
shrinkage=0.0663016


Tree=3
num_leaves=29
num_cat=0
split_feature=3 1 6 48 5 16 9 6 15 30 5 7 16 70 63 98 95 66 63 26 23 13 57 37 84 81 21 13
split_gain=25978.5 23178.4 6407.08 4748.6 4202.01 3361.66 2527 2090.23 2035.54 1984.89 1305.36 1276.23 1349.94 1187.19 1180.38 1119.88 1102.78 1038.27 947.96 902.216 813.514 763.249 743.42 727.707 720.81 711.105 608.919 574.271
threshold=-0.35686984296263574 0.59677754736822275 -0.17738922793997625 -0.20045416811294151 -0.2974076765059131 0.82161137745683199 -0.8016347467987669 -0.10149300238995072 -0.26230894394333559 1.0686561322924994 0.11591053665029584 1.0000000180025095e-35 0.56830400838616757 -0.10927137028758951 -0.24353404016908956 -0.10099471083998275 -0.73650778253871851 -0.55258524180597357 -0.39965880340267096 -2.6609044106444872 1.2184012258803081 0.58144432401468238 -0.49296309760930063 0.49978383493452788 3.7644116878306391 0.7892688954836059 0.46693180309433524 0.83037918788786058
decision_type=8 8 10 8 8 10 2 10 10 8 10 10 8 8 10 8 8 10 8 10 10 10 8 8 10 8 10 10
left_child=1 4 14 5 6 19 -1 10 9 18 -4 17 13 15 16 23 -2 -6 26 -3 21 -11 -12 -13 -21 27 -8 -10
right_child=2 3 7 -5 11 -7 8 -9 25 20 22 12 -14 -15 -16 -17 -18 -19 -20 24 -22 -23 -24 -25 -26 -27 -28 -29
leaf_value=-0.011280041766989693 0.051135384421460602 0 -0.018333946649479873 -0.027855102435684197 0.054153524572921649 0 -0.0095954575451574729 -0.018852998845928639 -0.21868250308761938 -0.17532726409973526 0.0027478147997571254 -0.21868250308761938 0.0054731278588787532 -0.021990761045552212 -0.0019566995884822739 -0.0021991388849441611 0.023507465705326316 -0.0041794267159312292 -0.070664430193862357 -0.21868250308761938 0 -0.014650004320840508 0.020076882836949011 0 0 0 -0.066088760113121203 0
leaf_weight=5339 20812 118 6389 686 2820 375 3888 14698 423 1152 19959 149 1827 843 2542 206 11375 2046 4773 2287 208 294 28159 52 115 116 1313 88
leaf_count=5339 20812 118 6389 686 2820 375 3888 14698 423 1152 19959 149 1827 843 2542 206 11375 2046 4773 2287 208 294 28159 52 115 116 1313 88
internal_value=0 -0.0559148 0.0149386 -0.214349 -0.0333331 -0.218683 -0.0514597 0.00313157 -0.0682107 -0.0607536 0.0092291 0.00565754 -0.0262553 -0.079989 0.0382006 -0.177317 0.0416586 0.0277333 -0.0481106 -0.218683 -0.131383 -0.14905 0.0130807 -0.218683 -0.218683 -0.191654 -0.0256351 -0.218683
internal_weight=0 29118 103934 3581 25537 2895 17594 69205 12255 11628 54507 7943 3077 1250 34729 407 32187 4866 9974 2520 1654 1446 48118 201 2402 627 5201 511
internal_count=133052 29118 103934 3581 25537 2895 17594 69205 12255 11628 54507 7943 3077 1250 34729 407 32187 4866 9974 2520 1654 1446 48118 201 2402 627 5201 511
is_linear=0
shrinkage=0.0663016


Tree=4
num_leaves=29
num_cat=0
split_feature=3 1 27 38 7 96 66 2 66 11 0 53 64 18 5 26 57 63 26 67 3 14 44 64 84 1 80 46
split_gain=23262.7 21228.7 5451.17 4808.86 3703.46 3120.06 2611.51 2232.9 1746.67 1684.95 1531.86 1462.12 1424.86 1155.77 832.969 752.867 725.696 664.072 643.172 597.846 599.512 595.239 584.985 579.171 696.089 571.03 503.285 499.235
threshold=-0.35686984296263574 0.59677754736822275 inf -0.33052287543843001 1.0000000180025095e-35 -1.0991744437066022 -0.13105549439287734 -0.42714978163458983 -0.54965795189338262 1.0000000180025095e-35 -1.0000000180025095e-35 0.89415636061274861 -0.62584151966789614 0.12566084941955546 0.20647177361163493 inf 0.70681331729860242 -0.38169754745544476 -1.0000000180025095e-35 -0.78833989768888302 0.24443774623896183 -0.85311122331644385 0.31652771223213766 -0.8443489587295564 3.7644116878306391 0.39027082872604313 2.3626249868961464 -0.023026541240612011
decision_type=8 8 8 8 10 2 8 10 10 10 8 10 8 10 10 8 10 10 8 8 10 8 10 8 10 8 8 8
left_child=1 4 6 5 8 -3 14 12 -1 16 -11 19 17 -8 -2 21 -9 -6 22 20 25 -7 -14 -23 -25 -4 -15 -16
right_child=2 3 11 -5 7 15 13 9 -10 10 -12 -13 18 26 27 -17 -18 -19 -20 -21 -22 23 -24 24 -26 -27 -28 -29
leaf_value=0.042425095574376515 -0.00017565411333637706 0 0.021980100494635148 -0.0333078255152214 0.017806517303295886 -0.030519126475404754 -0.040984892586506706 -0.061816653328507401 -0.024548151279839694 -0.21868250308761938 -0.08506100421980986 -0.0028099329486517052 -0.044998270114436509 -0.00041101265070815374 0.015291553859278871 0 0 -0.034568800140526219 -0.031590389310450176 0.051922010465877529 0.037301910950572253 0 -0.13937499944578136 -0.21868250308761938 0 -0.066569681077599641 -0.031270143632941366 0.035362512379791704
leaf_weight=3568 10754 311 485 753 3129 188 4396 3500 3135 634 1860 2559 1332 24594 28865 51 757 1612 5323 18503 2383 92 687 2072 114 594 2650 8151
leaf_count=3568 10754 311 485 753 3129 188 4396 3500 3135 634 1860 2559 1332 24594 28865 51 757 1612 5323 18503 2383 92 687 2072 114 594 2650 8151
internal_value=0 -0.0530982 0.0139481 -0.204737 -0.0314696 -0.218683 0.00537611 -0.0466207 0.00972634 -0.0779746 -0.123862 0.0413281 -0.028337 -0.0092168 0.0152346 -0.218683 -0.0489139 0 -0.0466318 0.0468902 0.01733 -0.218683 -0.081704 -0.218683 -0.218683 -0.0182319 -0.00375167 0.0199608
internal_weight=0 29118 103934 3581 25537 2828 79410 18834 6703 6751 2494 24524 12083 31640 47770 2517 4257 4741 7342 21965 3462 2466 2019 2278 2186 1079 27244 37016
internal_count=133052 29118 103934 3581 25537 2828 79410 18834 6703 6751 2494 24524 12083 31640 47770 2517 4257 4741 7342 21965 3462 2466 2019 2278 2186 1079 27244 37016
is_linear=0
shrinkage=0.0663016


Tree=5
num_leaves=29
num_cat=0
split_feature=18 1 6 38 1 36 9 6 9 14 19 16 42 41 40 83 0 42 5 64 86 63 66 8 64 85 9 46
split_gain=19998.7 12163.2 3399.04 5639.07 10711.7 2831.61 1751.52 1462.17 1408.65 1324.62 1321.68 1320.72 1244.42 1074.96 1155.71 1072.64 1001.34 967.181 931.842 916.411 755.465 636.632 628.61 626.102 576.919 545.198 533.691 518.955
threshold=-0.37196293495365196 1.3195510626158511 -0.17651685753135526 -1.0665281473779449 0.70003090668931234 -0.12430035080913708 -0.95366054051507454 -0.033448110517514014 -0.78474299194139929 -0.75445248279924171 -0.60380183222557127 0.82161137745683199 1.3078496581138024 -0.34675126231945347 -0.08936632996367995 0.64025600614534328 -1.0000000180025095e-35 -1.0643719950813935 -0.40665310026618212 -0.78011468006472307 0.54945483902665637 0.56610411252895199 -0.54673066198079168 -0.58566748047371275 -0.40734682676729644 0.75080873915456547 1.0142289003682412 -0.01910436360203609
decision_type=8 8 10 8 8 8 2 8 2 8 10 10 8 8 8 10 8 10 10 10 8 8 8 8 8 10 2 10
left_child=1 5 3 4 13 8 -3 15 22 -6 24 16 21 14 27 -4 19 18 23 -7 -15 -5 -1 -12 -10 -8 -21 -2
right_child=2 6 7 12 9 11 25 -9 10 -11 17 -13 -14 20 -16 -17 -18 -19 -20 26 -22 -23 -24 -25 -26 -27 -28 -29
leaf_value=0.038670361385224367 -0.21868250308761938 0 -0.0028380073660938024 0.021922037950562776 -0.0084270504428503069 0 -0.21868250308761938 -0.021661360806149707 0.0042741565405034921 -0.21868250308761938 -0.043926041853839519 -0.014860347038584475 0.043219171893780696 -0.0047124451810947633 0 0.0164206144599785 -0.086338398428254332 -0.046351184467143952 0 -0.21868250308761938 0.060730915373715402 -0.041155172709491261 -0.015407739805342076 -0.18232399909439381 -0.043970667977366033 0 0 0
leaf_weight=1202 106 236 29252 22680 223 159 1383 10802 2668 482 429 844 20993 2097 333 21678 1753 6463 384 596 1066 627 4111 770 1574 53 45 43
leaf_count=1202 106 236 29252 22680 223 159 1383 10802 2668 482 429 844 20993 2097 333 21678 1753 6463 384 596 1066 627 4111 770 1574 53 45 43
internal_value=0 -0.0575499 0.0108129 0.023922 -0.0472732 -0.0432672 -0.218683 0.0003323 -0.0317941 -0.218683 -0.0441695 -0.0999854 0.0311215 0 -0.0918038 0.00517829 -0.124507 -0.0602686 -0.111234 -0.196521 0.014434 0.0198286 -0.00143515 -0.140532 -0.0114563 -0.218683 -0.218683 -0.218683
internal_weight=0 22670 110382 48650 4350 20998 1672 61732 17601 705 12288 3397 44300 3645 482 50930 2553 8046 1583 800 3163 23307 5313 1199 4242 1436 641 149
internal_count=133052 22670 110382 48650 4350 20998 1672 61732 17601 705 12288 3397 44300 3645 482 50930 2553 8046 1583 800 3163 23307 5313 1199 4242 1436 641 149
is_linear=0
shrinkage=0.0663016


Tree=6
num_leaves=29
num_cat=0
split_feature=5 12 45 20 27 9 36 54 0 80 53 9 75 30 91 84 17 83 43 31 91 63 45 77 16 5 0 54
split_gain=18626.7 7498.75 4616.1 9781.99 4253.71 2944.63 2804.9 2772.76 2069.23 1740.38 1580.79 1422.02 1211.81 1149.12 1021.21 905.729 946.352 766.602 708.41 667.514 628.046 599.956 593.667 515.475 877.322 512.996 501.636 461.206
threshold=-0.20992154134515623 -0.15854547529600596 -1.1437946943708388 0.37928358391853267 inf -1.0634569470879633 -0.12430035080913708 -0.19346842448782894 -1.0000000180025095e-35 1.1793160402151954 0.93106146815175161 -0.78474299194139929 -1.0000000180025095e-35 0.15879034067581002 -2.7255777117872602 3.7644116878306391 -0.98256869305010464 -1.8137656029990945 -1.1159821880278795 -0.020891728552492075 inf 0.14885032052415914 0.52997763856695213 0.73852141693907825 0.56830400838616757 0.18411851299130394 1.0000000180025095e-35 -0.53207938345421057
decision_type=8 8 8 8 8 2 8 10 8 8 10 2 8 8 10 10 8 10 8 10 8 8 10 8 10 10 10 10
left_child=1 7 3 14 9 -3 13 15 17 12 18 -5 21 -7 -2 16 -1 -8 -6 -16 -13 25 -14 24 -21 -4 27 -15
right_child=2 5 4 11 10 6 8 -9 -10 -11 -12 20 22 26 19 -17 -18 -19 -20 23 -22 -23 -24 -25 -26 -27 -28 -29
leaf_value=0 0.035904757419114801 0.00031883747553438968 -0.0029080376160281725 0 0 -0.028056662777659547 0 0 -0.077449601654645844 -0.025538696522031334 -0.013853985227216028 -0.21868250308761938 -0.017140658398563546 -0.13183512165064823 -0.011911492122108255 0 -0.21868250308761938 -0.21868250308761938 0.044574621305740122 -0.1801828705055798 0 0 0.0040981644381990895 0 0 0.022229540487844562 -0.053065718694935815 0
leaf_weight=105 1234 4949 3305 133 1330 9644 50 368 2165 7025 2212 456 7901 1043 2171 81 1218 696 22572 373 46 7567 20714 109 169 31693 3549 169
leaf_count=105 1234 4949 3305 133 1330 9644 50 368 2165 7025 2212 456 7901 1043 2171 81 1218 696 22572 373 46 7567 20714 109 169 31693 3549 169
internal_value=0 -0.0539488 0.0105222 -0.0534197 0.0134861 -0.0429596 -0.055861 -0.186775 -0.117104 0.00560999 0.0367195 -0.218683 0.00881388 -0.0428412 -0.010866 -0.218683 -0.218683 -0.218683 0.0417858 -0.0345881 -0.218683 0.0159265 -0.00144407 -0.0959903 -0.123461 0.0195922 -0.0708465 -0.115264
internal_weight=0 24037 109010 4691 104319 22265 17316 1772 2911 78205 26114 635 71180 14405 4056 1404 1323 746 23902 2822 502 42565 28615 651 542 34998 4761 1212
internal_count=133047 24037 109010 4691 104319 22265 17316 1772 2911 78205 26114 635 71180 14405 4056 1404 1323 746 23902 2822 502 42565 28615 651 542 34998 4761 1212
is_linear=0
shrinkage=0.0663016


Tree=7
num_leaves=29
num_cat=0
split_feature=3 20 13 30 16 91 6 18 20 5 55 45 71 70 66 64 80 40 79 9 87 31 96 73 45 66 67 3
split_gain=17420.3 14202 5829.82 4042.37 3544.47 3218.02 1917.58 1785.82 1681.93 1658.68 1593.17 1399.31 1313.36 1304.83 1259.91 1129.45 965.415 830.976 825.048 674.289 650.542 650.292 581.209 808.38 876.317 573.591 547.047 507.512
threshold=-0.35686984296263574 1.2281874541217475 0.33250946014150423 -0.68222071366560288 0.82161137745683199 -1.0000000180025095e-35 -0.17738922793997625 -0.86532900907327814 0.096315627184127769 0.1856070394322597 -1.0949188567891197 0.20237824858596923 -0.38805068086988564 -0.99378121476334791 -0.1896012926446963 -0.70287931711809015 0.088650498612467793 -0.14984750536507016 -0.83208753574492234 -0.81852650165613439 -1.1883527841953569 -0.26890370927631629 -1.0991744437066022 1.2326494085834816 -0.074579289546756453 -0.42085719573938102 -1.3987138079543429 0.24443774623896183
decision_type=8 8 10 10 8 8 10 10 10 8 10 10 10 10 8 10 10 10 10 2 8 10 2 8 10 8 8 8
left_child=1 4 12 16 5 7 21 8 10 18 15 22 19 -10 -13 -1 26 -15 -7 -3 -17 -6 -5 -24 -25 -20 27 -2
right_child=3 2 -4 11 6 9 -8 -9 13 -11 -12 14 -14 17 -16 20 -18 -19 25 -21 -22 -23 23 24 -26 -27 -28 -29
leaf_value=-0.050509866086260166 -0.059741214666011733 0 -0.040663247053905005 0 0.034125309815177841 -0.096087182421103576 -0.029095764420488612 0 0 0.020203288399599513 -0.054185171356717556 0.015465984533309185 0 -0.21868250308761938 -0.0032908577251791736 0 0.0035878813271089595 -0.012002790002874169 0 -0.21868250308761938 -0.21868250308761938 -0.014667532971337308 -0.021947091753630389 -0.21868250308761938 -0.035815131298500745 -0.047835219249616569 0.039083888205554161 0.020281647988733113
leaf_weight=375 436 127 951 3436 4232 1428 8359 664 157 1853 2119 32644 199 555 29150 68 5403 180 1626 1046 385 1370 5873 172 493 3461 24649 1636
leaf_count=375 436 127 951 3436 4232 1428 8359 664 157 1853 2119 32644 199 555 29150 68 5403 180 1626 1046 385 1370 5873 172 493 3461 24649 1636
internal_value=0 -0.0464623 -0.20447 0.0115264 -0.0324355 -0.057663 -0.00851574 -0.103795 -0.121166 -0.0317318 -0.0912165 0.00263575 -0.218683 -0.209677 0.00646864 -0.174768 0.0311016 -0.218683 -0.0479191 -0.218683 -0.218683 0.0205464 -0.0201855 -0.0318171 -0.105047 -0.032577 0.0363195 0
internal_weight=0 29155 2323 103892 26832 12871 13961 4503 3839 8368 2947 71768 1372 892 61794 828 32124 735 6515 1173 453 5602 9974 6538 665 5087 26721 2072
internal_count=133047 29155 2323 103892 26832 12871 13961 4503 3839 8368 2947 71768 1372 892 61794 828 32124 735 6515 1173 453 5602 9974 6538 665 5087 26721 2072
is_linear=0
shrinkage=0.0663016


Tree=8
num_leaves=29
num_cat=0
split_feature=3 36 0 13 9 6 21 66 47 96 63 83 13 83 91 26 54 22 42 84 57 58 57 77 47 13 55 40
split_gain=15646.3 14277.3 7209.94 3527.48 2371.92 2239.94 1723.3 1646.84 1556.36 1224.43 1188.41 966.076 924.62 857.725 833.312 793.85 774.538 751.27 686.266 662.989 639.469 638.251 886.103 774.464 555.4 521.244 520.493 478.795
threshold=-0.35686984296263574 0.24536956918636063 -1.0000000180025095e-35 -1.3602476141961068 -0.81852650165613439 -0.17564448712273428 -0.13814811829082943 -0.19545587246987814 -2.2602609400756539 -1.0991744437066022 0.024503163966439468 0.63714694121312154 1.0793140517610389 0.33442583834243816 -1.0000000180025095e-35 -1.0000000180025095e-35 -0.5623672201751857 0.026459987772757348 1.0156523550010716 -0.2663377353462611 2.2953840773953487 -0.13879149822709155 -0.23535702840442299 0.73852141693907825 -0.19521227098376431 0.33250946014150423 -0.090217122762588586 -0.37161181517016717
decision_type=8 8 8 10 2 10 10 8 8 2 10 10 10 8 8 8 10 8 8 8 10 8 10 8 8 10 8 8
left_child=1 5 4 10 -3 6 18 19 12 -7 -2 -9 -4 21 -11 17 20 26 -1 -5 -6 -10 -23 25 27 -24 -8 -16
right_child=3 2 8 7 16 9 15 11 13 14 -12 -13 -14 -15 24 -17 -18 -19 -20 -21 -22 22 23 -25 -26 -27 -28 -29
leaf_value=-0.0035856921262178722 0.035223556215831585 0 -0.21868250308761938 0 -0.21868250308761938 -0.0003313271686539817 -0.150766914141272 -0.019463485454512604 -0.036131230444280925 -0.10547955252773533 -0.013108558703963658 0.0024694037904307835 0 0.00086295830499129506 -0.11823961443247537 -0.0090193048993370793 0 -0.0091739576321855296 0.032548388715159381 0.018029460763350876 0 -0.01475657149488219 -0.21868250308761938 0 -0.004669177384605679 -0.041250781977923603 -0.029623303489181688 -0.045306062572078622
leaf_weight=4512 25431 207 352 13805 989 2500 654 15765 1208 1563 2158 18646 63 450 657 2540 51 834 4027 28087 53 399 345 170 1648 203 503 5227
leaf_count=4512 25431 207 352 13805 989 2500 654 15765 1208 1563 2158 18646 63 450 657 2540 51 834 4027 28087 53 399 345 170 1648 203 503 5227
internal_value=0 -0.0442038 -0.153327 0.0107512 -0.218683 -0.0239626 -0.0043547 0.00326959 -0.0874682 -0.0452684 0.0311086 -0.00731102 -0.217424 -0.0646761 -0.0566058 -0.0379182 -0.218683 -0.0701436 0.0123761 0.0121809 -0.218683 -0.0813244 -0.12191 -0.16857 -0.0452333 -0.208399 -0.106102 -0.055026
internal_weight=0 29155 4490 103892 1300 24665 13070 76303 3190 11595 27589 34411 415 2775 9095 4531 1093 1991 8539 41892 1042 2325 1117 718 7532 548 1157 5884
internal_count=133047 29155 4490 103892 1300 24665 13070 76303 3190 11595 27589 34411 415 2775 9095 4531 1093 1991 8539 41892 1042 2325 1117 718 7532 548 1157 5884
is_linear=0
shrinkage=0.0663016


Tree=9
num_leaves=29
num_cat=0
split_feature=3 1 11 9 59 47 9 74 63 42 42 22 13 26 47 62 6 9 30 63 71 55 30 82 63 21 79 72
split_gain=13183.2 15377 3150.43 3464.21 3018.29 2964.57 2266.4 2213 1959.08 1765.79 1451.89 2710.33 1091.21 1081.29 906.634 651.635 593.573 588.523 1217.72 565.873 533.79 480.916 422.582 462.857 412.733 391.939 387.524 372.002
threshold=-0.35686984296263574 1.3195510626158511 1.0000000180025095e-35 -0.97055229537244203 -1.2432565509926872 -0.28196062259014215 -0.81852650165613439 -0.041311482190398825 0.14885032052415914 1.3786396643842378 -0.52817464892329313 0.049086699819489488 0.43208340569077547 -1.0000000180025095e-35 0.26240305155134386 -0.21348625689667308 0.021511225225607934 -0.75940535965534806 0.41453640300284683 -0.51018960923175494 -0.19602152948570137 -1.468761362473409 0.96291501630216636 0.46083312715114572 -0.60414079418647637 0.029045017881387095 -2.7937322966592686 -0.31417838440604506
decision_type=8 8 10 2 10 10 2 8 10 8 10 10 10 8 8 2 8 2 8 8 8 10 10 10 10 10 10 8
left_child=1 2 7 -4 8 6 -3 13 15 17 11 12 -5 -1 -6 26 -16 -9 -19 -11 -8 -12 -23 -24 -17 -21 -2 -26
right_child=4 5 3 10 14 -7 20 9 -10 19 21 -13 -14 -15 16 24 -18 18 -20 25 -22 22 23 -25 27 -27 -28 -29
leaf_value=-0.12851281814186327 -0.01579145495111527 0 0.000711669376771465 -0.21868250308761938 -0.021896681923857006 -0.0078472530797022329 -0.21868250308761938 0 -0.02120689637266842 0.056066599854073022 -0.16175053701092862 -0.048035059511623096 0 -0.034719068047217194 0.0057949480021067448 0.047867246881904572 -0.015486342731974401 -0.015253410599449293 -0.080590324304479211 0.020501298027838823 0 -0.026838583179264335 -0.21868250308761938 0 0.0095083487444649426 -0.024354245512630844 0.020759006225485391 0.039328964602907315
leaf_weight=963 1074 283 1741 673 7263 387 1459 3972 3781 1756 282 736 180 2256 46965 9472 6400 6526 1753 3299 50 1678 113 157 4859 1012 19436 4532
leaf_count=963 1074 283 1741 673 7263 387 1459 3972 3781 1756 282 736 180 2256 46965 9472 6400 6526 1753 3299 50 1678 113 157 4859 1012 19436 4532
internal_value=0 -0.0407476 -0.0267293 -0.0716611 0.00961822 -0.210796 -0.218683 -0.0147001 0.0230203 -0.00524037 -0.107065 -0.159988 -0.218683 -0.0656582 0 0.0275019 0.00306977 -0.020135 -0.0302057 0.0233153 -0.218683 -0.0651924 -0.0464444 -0.133929 0.0369142 0.00783092 0.0183951 0.0248828
internal_weight=0 29276 27097 5560 103782 2179 1792 21537 43154 18318 3819 1589 853 3219 60628 39373 53365 12251 8279 6067 1509 2230 1948 270 18863 4311 20510 9391
internal_count=133058 29276 27097 5560 103782 2179 1792 21537 43154 18318 3819 1589 853 3219 60628 39373 53365 12251 8279 6067 1509 2230 1948 270 18863 4311 20510 9391
is_linear=0
shrinkage=0.0663016


Tree=10
num_leaves=29
num_cat=0
split_feature=5 10 71 36 6 45 1 70 21 30 13 58 28 53 91 85 42 15 6 83 42 6 79 55 85 91 45 36
split_gain=10982.8 6313.86 3227.9 7649.85 2632.17 2342.4 2603.69 1639.95 1468.27 1412.07 1217.39 913.88 907.381 794.971 784.085 716.916 891.118 706.799 700.817 679.461 663.259 623.892 511.684 483.239 796.957 525.601 471.073 1031.12
threshold=0.11591053665029584 -0.15441547846689227 -1.0314000043357063 0.73826279584702437 -0.17651685753135526 -0.37993931237909412 1.4228044219369409 -1.0334759989370947 -0.64768910472044172 0.94570134114419624 1.0793140517610389 -0.13879149822709155 -0.3845492555708096 1.1305247874696962 -2.7255777117872602 0.73312249133342788 -0.54624866633599323 -0.4673559352701892 0.41320553869642956 0.12634473579653505 1.4675040471668919 -0.1424944115951369 0.52515856910392333 -2.5786063012236471 0.5360471584693226 -2.7255777117872602 -0.64386765765270704 0.12214626252119472
decision_type=8 10 8 8 10 10 8 10 10 8 10 8 8 10 10 8 10 10 8 8 8 10 10 10 8 10 10 8
left_child=1 8 3 11 13 6 15 -5 21 -10 -8 -2 -6 20 -9 16 17 -3 -14 -19 -4 -1 -7 24 -13 -25 27 -22
right_child=2 5 4 7 12 22 10 14 9 -11 -12 23 18 -15 -16 -17 -18 19 -20 -21 26 -23 -24 25 -26 -27 -28 -29
leaf_value=0.0030188478831445985 0.0090993413978569804 0 0.016184804152406543 -0.01897975470216693 0.014123899019834621 -0.069451857215583571 -0.21868250308761938 0 -0.026515341080241433 -0.090305145119819533 0 -0.21551491645278592 -0.00083375973219403652 -0.040024595591959748 -0.21868250308761938 0 -0.055682085503372412 -0.21868250308761938 -0.033027799587801353 0 0.029598548073721389 -0.034231016042145693 0 0.032524534278688337 0 -0.0542701955168408 0.038424946963222788 -0.063502288744111887
leaf_weight=8941 3356 186 21685 282 17933 1376 961 85 9501 2069 107 193 34962 733 367 295 1169 536 3328 70 2264 2438 918 326 101 900 17322 654
leaf_count=8941 3356 186 21685 282 17933 1376 961 85 9501 2069 107 193 34962 733 367 295 1169 536 3328 70 2264 2438 918 326 101 900 17322 654
internal_value=0 -0.0379225 0.00845463 -0.0401078 0.0113033 -0.101381 -0.138372 -0.218683 -0.021984 -0.0387229 -0.218683 -0.00792993 0.00170325 0.0237397 -0.218683 -0.0907275 -0.105243 -0.16668 -0.00387316 -0.203533 0.0250749 -0.00415276 -0.0437423 -0.0515853 -0.136455 -0.0236678 0.0341434 0.00556511
internal_weight=0 28567 104491 5610 98881 5618 3324 734 22949 11570 1068 4876 56223 42658 452 2256 1961 792 38290 606 41925 11379 2294 1520 294 1226 20240 2918
internal_count=133058 28567 104491 5610 98881 5618 3324 734 22949 11570 1068 4876 56223 42658 452 2256 1961 792 38290 606 41925 11379 2294 1520 294 1226 20240 2918
is_linear=0
shrinkage=0.0663016


Tree=11
num_leaves=29
num_cat=0
split_feature=3 20 13 28 16 91 22 70 9 95 48 63 18 47 15 23 47 58 62 42 66 9 84 10 45 36 93 33
split_gain=10574 11945.4 4614.3 2993.04 2943.38 2711.91 1750.8 1704.08 1537.52 1526.6 1413.47 1299.42 1293.66 843.675 742.172 1057.35 739.557 654.45 617.449 595.359 585.996 553.886 535.358 493.997 479.3 514.463 732.898 583.545
threshold=-0.35686984296263574 1.5111554108561522 0.38229643291613985 -0.59566117164248722 0.82161137745683199 -1.0000000180025095e-35 0.04466890917017266 -0.01308212197558083 -0.81852650165613439 -0.54200128815337245 -0.25637925720192412 0.14885032052415914 -0.18305564700425475 -0.58547977979902621 -0.61381807193222737 0.26886521356650972 -0.25860399782132298 -0.13879149822709155 0.54726032925010382 1.3952076184165725 -0.50282131329192747 -1.1479157213748008 -0.35287617476275268 1.388516832829904 -0.66043849309984881 -0.37074696413946884 0.72371732237110864 0.44019804783078792
decision_type=8 8 10 8 8 8 8 8 2 8 8 8 8 10 10 10 10 8 2 8 10 2 8 10 8 10 10 8
left_child=1 4 10 19 5 6 7 8 -1 17 18 20 14 -10 -7 16 -16 -6 -3 -2 -5 -11 -13 -9 25 -8 27 -27
right_child=3 2 -4 11 9 12 24 23 13 21 -12 22 -14 -15 15 -17 -18 -19 -20 -21 -22 -23 -24 -25 -26 26 -28 -29
leaf_value=0 0.015307830081674054 -0.21868250308761938 -0.037196975215865867 0.018226812492353712 0.036163906919801508 -0.017225441929974408 -0.0084724259570564484 -0.057806003863205065 -0.21868250308761938 0 0 -0.035325238178395946 0.021067844420380302 0 -0.12240108909506653 -0.0077003508172773794 0 -0.012755243703217053 0 0.033638857224379419 0.0012668058408930294 -0.033702479184047902 -0.0075886841874189502 -0.21868250308761938 0 -0.11744738012858598 -0.20678634462043427 0
leaf_weight=133 20734 913 763 13029 4252 4058 842 1373 727 2870 163 4254 1901 59 1321 1112 258 1342 62 16144 33113 5633 16508 59 525 267 242 401
leaf_count=133 20734 913 763 13029 4252 4058 842 1373 727 2870 163 4254 1901 59 1321 1112 258 1342 62 16144 33113 5633 16508 59 525 267 242 401
internal_value=0 -0.0366869 -0.198093 0.00841732 -0.0251383 -0.0475969 -0.0893353 -0.131515 -0.208499 -0.00332927 -0.218683 0 -0.0241959 -0.218683 -0.0383123 -0.0666758 -0.102355 0.0227796 -0.218683 0.023583 0.00625577 -0.0215908 -0.0137166 -0.0756183 -0.0417163 -0.0588545 -0.0953133 -0.0410129
internal_weight=0 29276 1901 103782 27375 13278 4628 2351 919 14097 1138 66904 8650 786 6749 2691 1579 5594 975 36878 46142 8503 20762 1432 2277 1752 910 668
internal_count=133058 29276 1901 103782 27375 13278 4628 2351 919 14097 1138 66904 8650 786 6749 2691 1579 5594 975 36878 46142 8503 20762 1432 2277 1752 910 668
is_linear=0
shrinkage=0.0663016


Tree=12
num_leaves=29
num_cat=0
split_feature=18 1 63 65 20 28 85 15 16 59 21 16 44 71 9 25 85 70 13 52 23 89 29 13 18 90 30 63
split_gain=9311.85 6679.93 2100.3 2190.56 6635.43 2173.63 1951.31 1521.11 1474.59 1235.88 1039.22 921.186 847.341 1006.99 869.567 790.243 758.211 623.917 1453.46 603.194 744.691 606.473 700.618 796.952 586.716 581.798 577.966 575.062
threshold=-0.46100548048102008 1.4228044219369409 -0.35959138628962789 -0.98404932875863504 0.94521949738734257 -0.8155694289854597 0.5360471584693226 -0.5357049323791403 0.82161137745683199 -1.5691132963569094 -0.64768910472044172 0.56830400838616757 -1.0000000180025095e-35 -1.3328191316473732 -0.78474299194139929 0.054657507583112178 -0.83337374425304944 -1.0078304891965422 1.0295270789864033 0.64779105592845676 1.1682108797187041 0.062165027349516559 1.3747888677959186 0.83037918788786058 0.52254550325317384 2.9608793421330994 0.66536426195806475 -0.38998735789262612
decision_type=8 8 8 8 8 8 10 10 10 10 10 10 8 8 2 8 8 8 10 8 10 10 8 10 8 10 8 8
left_child=1 7 9 4 12 -5 17 10 15 -2 27 -6 -4 14 -14 19 -16 -3 -19 20 21 22 23 -9 -7 26 -12 -1
right_child=2 6 3 5 11 24 -8 8 -10 -11 25 -13 13 -15 16 -17 -18 18 -20 -21 -22 -23 -24 -25 -26 -27 -28 -29
leaf_value=0.014498964823716843 0.028332670814328647 0 -0.00079392091941431068 0.023263368627502903 -0.21868250308761938 -0.014979527849922954 -0.038216216797190318 -0.21868250308761938 0 0.0063140883619967119 -0.032973270751225969 0 0 0.0043162968631682902 0 -0.045873294920670944 -0.18988623848810229 -0.21868250308761938 0 -0.014112746235092241 0 0 -0.035667333436997975 0 0.00035983320259728985 -0.00053615853988664647 -0.08876226745938938 -0.02210287541033289
leaf_weight=3861 21657 43 3758 15380 339 17743 447 576 1196 26071 4497 61 202 295 53 1407 466 832 109 330 136 157 234 142 25765 1886 1451 3563
leaf_count=3861 21657 43 3758 15380 339 17743 447 576 1196 26071 4497 61 202 295 53 1407 466 832 109 330 136 157 234 142 25765 1886 1451 3563
internal_value=0 -0.042279 0.00595065 -0.00176399 -0.0431951 0.00171993 -0.181877 -0.0315222 -0.0679893 0.0164986 -0.0209304 -0.218683 -0.0178472 -0.0718206 -0.115737 -0.0930034 -0.161128 -0.218683 -0.218683 -0.129225 -0.152315 -0.170277 -0.191239 -0.218683 -0.00568384 -0.037857 -0.0481394 -0.00182547
internal_weight=0 20867 111790 64062 5174 58888 1431 19436 4178 47728 15258 400 4774 1016 721 2982 519 984 941 1575 1245 1109 952 718 43508 7834 5948 7424
internal_count=132657 20867 111790 64062 5174 58888 1431 19436 4178 47728 15258 400 4774 1016 721 2982 519 984 941 1575 1245 1109 952 718 43508 7834 5948 7424
is_linear=0
shrinkage=0.0663016


Tree=13
num_leaves=29
num_cat=0
split_feature=3 36 58 91 9 63 70 58 91 63 29 95 85 49 7 96 90 42 81 42 2 13 43 30 45 81 72 27
split_gain=9213.62 9440.94 3665.33 2872.41 2359.53 2087.75 1587.04 1466.96 1524.53 1380.67 1008.27 982.575 925.294 825.888 748.967 675.364 619.829 610.081 605.162 590.157 585.387 523.282 513.329 505.21 503.576 490.254 795.807 488.958
threshold=-0.35686984296263574 0.24536956918636063 0.64117474951625675 -1.0000000180025095e-35 -0.81852650165613439 -0.43696295036998672 -1.0334759989370947 -0.13879149822709155 -1.0000000180025095e-35 -0.61795714491511189 0.094170768856315326 -0.34749479376802644 0.6649041068804683 -0.035134032674888439 1.0000000180025095e-35 -0.83774403536326225 -0.88984776135816135 1.0502941468963474 -0.36516070619661695 -0.12301433299422772 -0.40627090248196235 0.1333615690429617 -0.20995402256399401 -0.047773797863226296 -0.56145197921136891 2.1358320556945292 -0.70176355216656194 2.4309400210037544
decision_type=8 8 8 8 2 10 10 8 8 10 8 8 10 8 10 2 10 8 8 10 10 10 10 8 10 10 10 10
left_child=1 7 3 4 -3 11 -6 9 14 20 -4 22 27 -7 -9 -11 -10 21 -16 23 -1 -5 -2 -17 -8 26 -20 -12
right_child=5 2 10 17 6 13 24 8 16 15 12 -13 -14 -15 18 19 -18 -19 25 -21 -22 -23 -24 -25 -26 -27 -28 -29
leaf_value=0.04223925013530884 0.015663234321203954 0 -0.021568162249230433 -0.12918238661986289 -0.040575735831628691 -0.013475957655177779 -0.21868250308761938 0 -0.039839573657785454 0.0023033210334956916 -0.21868250308761938 0.0046608323074186749 0 0.0041172282124763687 -0.03697944646902665 -0.02386449026738267 0 0.016337036450042353 0 -0.0095333415918878207 -0.011442448397725763 -0.019463743284422238 0.034358530241873866 -0.085193830045338592 0 0 -0.17587428820179293 0
leaf_weight=3058 16562 245 218 363 359 16976 724 433 3486 4187 763 18337 57 37141 719 2187 2779 603 225 4276 924 1042 14577 1332 55 63 921 45
leaf_count=3058 16562 245 218 363 359 16976 724 433 3486 4187 763 18337 57 37141 719 2187 2779 603 225 4276 924 1042 14577 1332 55 63 921 45
internal_value=0 -0.0346179 -0.123561 -0.0849499 -0.160101 0.00760995 -0.200646 -0.0180581 -0.0402685 -0.00547837 -0.218683 0.0174668 -0.218683 -0.00123124 -0.0870168 -0.0171975 -0.0211738 -0.0285724 -0.104782 -0.0288548 0.0274671 -0.0544075 0.0247116 -0.0497076 -0.218683 -0.137449 -0.147682 -0.218683
internal_weight=0 29064 4474 3391 1383 103593 1138 24590 8626 15964 1083 49476 865 54117 2361 11982 6265 2008 1928 7795 3982 1405 31139 3519 779 1209 1146 808
internal_count=132657 29064 4474 3391 1383 103593 1138 24590 8626 15964 1083 49476 865 54117 2361 11982 6265 2008 1928 7795 3982 1405 31139 3519 779 1209 1146 808
is_linear=0
shrinkage=0.0663016


Tree=14
num_leaves=29
num_cat=0
split_feature=5 36 0 38 20 28 43 96 63 90 26 82 15 7 16 66 30 64 60 86 45 36 13 95 78 13 73 60
split_gain=7953.81 5077.59 4385.44 2452.94 7214.17 2133.75 1885.66 1223.87 1095.74 967.471 928.218 817.565 776.678 680.372 665.104 618.409 598.126 594.261 576.724 586.454 917.573 568.612 845.993 542.925 532.099 658.656 501.115 485.742
threshold=0.11591053665029584 0.12214626252119472 -1.0000000180025095e-35 -1.0665281473779449 0.94521949738734257 -0.59566117164248722 0.57983017754078769 -0.83774403536326225 0.1295074295040694 -1.439951633285484 -1.0000000180025095e-35 0.46083312715114572 -0.38924279571710213 1.0000000180025095e-35 0.31499663931550326 -0.36377504244385755 0.71946435247448781 -0.76726017663512025 -0.26354883937154427 -0.83729109657547263 -1.1646427626316054 2.5866123958245133 0.33250946014150423 -0.34749479376802644 -0.84697163000232656 0.68101826956395373 2.0441116351920097 0.46924484854786602
decision_type=8 8 8 8 8 8 10 2 8 10 8 10 8 10 8 8 8 8 10 10 10 8 10 8 10 10 8 10
left_child=1 7 6 4 13 -5 12 -1 23 16 -6 21 -3 -2 18 -11 26 -14 19 -15 -21 27 -23 -7 -18 -26 -9 -4
right_child=3 2 11 5 10 8 -8 9 -10 15 -12 -13 17 14 -16 -17 24 -19 -20 20 -22 22 -24 -25 25 -27 -28 -29
leaf_value=0.0028319125575903773 0.025212740444192468 0 -0.071695509147063186 0.022283608303345727 -0.21868250308761938 0.018092921269820109 0 -0.030217636523819431 -0.010921893753768805 -0.0013460868318543758 0 -0.0083687991826921805 0 0 -0.0048917820222382797 -0.034119987179215182 0 -0.21868250308761938 0 -0.20015655620753081 0 -0.21868250308761938 -0.019004542415622203 0.002054418895895437 -0.1608024958777233 0 -0.15725872714242181 0
leaf_weight=7041 1397 59 1448 35695 331 15071 191 3725 19776 6125 89 1443 100 136 2522 5226 233 860 432 366 111 312 268 28289 646 161 188 416
leaf_count=7041 1397 59 1448 35695 331 15071 191 3725 19776 6125 89 1443 100 136 2522 5226 233 860 432 366 111 312 268 28289 646 161 188 416
internal_value=0 -0.0326863 -0.0931123 0.00685461 -0.0363779 0.00930327 -0.206265 -0.0190965 0.00181842 -0.0291319 -0.218683 -0.0554949 -0.218683 -0.0107119 -0.0273684 -0.0172485 -0.0544995 -0.218683 -0.0727646 -0.114698 -0.149338 -0.0795393 -0.147647 0.00784189 -0.105049 -0.130829 -0.0386966 -0.0533679
internal_weight=0 28442 5097 104215 5384 98831 1210 23345 63136 16304 420 3887 1019 4964 3567 11351 4953 960 1045 613 477 2444 580 43360 1040 807 3913 1864
internal_count=132657 28442 5097 104215 5384 98831 1210 23345 63136 16304 420 3887 1019 4964 3567 11351 4953 960 1045 613 477 2444 580 43360 1040 807 3913 1864
is_linear=0
shrinkage=0.0663016


Tree=15
num_leaves=29
num_cat=0
split_feature=3 4 0 51 28 63 96 26 16 74 25 74 33 63 94 25 72 90 55 37 5 62 67 29 27 39 96 60
split_gain=6956.21 7491.52 6192.31 2119.13 1812.6 1547.27 1095.21 1090.14 1163.18 1422.13 892.338 847.117 840.326 814.449 798.09 575.132 556.87 504.804 495.282 466.57 464.253 409.869 702.25 706.994 509.178 408.394 485.228 398.754
threshold=-0.35686984296263574 1.3203741408477669 1.0000000180025095e-35 0.31032554530521522 -0.43732722844456345 0.065952216152346019 -0.83774403536326225 -1.0000000180025095e-35 0.56830400838616757 -0.035209653092573449 0.47012746270420458 -0.031180371611828153 -1.1765122272899788 0.14885032052415914 2.1095518150130661 0.35945642662391358 -0.23329104504732856 -0.88984776135816135 -0.031804231249418169 1.2309748185531408 0.33971571127615979 0.49594583474739723 -0.73484698904966039 -0.40347873355848946 0.43284848386182712 0.5799257611643458 -1.0991744437066022 -1.3048866532020507
decision_type=8 8 10 10 8 10 2 8 8 10 8 8 8 8 10 8 8 10 10 8 8 2 10 8 10 8 2 10
left_child=1 3 6 5 20 11 -3 8 9 10 -5 17 18 16 -8 -13 -6 21 -4 -14 -2 22 -1 -24 -25 26 -7 -9
right_child=4 2 12 7 13 25 14 27 -10 -11 -12 15 19 -15 -16 -17 -18 -19 -20 -21 -22 -23 23 24 -26 -27 -28 -29
leaf_value=-0.023881831639764609 0.0064332706373306792 0 -0.21868250308761938 -0.21868250308761938 -0.00020085180229671218 0 -0.21868250308761938 -0.072824030152496208 0 -0.036731621969461808 0 -0.0025678114968720502 0 -0.012185096136441217 0 0.030324142956792498 0.017167556197073483 0 0 -0.080541010740151367 0.021501321947575879 0 0 -0.16746060715458805 0 -0.013857896719597257 -0.078428514539485877 -0.0030598441578332872
leaf_weight=4288 15597 50 184 391 27452 547 542 794 245 420 150 5112 809 19142 48 3720 10957 4460 49 379 30593 1107 209 469 134 1612 2279 1237
leaf_count=4288 15597 50 184 391 27452 547 542 794 245 420 150 5112 809 19142 48 3720 10957 4460 49 379 30593 1107 209 469 134 1612 2279 1237
internal_value=0 -0.0297828 -0.152329 -0.0201464 0.00681974 -0.0128643 -0.218683 -0.0711378 -0.124509 -0.157388 -0.218683 -0.00429959 -0.0501935 -0.000880145 -0.218683 0.0102429 0.00451391 -0.0172048 -0.171467 -0.0185885 0.0166131 -0.0294307 -0.0375154 -0.0981035 -0.134563 -0.048412 -0.0648536 -0.0348841
internal_weight=0 29235 2061 27174 103741 23937 640 3237 1206 961 541 19499 1421 57551 590 8832 38409 10667 233 1188 46190 6207 5100 812 603 4438 2826 2031
internal_count=132976 29235 2061 27174 103741 23937 640 3237 1206 961 541 19499 1421 57551 590 8832 38409 10667 233 1188 46190 6207 5100 812 603 4438 2826 2031
is_linear=0
shrinkage=0.0663016


Tree=16
num_leaves=29
num_cat=0
split_feature=45 10 36 59 42 18 63 41 42 74 42 36 63 1 52 62 11 50 30 89 21 42 12 29 40 75 79 70
split_gain=6183.36 9598.64 3891.19 1944.4 1913.63 1527.66 1295.42 1121.18 960.719 920.332 899.036 1158.1 799.84 788.315 761.794 611.073 575.784 740.051 645.995 531.121 837.93 848.037 701.722 590.055 681.852 518.936 506.375 488.139
threshold=-0.64386765765270704 -0.16190544114309027 1.9704958624986835 -1.0599621317253123 -0.36852025987020354 0.0063217138007794884 0.35056904116223769 -1.0000000180025095e-35 -0.59595234888323834 -0.037468885565904268 0.08333143229561675 0.36859287585152656 -0.54196721590761665 0.49352418804713288 -1.084168218645287 -0.6182474287633456 0.48477755708996301 0.71267391923875489 -0.11662849849510627 -0.1307147835725441 0.060891329533237865 -0.78723640307087284 0.33259748686234153 4.0355548215547552 -0.17000789716553358 -0.47439067125533846 0.94929797686918793 -1.0012890308510471
decision_type=8 10 8 10 8 8 10 8 10 8 10 10 10 8 8 2 10 10 8 8 10 10 10 8 10 8 10 10
left_child=1 4 7 6 9 13 15 10 14 -1 11 -3 -6 -5 -4 -2 -15 18 -18 20 22 23 -9 24 -22 -7 -16 -13
right_child=3 2 8 5 12 25 -8 19 -10 -11 -12 27 -14 16 26 -17 17 -19 -20 -21 21 -23 -24 -25 -26 -27 -28 -29
leaf_value=-0.089481349679858796 0.0090279987033194346 -0.06836474864720618 0 -0.018892527512486674 0.01952778306632175 0.011139790445079333 -0.02141447101804932 0.010553974146800704 -0.060874558728808842 -0.024492307351714426 -0.0091030207016099575 0 -0.013406606591212936 -0.025326633351257406 -0.21868250308761938 0.025827905657192472 0 0 -0.21847671040823638 0 -0.21868250308761938 0 -0.095789668134676265 0 0 -0.0027843593011627065 0 -0.21868250308761938
leaf_weight=1497 18957 506 62 5433 6503 16598 3629 611 332 4717 339 48 6262 722 620 24760 115 92 348 600 154 178 373 47 43 39000 55 375
leaf_count=1497 18957 506 62 5433 6503 16598 3629 611 332 4717 339 48 6262 722 620 24760 115 92 348 600 154 178 373 47 43 39000 55 375
internal_value=0 -0.0322519 -0.121389 0.00532683 -0.011366 -0.00224051 0.0154803 -0.080773 -0.218683 -0.0416384 -0.133523 -0.168975 0.00264913 -0.0321758 -0.218683 0.0187541 -0.0814418 -0.137754 -0.172516 -0.0428087 -0.0653785 -0.148246 -0.0204165 -0.218683 -0.218683 0.00120668 -0.218683 -0.218683
internal_weight=0 23322 4343 109654 18979 62308 47346 3274 1069 6214 1268 929 12765 6710 737 43717 1277 555 463 2006 1406 422 984 244 197 55598 675 423
internal_count=132976 23322 4343 109654 18979 62308 47346 3274 1069 6214 1268 929 12765 6710 737 43717 1277 555 463 2006 1406 422 984 244 197 55598 675 423
is_linear=0
shrinkage=0.0663016


Tree=17
num_leaves=29
num_cat=0
split_feature=45 36 0 96 42 5 79 63 11 43 98 5 58 47 29 82 62 63 76 52 13 63 14 37 70 48 47 61
split_gain=5568.55 8701.46 5095.74 3210.21 1916.74 1789.41 1299.56 1246.73 1143.44 1135.48 895.124 915.795 841.127 830.814 780.548 897.152 831.984 741.24 557.618 515.411 428.312 556.446 427.089 418.264 613.104 557.527 361.362 497.552
threshold=-0.64386765765270704 0.36859287585152656 -1.0000000180025095e-35 -0.83774403536326225 -0.52817464892329313 0.82873866809541608 -1.9136430255463459 1.2928441608551802 -1.0000000180025095e-35 -0.27093935092916965 0.1888318934294296 0.17255971903868064 -0.26878587285098293 -1.773616678719445 0.25341861061779364 0.47253540286337731 0.89638355263911396 -0.43281804515139605 -0.043131657655514195 -0.29956980632506486 0.8801661606624962 0.41965079480541528 1.0000000180025095e-35 -0.76837552727900371 1.3972720599701358 0.05279858265627075 -2.2602609400756539 -0.058329995768584643
decision_type=8 8 8 2 8 8 10 8 8 10 8 10 10 10 10 8 2 10 8 8 10 8 10 8 8 8 8 8
left_child=1 4 3 -3 12 7 9 10 -5 18 11 14 -1 -7 -2 16 23 22 -4 -9 21 -14 -6 -16 25 -25 27 -8
right_child=5 2 6 8 17 13 26 19 -10 -11 -12 -13 20 -15 15 -17 -18 -19 -20 -21 -22 -23 -24 24 -26 -27 -28 -29
leaf_value=-0.019026956851952791 -0.009101561590167043 0.0069106839990614689 0 0 0.016982070699949593 0 -0.14809203321095618 -0.042787793742865968 -0.21868250308761938 0 0.016967190434331831 0.0029937276975213439 -0.069177550096361923 0.029151164242544159 0 0 0 -0.01951010510499944 -0.21868250308761938 -0.0078562446486826528 0 -0.21868250308761938 -0.027927707786690036 -0.21868250308761938 0 -0.017588032835271935 -0.0020813235354116845 0
leaf_weight=3067 7016 198 51 172 7781 5117 225 3550 872 111 16894 53076 2063 16683 81 559 284 5713 231 5689 310 191 921 348 185 172 1269 147
leaf_count=3067 7016 198 51 172 7781 5117 225 3550 872 111 16894 53076 2063 16683 81 559 284 5713 231 5689 310 191 921 348 185 172 1269 147
internal_value=0 -0.0307029 -0.131213 -0.218683 -0.0138144 0.00495662 -0.0595411 0.000629187 -0.218683 -0.172807 0.00343873 -0.000114905 -0.046639 0.0219727 -0.0202662 -0.0626749 -0.0983032 -0.000351002 -0.218683 -0.0222781 -0.0760619 -0.0861167 0.0111679 -0.133429 -0.149845 -0.188713 -0.0267539 -0.0860476
internal_weight=0 23322 3276 1242 20046 109654 2034 87854 1044 393 78615 61721 5631 21800 8645 1629 1070 14415 282 9239 2564 2254 8702 786 705 520 1641 372
internal_count=132976 23322 3276 1242 20046 109654 2034 87854 1044 393 78615 61721 5631 21800 8645 1629 1070 14415 282 9239 2564 2254 8702 786 705 520 1641 372
is_linear=0
shrinkage=0.0663016


Tree=18
num_leaves=29
num_cat=0
split_feature=3 20 42 11 70 23 55 64 63 42 9 30 83 25 60 48 23 30 53 36 20 21 95 27 46 21 55 50
split_gain=4933.97 6743.71 5397.27 1707.46 2104.53 1324.54 1537.5 1380.69 1260.92 1152.57 984.223 810.293 732.297 730.839 691.011 652.301 639.176 622.316 637.062 605.767 598.2 509.211 551.21 456.993 411.713 411.362 405.569 397.968
threshold=-0.30530063153194048 1.5111554108561522 -0.59595234888323834 1.0000000180025095e-35 -0.79069852888002823 -0.45226163675142989 0.71588078011916212 -0.78000633769570815 -0.34853830570671945 -0.077829020137838309 -0.81852650165613439 -0.34778354396304823 0.60437906727465274 1.5405522379070191 0.49495695482532337 -0.20045416811294151 0.4475093823177641 1.0686561322924994 -1.4012827487774573 -0.37074696413946884 4.1993509998329985 0.029045017881387095 -0.34749479376802644 0.66090348603836724 -0.025792179319095034 -0.11426338455194136 -1.6440000370129204 -0.051611246000139992
decision_type=8 8 10 10 10 10 10 10 10 8 2 10 10 8 10 8 10 10 10 8 10 10 8 10 10 10 10 8
left_child=1 3 10 9 25 6 7 -6 11 27 -3 -2 24 19 16 20 -4 -7 -19 -9 -12 22 -11 -20 -10 -5 -23 -1
right_child=8 2 14 4 5 17 -8 13 12 21 15 -13 -14 -15 -16 -17 -18 18 23 -21 -22 26 -24 -25 -26 -27 -28 -29
leaf_value=-0.055514652448463458 0.018272203852951571 0 -0.14346932931055467 0.0078824256079868243 0 -0.025421257501198755 0 0 -0.022026601106336204 0.027247227822132031 -0.21868250308761938 0.0017415460596130361 0.0057732199568594367 0 0 0 0 0 -0.21868250308761938 -0.21868250308761938 0 -0.05370751133796562 -0.004130814330097923 0 -0.0028520583905466837 -0.061519326728186247 -1.280850959834828e-06 -0.016717840471541345
leaf_weight=1884 36108 89 372 2157 207 1805 305 64 9226 5488 561 22457 22053 44 641 54 181 84 138 535 59 890 3658 43 13422 442 3252 6824
leaf_count=1884 36108 89 372 2157 207 1805 305 64 9226 5488 561 22457 22053 44 641 54 181 84 138 535 59 890 3658 43 13422 442 3252 6824
internal_value=0 -0.0249563 -0.14451 -0.0162125 -0.0484241 -0.0842759 -0.145316 -0.191407 0.00566207 -0.00726348 -0.218683 0.012091 -0.0025545 -0.218683 -0.0390301 -0.218683 -0.093679 -0.0457369 -0.149076 -0.218683 -0.218683 0.00443512 0.0136895 -0.218683 -0.0110706 -0.000381812 -0.0137725 -0.0261733
internal_weight=0 29777 1957 27820 5824 3225 1155 850 103266 21996 763 58565 44701 643 1194 674 553 2070 265 599 620 13288 9146 181 22648 2599 4142 8708
internal_count=133043 29777 1957 27820 5824 3225 1155 850 103266 21996 763 58565 44701 643 1194 674 553 2070 265 599 620 13288 9146 181 22648 2599 4142 8708
is_linear=0
shrinkage=0.0663016


Tree=19
num_leaves=29
num_cat=0
split_feature=5 1 42 71 4 85 30 63 13 50 96 63 91 40 70 23 40 22 23 81 55 35 57 27 80 82 91 10
split_gain=4646.58 3384.28 1702.71 1499.99 5732.59 1369.72 1274.46 1125.06 989.102 988.772 954.999 872.644 768.967 838.382 1080.5 694.809 662.764 699.427 974.704 623.284 710.536 653.628 584.524 527.065 589.996 505.464 492.737 483.346
threshold=0.17255971903868064 1.4228044219369409 -1.0944955968355725 -0.98063816495209444 1.1889417343940223 0.52088751747977613 0.50306384383520997 -0.51986105474179978 0.33250946014150423 0.24061543482649625 -0.83774403536326225 0.17371975183570307 inf -0.12968711356460674 -1.1075877998565351 -0.57646184904330822 0.88639663317874851 -0.11178373179355088 0.36941643646983086 -0.63463616328840378 -2.0178425426972111 -0.40470261818619285 -0.33792240781006855 2.1152349637738213 0.77084284509757139 -1.0955695425756524 -2.7255777117872602 -0.84349204467711181
decision_type=8 8 10 8 8 10 8 10 10 8 2 8 8 8 10 10 8 10 10 8 10 8 8 8 8 10 10 8
left_child=1 6 5 4 9 -3 11 23 -4 12 -8 19 13 14 -2 26 17 -12 -19 21 27 -1 -9 24 -5 -13 -6 -21
right_child=3 2 8 7 15 -7 10 22 -10 -11 16 25 -14 -15 -16 -17 -18 18 -20 20 -22 -23 -24 -25 -26 -27 -28 -29
leaf_value=0.034128027321704592 0 -0.21868250308761938 -0.12010556990892216 0.010876296758525902 0 0 -0.0045413957448313218 -0.0062256370211674367 -0.0065167875333700491 0.0069820830498494432 -0.004259003073056611 -0.1100348999979836 0.00010357533501303687 -0.023750955584524818 -0.21868250308761938 0 -0.033173029347011961 -0.1616536406798646 -0.015131402760603806 0 -0.0071149069566340704 -0.0060293050745130793 0.0069797544011928996 0.024228057610842086 -0.03919430748743509 -0.02503440666144199 -0.21868250308761938 -0.11831255533469512
leaf_weight=3409 181 386 761 16946 56 172 2302 24112 949 3972 478 456 421 647 202 49 2409 919 446 122 9434 3077 36740 19372 1037 3301 234 453
leaf_count=3409 181 386 761 16946 56 172 2302 24112 949 3972 478 456 421 647 202 49 2409 919 446 122 9434 3077 36740 19372 1037 3301 234 453
internal_value=0 -0.0246457 -0.103259 0.00532141 -0.0272185 -0.211557 -0.0176486 0.00732463 -0.0624785 -0.00810174 -0.0434372 -0.00884667 -0.055735 -0.0874974 -0.170969 -0.218683 -0.0623234 -0.0954045 -0.120555 -0.00168787 -0.0125527 0.0136563 0.00159569 0.0164102 0.00747514 -0.0378185 -0.218683 -0.0856637
internal_weight=0 29074 2268 103969 5762 558 26806 98207 1710 5423 6554 20252 1451 1030 383 339 4252 1843 1365 16495 10009 6486 60852 37355 17983 3757 290 575
internal_count=133043 29074 2268 103969 5762 558 26806 98207 1710 5423 6554 20252 1451 1030 383 339 4252 1843 1365 16495 10009 6486 60852 37355 17983 3757 290 575
is_linear=0
shrinkage=0.0663016


Tree=20
num_leaves=29
num_cat=0
split_feature=5 36 13 87 49 71 74 91 28 85 22 14 67 20 9 41 23 62 41 30 33 81 89 29 9 94 13 17
split_gain=4123.06 3107.45 3178.95 1582.38 1976.72 1400.83 1808.71 1259.95 1182.99 1161.24 1199.76 891.508 850.989 1353.03 809.635 800.831 786.729 760.104 745.969 713.636 931.433 634.92 502.6 524.152 477.103 461.243 590.235 461.6
threshold=0.17255971903868064 0.12214626252119472 0.083574596268326071 -0.66718242217886181 -0.03219529777914857 -1.4762421653440312 -0.036248519746339185 -1.4001410421432063 0.15202690301641089 -0.83337374425304944 0.03070760158658432 -0.55713500176483721 -1.1722871677459406 0.94521949738734257 -0.82697237908481813 -0.6566561440701234 -0.56225532122438893 -0.12326451209609463 -0.4045920555735078 0.61126417144164169 -1.7238359085574291 -0.68104130242505589 0.12955120716190935 0.27332458156853412 -1.0296734373732284 0.59555939230108235 0.83037918788786058 -0.60430771611438339
decision_type=8 8 10 8 10 8 8 8 8 8 8 10 8 8 2 8 10 2 8 8 10 10 8 10 2 10 10 8
left_child=1 14 3 11 18 6 7 9 17 -2 -11 -3 13 -8 -1 -6 -15 -7 21 20 -16 -5 23 -23 -17 26 27 -21
right_child=5 2 -4 4 15 8 12 -9 -10 10 -12 -13 -14 16 19 24 -18 -19 -20 25 -22 22 -24 -25 -26 -27 -28 -29
leaf_value=0.0049276234058021765 0 0 -0.016866075106382956 0 0 0.0049159175299923813 0 -0.0087477319439355199 -0.003816227153976576 -0.21868250308761938 0 -0.21868250308761938 0.0068644540434814032 -0.21868250308761938 -0.064320185959665113 0 0 0.019445321435947044 -0.0099307564213728973 0 -0.0057740246094769862 0 0 -0.21868250308761938 -0.21868250308761938 0 0 -0.09735744677718787
leaf_weight=7201 43 86 2773 79 62 37983 388 429 31799 304 139 394 2545 86 1413 44 46 30207 1164 450 11725 50 55 163 411 808 633 1563
leaf_count=7201 43 86 2773 79 62 37983 388 429 31799 304 139 394 2545 86 1413 44 46 30207 1164 450 11725 50 55 163 411 808 633 1563
internal_value=0 -0.0233107 -0.0697134 -0.124454 -0.0905842 0.00491558 -0.0332802 -0.115732 0.00652832 -0.191109 -0.218683 -0.218683 -0.0056427 -0.0845244 -0.0126225 -0.207915 -0.218683 0.0114875 -0.0442832 -0.0207951 -0.0127748 -0.132803 -0.182268 -0.218683 -0.218683 -0.048626 -0.0620688 -0.0797014
internal_weight=0 29074 5281 2508 2028 103969 3980 915 99989 486 443 480 3065 520 23793 517 132 68190 1511 16592 13138 347 268 213 455 3454 2646 2013
internal_count=133043 29074 5281 2508 2028 103969 3980 915 99989 486 443 480 3065 520 23793 517 132 68190 1511 16592 13138 347 268 213 455 3454 2646 2013
is_linear=0
shrinkage=0.0663016


Tree=21
num_leaves=29
num_cat=0
split_feature=45 10 36 13 84 0 11 93 74 42 37 80 27 46 63 55 94 62 42 46 52 53 53 12 85 77 12 6
split_gain=4054.36 6669.92 2940.15 1755.47 1579.01 1480.26 2046.96 1251.77 1089.39 1401.81 999.348 848.82 824.462 673.803 689.296 594.285 627.789 509.839 580.479 507.846 504.802 460.117 420.219 398.651 375.252 369.992 441.269 361.101
threshold=-0.59502874968456376 -0.16190544114309027 2.3401657824941817 0.33250946014150423 0.096666747389037536 -1.0000000180025095e-35 1.0000000180025095e-35 -0.7755414636594562 -0.034397228255185944 -0.88212521892474804 -0.50768101465361748 3.8954522345540328 3.0653725511551171 -0.017444980754946274 -0.08602764186264468 0.90280203296130745 0.87083074188507936 -0.66767399701520314 -0.44081668862052292 -0.028356680082779296 -0.19106154523730889 0.87101744398115166 0.91729527724434579 0.15400004607748788 0.62953161123819312 -1.3698346723449453 0.30283124673153261 -0.1747721167141133
decision_type=10 10 8 10 8 8 10 8 8 8 8 8 8 10 8 10 10 2 10 10 8 10 10 10 10 10 8 10
left_child=1 8 5 10 11 6 -3 -8 9 24 -4 13 -10 14 19 16 -12 18 -9 -2 -16 -6 -14 -19 25 -1 -27 -15
right_child=4 2 3 -5 21 -7 7 17 12 -11 15 -13 22 27 20 -17 -18 23 -20 -21 -22 -23 -24 -25 -26 26 -28 -29
leaf_value=0 -0.0047428305921702104 0 0 0 0.024557749224900401 -0.028438973371067738 0 -0.21868250308761938 -0.010772123090958844 -0.011916566443136326 -0.21868250308761938 -0.040276970953860403 0.025868711526411233 0.034042095456059962 -0.028273644043035132 0 0 0 0 0.0086884556282824186 -0.0033190854307527866 -0.0060918413092370385 -0.038875464657052897 -0.13206548654095931 0 0 -0.11045290266628116 0.0078017972600393564
leaf_weight=82 20843 380 152 180 18522 2409 243 419 9165 6234 511 2160 5784 3467 5986 48 104 103 51 28697 11392 1910 369 171 231 70 1392 11836
leaf_count=82 20843 380 152 180 18522 2409 243 419 9165 6234 511 2160 5784 3467 5986 48 104 103 51 28697 11392 1910 369 171 231 70 1392 11836
internal_value=0 -0.0236522 -0.095274 -0.201318 0.00468988 -0.0648665 -0.122284 -0.172685 -0.00860661 -0.0284775 -0.218683 0.000572766 0.00118135 0.00175831 -0.000983512 -0.218683 -0.218683 -0.216667 -0.218683 0.00285135 -0.0124461 0.0212412 0.0204845 -0.0671712 -0.0814277 -0.0932212 -0.101437 0.0143502
internal_weight=0 28098 4771 995 104813 3776 1367 987 23327 8009 815 84381 15318 82221 66918 663 615 744 470 49540 17378 20432 6153 274 1775 1544 1462 15303
internal_count=132911 28098 4771 995 104813 3776 1367 987 23327 8009 815 84381 15318 82221 66918 663 615 744 470 49540 17378 20432 6153 274 1775 1544 1462 15303
is_linear=0
shrinkage=0.0663016


Tree=22
num_leaves=29
num_cat=0
split_feature=3 1 91 11 76 70 23 28 74 74 26 75 62 22 94 23 65 43 37 76 17 4 87 80 81 64 77 42
split_gain=3646.25 5600.07 2706.71 1546.28 1497.09 1436.12 1494.68 1063.3 787.509 783.715 1159.8 774.03 683.355 617.916 622.811 554.427 633.834 506.476 466.772 413.122 712.844 1107.66 409.307 463.454 513.449 504.263 431.069 498.224
threshold=-0.35686984296263574 1.3195510626158511 -1.0000000180025095e-35 1.0000000180025095e-35 -0.043971124315090544 -0.71391067621506288 -0.44834843859169549 -0.41093825019990732 -0.03504543956161215 -0.038867293424301071 -1.0000000180025095e-35 -0.47439067125533846 0.61201468289750738 0.080614794874578052 2.1095518150130661 0.4845992155979767 -2.2323583044391713 0.54563036557816258 0.16430842625723821 -0.029924048878179701 0.1516792151588475 -0.1253823301434239 0.89632866387062404 -0.70302950841962708 2.1358320556945292 -0.67721492182259613 -0.99777183305952954 -0.57034747591943302
decision_type=8 8 8 10 10 10 10 8 8 8 8 10 2 10 10 8 10 8 8 10 8 10 8 8 10 8 8 10
left_child=1 3 4 9 -3 -5 8 -2 -7 10 22 -11 13 14 -6 16 -4 -9 -18 20 21 -10 23 -1 25 -25 -27 -28
right_child=7 2 15 5 12 6 -8 17 19 11 -12 -13 -14 -15 -16 -17 18 -19 -20 -21 -22 -23 -24 24 -26 26 27 -29
leaf_value=0 0.01184624097522103 0 -0.21868250308761938 -0.0045182610205344326 -0.21868250308761938 -0.21868250308761938 -0.036577128722378921 -0.0080356343982645531 0 0.015462875688562671 -0.0044101060278091166 -0.012582647548536883 0 0 0 0 0 0.0044574776676304462 -0.090773545630520813 0 0 -0.21868250308761938 0 0 0 0 -0.18680958564916758 0
leaf_weight=87 47405 76 89 2547 701 197 1959 27632 136 8627 3021 8561 53 45 53 434 292 28695 431 304 103 255 221 73 64 165 612 73
leaf_count=87 47405 76 89 2547 701 197 1959 27632 136 8627 3021 8561 53 45 53 434 292 28695 431 304 103 255 221 73 64 165 612 73
internal_value=0 -0.022004 -0.124881 -0.0133784 -0.214135 -0.0449602 -0.0767021 0.00450622 -0.146381 -0.00486968 -0.0302097 0.000957445 -0.218683 -0.218683 -0.218683 -0.0509509 -0.0835606 -0.00150748 -0.0455862 -0.0924559 -0.132197 -0.173431 -0.0832523 -0.100155 -0.113921 -0.127755 -0.142579 -0.167291
internal_weight=0 29179 2174 27005 928 5501 2954 103732 995 21504 4316 17188 852 799 754 1246 812 56327 723 798 494 391 1295 1074 987 923 850 685
internal_count=132911 29179 2174 27005 928 5501 2954 103732 995 21504 4316 17188 852 799 754 1246 812 56327 723 798 494 391 1295 1074 987 923 850 685
is_linear=0
shrinkage=0.0663016


Tree=23
num_leaves=29
num_cat=0
split_feature=45 2 1 0 60 20 42 84 26 48 8 76 41 84 30 53 42 46 3 48 1 44 30 53 51 74 70 89
split_gain=3340.64 4058.39 4319.03 2389.61 1573.35 1400.07 1649.42 1326.04 1228.26 1162.23 996.71 955.529 983.989 934.821 773.316 713.628 705.449 671.865 653.01 625.999 844.756 727.732 519.308 401.178 392.063 833.922 508.743 615.736
threshold=-0.59502874968456376 -0.40627090248196235 1.3195510626158511 -1.0000000180025095e-35 0.48210109325632661 1.0000000180025095e-35 -0.42274267120782266 0.096666747389037536 -2.6609044106444872 -2.464568124101115 -0.47082773064816075 -0.023040422269653662 0.13850255055929725 2.8990272936657235 0.66536426195806475 1.0558358793550473 0.72194862940845672 -0.017746686727144422 0.077562209178469552 -0.58229770800728997 1.5260577812580305 2.7529568538903137 0.32354982384117786 0.90587226776798768 0.23893890048201535 -0.035605494130364394 0.31101763634408858 -0.29520748371477906
decision_type=10 10 8 8 10 10 10 8 10 8 8 8 8 10 10 8 8 10 8 8 8 10 8 10 10 10 10 8
left_child=1 16 5 10 19 24 8 14 -7 -10 -4 12 13 18 15 17 22 -2 -11 20 -5 -22 -1 -9 -3 26 27 -26
right_child=7 2 3 4 -6 6 -8 23 9 11 -12 -13 -14 -15 -16 -17 -18 -19 -20 -21 21 -23 -24 -25 25 -27 -28 -29
leaf_value=-0.0024570784968903641 0.0014682508839144542 0 0 0 0.0047841693786867864 0 -0.012343690661213607 0.022051941212934575 -0.21868250308761938 -0.21868250308761938 -0.21868250308761938 0 -0.034745136166940693 0 -0.014404673167276909 -0.026381684293383671 0.012706769374310797 0.018805735288816728 0 0 -0.21868250308761938 0 -0.035932704250341709 -0.010139358853860454 -0.18679678012100959 0 0 0
leaf_weight=7278 55718 4006 107 62 418 207 1576 18974 244 334 531 373 460 91 12978 3330 7489 12355 49 121 384 54 3268 1458 311 510 93 132
leaf_count=7278 55718 4006 107 62 418 207 1576 18974 244 334 531 373 460 91 12978 3330 7489 12355 49 121 384 54 3268 1458 311 510 93 132
internal_value=0 -0.0215848 -0.0553602 -0.154118 -0.0746849 -0.0345036 -0.0684042 0.00413841 -0.113399 -0.134369 -0.218683 -0.0944024 -0.130245 -0.203358 0.000357016 0.0031693 -0.00222684 0.00475053 -0.218683 -0.142978 -0.175737 -0.209091 -0.0137062 0.0193033 -0.0103016 -0.0464681 -0.105096 -0.135661
internal_weight=0 28098 10063 1677 1039 8386 3334 104813 1758 1551 638 1307 934 474 84381 71403 18035 68073 383 621 500 438 10546 20432 5052 1046 536 443
internal_count=132911 28098 10063 1677 1039 8386 3334 104813 1758 1551 638 1307 934 474 84381 71403 18035 68073 383 621 500 438 10546 20432 5052 1046 536 443
is_linear=0
shrinkage=0.0663016


Tree=24
num_leaves=29
num_cat=0
split_feature=45 10 0 11 36 28 16 42 57 2 8 5 62 41 18 60 40 9 9 35 66 21 54 57 79 85 6 83
split_gain=2867.29 4824.91 2761.24 2420.03 1762.57 1208.08 1165.96 1110.33 855.309 856.648 696.212 692.91 645.071 545.648 485.334 464.124 623.246 599.79 457.097 371.5 361.453 407.294 650.089 368.347 356.268 345.71 341.342 339.706
threshold=-0.53309640368510924 -0.16190544114309027 -1.0000000180025095e-35 1.0000000180025095e-35 -0.12430035080913708 -0.094270380188501146 -1.2048475751084824 -0.48148327268653823 1.524951111162242 -0.40627090248196235 -0.58006554145783218 0.82873866809541608 1.149625785311136 -1.0000000180025095e-35 0.59549058983928271 -0.12213244641526093 -0.12162295684442141 -1.1310239665174333 0.55815151921931816 -0.14121092873488111 -0.40622074617642628 -0.30534125446304594 -3.1440963378836 -0.3546190974807551 -0.31251676123247324 0.73817570499661012 -0.038682332969239917 -2.2985176037864297
decision_type=10 10 8 10 8 8 10 8 10 10 8 8 2 8 8 10 10 2 2 10 10 10 10 8 10 10 10 8
left_child=1 7 3 -3 -5 11 -6 10 9 -8 -1 18 14 -4 19 16 17 -12 -2 26 21 -9 24 -24 -23 -11 -7 -19
right_child=5 2 13 4 6 12 8 20 -10 25 15 -13 -14 -15 -16 -17 -18 27 -20 -21 -22 22 23 -25 -26 -27 -28 -29
leaf_value=-0.0028644622460856886 0.01242552775501423 0 -0.074927295266757871 0 0 -0.00038894422693746492 0 0.019576457480719761 0 -0.21868250308761938 0 0.022759186539317699 0.0052578245748598961 -0.0098625962201747512 0 -0.022803064893034922 0 0 -0.00032997844510910623 -0.030063326264652773 -0.010000880068745535 -0.15091899459350216 0.014069159511664511 -0.036367738500947905 0 0 -0.037250731788537203 -0.12511067286673552
leaf_weight=3071 22273 473 1104 252 107 7098 95 6806 123 891 209 14101 16256 2034 10789 2197 161 151 24703 7326 6648 200 2644 828 105 47 1446 1075
leaf_count=3071 22273 473 1104 252 107 7098 95 6806 123 891 209 14101 16256 2034 10789 2197 161 151 24703 7326 6648 200 2644 828 105 47 1446 1075
internal_value=0 -0.0198685 -0.0784592 -0.14129 -0.182245 0.0036118 -0.214406 -0.00701978 -0.218683 -0.218683 -0.0296425 0.00965244 -0.00477041 -0.0357 -0.0112313 -0.048889 -0.0790035 -0.0940753 0.00552161 -0.0186098 0.00145738 0.00952673 -0.0061412 0 -0.0991017 -0.218683 -0.0077086 -0.111839
internal_weight=0 29221 5126 1988 1515 103992 1263 24095 1156 1033 6864 61077 42915 3138 26659 3793 1596 1435 46976 15870 17231 10583 3777 3472 305 938 8544 1226
internal_count=133213 29221 5126 1988 1515 103992 1263 24095 1156 1033 6864 61077 42915 3138 26659 3793 1596 1435 46976 15870 17231 10583 3777 3472 305 938 8544 1226
is_linear=0
shrinkage=0.0663016


Tree=25
num_leaves=29
num_cat=0
split_feature=45 10 64 13 11 40 5 94 63 94 72 48 20 30 45 25 8 56 30 82 23 63 58 37 80 83 46 78
split_gain=2566.33 4368.28 1971.34 3756.43 1840.83 1284.6 1222.66 1183.41 864.456 860.594 675.601 632.133 671.883 629.477 588.845 656.245 647.73 800.392 558.982 444.926 425.711 420.431 400.94 376.943 536.98 696.901 370.279 367.315
threshold=-0.53309640368510924 -0.16190544114309027 -0.22717984017588491 0.18314854181759735 1.0000000180025095e-35 -0.12162295684442141 0.82873866809541608 1.9719161402210672 1.602330417176616 1.2837377662610749 1.1350531124376266 -0.43139619562872494 4.4823189565674033 0.043212817941838989 -2.7304138622803511 0.69146953486478668 -0.81161235411422972 -0.3313822257790961 1.1424290362961984 -2.581758558029061 -0.48024917721672139 -0.25873202597058859 -0.13879149822709155 -0.60946612316870852 -0.4587878041224917 -0.8019026100137604 -0.026546444249590403 -0.49095235732168446
decision_type=10 10 8 10 10 10 8 10 8 8 8 8 10 8 10 10 10 10 8 10 8 8 10 10 10 10 10 8
left_child=1 9 14 4 -4 7 8 11 10 18 13 12 -6 -2 15 16 -3 -18 -1 22 23 -22 -11 -16 -25 -26 -15 -10
right_child=6 2 3 -5 5 -7 -8 -9 27 19 -12 -13 -14 26 20 -17 17 -19 -20 -21 21 -23 -24 24 25 -27 -28 -29
leaf_value=-0.0097352545425730234 0.0049277263300332268 0 0 0 -0.21868250308761938 0 0.019449013246078919 0 -0.045635128888611536 0 0.022682191995503229 0 0 -0.015738422706936022 0 0 -0.21868250308761938 0 -0.046629494541782668 0.016410949887164697 0.052772293149445815 -0.020263271019605924 -0.072734010727288342 0 0 -0.21868250308761938 0 -0.0097387193034841855
leaf_weight=13607 46869 174 235 727 791 81 17308 70 2171 345 6504 84 53 13163 160 153 150 108 2365 7284 423 1631 494 86 55 145 12577 5400
leaf_count=13607 46869 174 235 727 791 81 17308 70 2171 345 6504 84 53 13163 160 153 150 108 2365 7284 423 1631 494 86 55 145 12577 5400
internal_value=0 -0.0188535 -0.07461 -0.127175 -0.194115 -0.218683 0.00335796 -0.218683 3.86162e-05 -0.00660777 0.00219283 -0.218683 -0.218683 0.000230324 -0.0368302 -0.100807 -0.142924 -0.212588 -0.0157769 0.0102858 -0.0181548 -0.000724496 -0.0318845 -0.0776842 -0.123245 -0.182973 -0.00796464 -0.0212524
internal_weight=0 29221 5126 2041 1314 1079 103992 998 86684 24095 79113 928 844 72609 3085 585 432 258 15972 8123 2500 2054 839 446 286 200 25740 7571
internal_count=133213 29221 5126 2041 1314 1079 103992 998 86684 24095 79113 928 844 72609 3085 585 432 258 15972 8123 2500 2054 839 446 286 200 25740 7571
is_linear=0
shrinkage=0.0663016


Tree=26
num_leaves=29
num_cat=0
split_feature=45 20 42 2 2 11 80 20 13 52 5 94 16 27 80 79 43 25 83 96 46 79 63 84 15 15 89 34
split_gain=2307.68 4014.62 3395.06 1247.72 1172.88 1253.8 1020.62 1006.92 976.126 937.101 925.01 848.152 847.451 790.938 775.479 643.617 949.308 750.28 628.691 625.066 614.615 498.321 487.767 481.86 429.866 614.471 752.939 381.38
threshold=-0.53309640368510924 1.2281874541217475 -1.0643719950813935 -0.39931127609775313 -0.39235164971354392 1.0000000180025095e-35 -0.70724057228681914 4.1993509998329985 -0.065786322055580812 0.11359637237369589 0.91751003908197259 1.9719161402210672 -1.2048475751084824 1.9050396906833955 3.8954522345540328 -1.1607955767630012 -0.92407978602623864 -0.42612650161815185 -0.011163762252095071 -1.0991744437066022 -0.027149856193986702 -0.60941434666815841 0.15023195559702271 -0.31203462958563805 -0.52594078993500448 0.90938814935297063 -2.0941563403910837 -1.0771423540804312
decision_type=10 8 10 10 10 10 8 10 10 10 8 10 10 8 8 10 10 8 10 2 10 10 8 10 8 10 10 8
left_child=1 4 3 -3 13 27 -2 11 9 15 14 12 -5 19 20 16 -7 21 -11 -1 23 -17 -22 -8 -23 26 -26 -6
right_child=6 2 -4 7 5 8 10 -9 -10 18 -12 -13 -14 -15 -16 17 -18 -19 -20 -21 22 24 -24 -25 25 -27 -28 -29
leaf_value=0.0032100984035900839 0.039528400410803029 0 -0.01962667795079483 0 -0.063659884963547422 -0.21868250308761938 -0.017314898538706814 0 -0.0089590352644258481 -0.21868250308761938 0.017712127636797283 0 -0.21868250308761938 0.012611803288680952 -0.038663680071070163 0 -0.010364948509930035 0 0 -0.029242689252144346 0.0094799939034064581 0 -0.0038905968970975773 -9.4087531248119235e-05 0 0 -0.21868250308761938 -0.0014054585542590354
leaf_weight=4036 3304 86 1062 115 523 260 11946 65 1256 180 13953 54 585 8951 2295 74 270 857 57 5588 34851 72 17117 20526 67 43 187 4833
leaf_count=4036 3304 86 1062 115 523 260 11946 65 1256 180 13953 54 585 8951 2295 74 270 857 57 5588 34851 72 17117 20526 67 43 187 4833
internal_value=0 -0.0179292 -0.109924 -0.205634 -0.0109495 -0.0311164 0.00313081 -0.218683 -0.0636413 -0.092398 0.00184468 -0.218683 -0.218683 -0.0010296 -0.000601665 -0.0687517 -0.137361 -0.0336479 -0.218683 -0.0146753 0.00032382 -0.103716 0.00489859 -0.00671356 -0.137259 -0.172488 -0.213058 -0.00921139
internal_weight=0 29221 1967 905 27254 8679 103992 819 3323 2067 100688 754 700 18575 86735 1830 530 1300 237 9624 84440 443 51968 32472 369 297 254 5356
internal_count=133213 29221 1967 905 27254 8679 103992 819 3323 2067 100688 754 700 18575 86735 1830 530 1300 237 9624 84440 443 51968 32472 369 297 254 5356
is_linear=0
shrinkage=0.0663016


Tree=27
num_leaves=29
num_cat=0
split_feature=38 1 56 85 37 63 23 70 77 7 22 42 70 40 42 81 13 42 59 98 78 20 57 38 58 89 19 85
split_gain=2261.8 4138.85 1820.05 1986.37 1304.34 1051.81 1049.01 871.049 655.301 670.953 826.418 1503.21 1518.58 1746.89 617.987 724.735 810.439 607.571 606.441 579.544 609.825 549.595 517.382 512.157 447.273 413.934 392.338 347.011
threshold=-0.61362246672113185 1.6293111405791203 -0.3313822257790961 0.68511696153319701 -0.49158234953133279 -0.35959138628962789 0.21952541098335823 1.4255936591171607 0.98656330979602214 1.0000000180025095e-35 0.036650176681890322 -1.0221991680852531 0.14004757140707105 0.24529617392401268 -0.49202643454813344 -0.33666632251621659 0.8801661606624962 -0.59595234888323834 -0.99974947225583632 -0.2544323248649657 -0.3028667038300244 4.3408349782002018 -0.12802116623572382 -1.4498719709771972 -1.0000000180025095e-35 -0.37614731062716716 -0.60744832032211726 0.70532981618592572
decision_type=8 8 10 10 8 10 8 8 8 10 8 10 8 8 10 8 10 10 10 8 8 10 8 10 8 8 10 10
left_child=1 6 3 4 -3 18 14 21 9 -8 11 12 13 -11 15 26 -17 22 24 20 -7 -6 -4 -14 -2 -24 -1 -28
right_child=5 2 17 -5 7 19 8 -9 -10 10 -12 -13 23 -15 -16 16 -18 -19 -20 -21 -22 -23 25 -25 -26 -27 27 -29
leaf_value=0.0031488410225344148 0.020203160117993196 0 0 0 -0.21868250308761938 -0.033530610138612901 0.021900826669802538 0 0.034965836544453302 -0.21868250308761938 0.0024081718191819369 0 -0.089673735162069362 0 -0.013425723629902825 -0.10857069289733674 0 0.012776708028853915 3.0589326678522701e-05 0.00083365334773625706 -0.0051970639135288507 0 -0.21868250308761938 0 0.0041987840733374955 0 -0.06831044317445352 0
leaf_weight=978 21832 164 88 187 403 5141 2556 80 2044 274 4009 2067 526 155 6334 1309 267 362 23577 31311 12620 44 87 752 14414 50 879 324
leaf_count=978 21832 164 88 187 403 5141 2556 80 2044 274 4009 2067 526 155 6334 1309 267 362 23577 31311 12620 44 87 752 14414 50 879 324
internal_value=0 -0.0197301 -0.128367 -0.19064 -0.218683 0.00275189 -0.0122354 -0.218683 0 -0.00607061 -0.0164423 -0.0389078 -0.0849492 -0.199042 -0.0281133 -0.0504161 -0.0867834 -0.0194457 0.00870519 -0.00431777 -0.0139183 -0.218683 -0.112106 -0.0393761 0.0140933 -0.192756 -0.019896 -0.0462877
internal_weight=0 23939 1465 878 691 108895 22474 527 12383 10339 7783 3774 1707 429 10091 3757 1576 587 59823 49072 17761 447 225 1278 36246 137 2181 1203
internal_count=132834 23939 1465 878 691 108895 22474 527 12383 10339 7783 3774 1707 429 10091 3757 1576 587 59823 49072 17761 447 225 1278 36246 137 2181 1203
is_linear=0
shrinkage=0.0663016


Tree=28
num_leaves=29
num_cat=0
split_feature=45 12 37 41 13 40 44 33 50 56 26 96 63 59 18 42 94 27 11 3 63 98 94 41 61 3 17 80
split_gain=2029.51 3243.81 1670.58 1769.95 1433.91 992.093 1062.19 1184.3 917.185 1540.36 1284.74 905.849 856.555 831.738 814.294 788.341 773.805 738.716 772.179 704.826 677.842 764.014 645.627 622.654 1154.38 1132.98 580.642 563.514
threshold=-0.53309640368510924 -0.26272731575383718 0.15288356713819726 1.8551564092940998 0.33250946014150423 -0.12162295684442141 1.9408138066709213 -0.15764792363909438 -0.051611246000139992 -1.7615545229526608 -2.6609044106444872 -1.0991744437066022 -0.64006330608092876 0.082307437622097426 0.64857613160831695 -0.36852025987020354 1.1461020914690765 1.9726318961477676 0.48477755708996301 0.14046731770151899 1.8040491378146943 -0.43344287456077829 1.2837377662610749 -0.32422379547313762 -0.60500328798798397 -0.39090493130702098 -0.23139696516077976 1.7899203009580347
decision_type=10 8 8 8 10 8 8 10 8 10 10 2 8 8 8 8 10 8 10 8 8 8 8 8 8 8 8 8
left_child=1 2 8 4 16 6 11 13 9 10 -1 -3 -2 -8 20 17 19 18 26 -4 21 -14 27 24 25 -17 -13 -7
right_child=12 5 3 -5 -6 22 7 -9 -10 -11 -12 15 14 -15 -16 23 -18 -19 -20 -21 -22 -23 -24 -25 -26 -27 -28 -29
leaf_value=0 0.029404106811560065 0.012371469641172186 -0.21868250308761938 0 0 -0.0072605391460572963 0 0 0.0075711065572273651 0 -0.21868250308761938 0 -0.010477303263075298 -0.21868250308761938 0.0096816414480957198 -0.21868250308761938 0 -0.0038767838624619217 -0.21868250308761938 0 -0.028400906292830302 0.0049999831419518448 0.013835778015387391 0 0 0 -0.1151867036195158 -0.074234289888269966
leaf_weight=66 5195 1916 398 195 140 12282 86 153 588 221 244 347 22705 257 35450 199 59 618 265 48 4269 36189 6785 2636 364 130 402 627
leaf_count=66 5195 1916 398 195 140 12282 86 153 588 221 244 347 22705 257 35450 199 59 618 265 48 4269 36189 6785 2636 364 130 402 627
internal_value=0 -0.0167453 -0.0996833 -0.17378 -0.218683 -0.0104001 -0.0312481 -0.129159 -0.0357722 -0.101084 -0.198242 -0.0228368 0.00306126 -0.198165 0.00157984 -0.0382934 -0.218683 -0.0777584 -0.113673 -0.218683 -0.00282129 -0.000810312 -0.00212627 -0.0161677 -0.0721243 -0.162328 -0.0609876 -0.0112306
internal_weight=0 29026 1959 840 645 27067 7373 496 1119 531 310 6877 103808 343 98613 4961 505 1632 1014 446 63163 58894 19694 3329 693 329 749 12909
internal_count=132834 29026 1959 840 645 27067 7373 496 1119 531 310 6877 103808 343 98613 4961 505 1632 1014 446 63163 58894 19694 3329 693 329 749 12909
is_linear=0
shrinkage=0.0663016


Tree=29
num_leaves=29
num_cat=0
split_feature=38 1 2 85 13 4 63 51 16 49 94 94 59 9 96 47 9 40 0 3 27 87 79 30 82 27 3 87
split_gain=1849.7 3699.67 1695.46 1578.81 1912.44 1374.49 914.432 802.935 762.608 655.186 600.231 575.297 571.252 473.765 445.659 671.678 357.454 779.831 1062.8 1647.58 1100.69 415.165 495.178 348.271 379.487 329.165 327.003 303.485
threshold=-0.54175273165719118 1.6293111405791203 -0.37843239694512559 0.68259035470160601 0.083574596268326071 4.0804546763764042 -0.34853830570671945 0.16755225565881557 -1.2048475751084824 -0.033388662422621319 2.1095518150130661 0.45792371750908384 -2.6325751202222105 -0.99588992765849327 0.20797759801009749 -1.1323701482773181 -0.90298527594297195 -0.26677777780775747 -1.0000000180025095e-35 -0.16548474528046878 -0.25543799861074235 1.1569138448788718 -2.5710591075825047 0.71946435247448781 0.60126043569792464 -0.42167086164303974 0.30374626870049615 1.0000000180025095e-35
decision_type=8 8 10 10 10 10 10 10 10 8 10 8 10 2 2 8 2 8 8 8 8 8 10 8 8 8 8 10
left_child=1 7 -3 4 5 8 12 11 -4 26 -10 14 -2 -13 23 -16 -9 18 19 20 -18 22 -22 -1 -25 -19 -8 -15
right_child=6 2 3 -5 -6 -7 9 16 10 -11 -12 13 -14 27 15 -17 17 25 -20 -21 21 -23 -24 24 -26 -27 -28 -29
leaf_value=0 0.014909958463201227 0.029505499565946079 0 0 0 0 -0.024792357040419332 0 -0.21868250308761938 0.0038516859204074231 0 0.040746556027300963 0.0015439479634603817 -0.012408599646979544 -0.10692370704239598 -0.014755391048511641 0 -0.074390103152880166 -0.01659293126309486 0 0 0 -0.21868250308761938 -0.05561189943633451 0 0 -0.0064086667682704017 0.013694810460751437
leaf_weight=6999 28508 202 113 222 290 70 6564 566 645 22241 54 1492 31141 4120 585 1698 67 326 578 119 43 58 220 1194 818 1276 18895 3730
leaf_count=6999 28508 202 113 222 290 70 6564 566 645 22241 54 1492 31141 4120 585 1698 67 326 578 119 43 58 220 1194 818 1276 18895 3730
internal_value=0 -0.0172807 -0.11558 -0.143221 -0.174113 -0.218683 0.0025614 -0.0103251 -0.218683 -0.0041546 -0.218683 -0.00498645 0.00808664 0.00650495 -0.0153082 -0.0424292 -0.0413516 -0.0515245 -0.0969509 -0.170286 -0.218683 -0.218683 -0.218683 -0.00741152 -0.0317286 -0.014983 -0.0115111 0
internal_weight=0 25485 1596 1394 1172 882 107349 23889 812 47700 699 20636 59649 9342 11294 2283 3253 2687 1085 507 388 321 263 9011 2012 1602 25459 7850
internal_count=132834 25485 1596 1394 1172 882 107349 23889 812 47700 699 20636 59649 9342 11294 2283 3253 2687 1085 507 388 321 263 9011 2012 1602 25459 7850
is_linear=0
shrinkage=0.0663016


Tree=30
num_leaves=29
num_cat=0
split_feature=5 36 26 37 9 13 15 13 63 62 54 36 15 23 58 80 22 30 91 28 3 1 60 7 30 76 68 41
split_gain=2128.68 2279.69 1036.99 1608.49 1295.5 1158.56 981.89 717.913 646.554 705.296 635.069 602.839 547.187 567.793 440.339 434.063 494.045 420.007 406.135 402.662 396.434 1434 780.931 1616.29 1299.58 1100.32 366.214 453.703
threshold=0.17255971903868064 -0.12430035080913708 1.0000000180025095e-35 -0.50768101465361748 -0.8016347467987669 0.28272248736686861 -0.43806350793778154 0.28272248736686861 -0.64558984637238304 -0.21348625689667308 -3.296429849275031 2.3401657824941817 2.9012732079566912 1.0848436550533009 1.9411184957551706 1.7899203009580347 0.034646628072056346 -0.60844782798360209 -2.7255777117872602 0.58304703393391588 0.24443774623896183 0.18376411008386365 0.52066867796331684 1.0000000180025095e-35 1.8703217428763423 -0.016240742327085261 -0.49857782534933842 -2.1096777556574988
decision_type=8 8 10 8 2 10 8 10 8 2 10 8 10 10 10 8 8 10 10 8 10 8 8 10 8 8 10 10
left_child=1 15 3 -3 -5 6 -6 11 -2 20 -8 -4 13 -13 -12 16 -1 -18 -11 -20 21 -10 23 -23 -25 26 27 -26
right_child=8 2 7 4 5 -7 10 -9 9 18 14 12 -14 -15 -16 -17 17 -19 19 -21 -22 22 -24 24 25 -27 -28 -29
leaf_value=-0.012751453944718395 0.028976164416560923 0 -0.038402159331211175 0 0 0 0 -0.0081976423588719597 -0.0024808569826129711 0.043934671265024421 -0.21868250308761938 -0.21868250308761938 0 0 0 -0.045051230496791057 0.025664290552946851 -0.0023419424010340411 0.01039017109029136 -0.0015701612509463323 1.6650285507736486e-05 0 -0.016622998096629 -0.01238474214747773 0 0 0 -0.21868250308761938
leaf_weight=11705 4175 512 1775 224 108 99 51 2992 11739 1383 646 264 103 46 73 1234 3537 5583 34422 17413 32466 363 1359 296 46 108 47 261
leaf_count=11705 4175 512 1775 224 108 99 51 2992 11739 1383 646 264 103 46 73 1234 3537 5583 34422 17413 32466 363 1359 296 46 108 47 261
internal_value=0 -0.0170623 -0.0505382 -0.0982178 -0.140152 -0.173119 -0.197851 -0.0329829 0.00323985 0.00207187 -0.218683 -0.0626523 -0.144404 -0.18846 -0.218683 -0.00618277 -0.00343575 0.00750928 0.00734888 0.00619442 -0.00374607 -0.0129857 -0.0589819 -0.102081 -0.157401 -0.218683 -0.218683 -0.218683
internal_weight=0 28952 6893 1713 1201 977 878 5180 104078 99903 770 2188 413 310 719 22059 20825 9120 53218 51835 46685 14219 2480 1121 758 462 354 307
internal_count=133030 28952 6893 1713 1201 977 878 5180 104078 99903 770 2188 413 310 719 22059 20825 9120 53218 51835 46685 14219 2480 1121 758 462 354 307
is_linear=0
shrinkage=0.0663016


Tree=31
num_leaves=29
num_cat=0
split_feature=18 20 56 70 41 96 80 73 86 71 22 70 85 91 10 28 42 37 30 30 90 18 80 17 96 58 31 13
split_gain=1650.33 1751.04 1507.84 899.744 1114.58 679.054 966.008 734.23 640.787 717.449 1256.74 1104.84 1011.42 1450.8 697.989 639.398 565.748 1210.5 425.192 408.657 398.893 372.77 369.315 347.721 384.627 401.176 1243.05 635.014
threshold=-0.43368977605210129 1.5111554108561522 -0.46139788915851104 -0.68164936985066904 1.3549857602603563 0.20797759801009749 1.1287832738088912 2.0441116351920097 1.1256293671374522 -1.0314000043357063 0.033972727803516491 -0.84667263836196505 -0.86621963306373362 -1.0000000180025095e-35 1.568275937058657 -0.30538228806795803 -0.04168080576267863 1.2018933589774006 -0.11662849849510627 -0.36253815407850509 2.9608793421330994 0.56515905428378643 -0.35351120744269166 -0.31004528709790996 0.46940800635343749 1.6811297465073878 0.0066651581945995101 -0.11557329483021646
decision_type=8 8 10 8 10 2 8 8 8 8 8 10 8 8 8 8 10 8 10 8 10 10 10 10 2 10 10 10
left_child=1 5 3 -3 -5 6 19 -7 9 10 11 23 -13 14 -14 -9 17 -4 -11 22 -21 -20 -1 -2 25 26 -25 -28
right_child=8 2 16 4 -6 7 -8 15 -10 18 -12 12 13 -15 -16 -17 -18 -19 21 20 -22 -23 -24 24 -26 -27 27 -29
leaf_value=0.030824708131415572 0.0016260815586410641 0 0 -0.21868250308761938 0 -0.0247047671352888 -0.059008217852284398 -0.21868250308761938 0.016911984777388429 0.0052271256025950025 0.0013941144985237647 0 -0.21868250308761938 0 0 0 0.0029442465083346727 -0.21868250308761938 -0.010074658308451825 -0.018501980896441804 0.011846968170429854 0.0027994054329695682 -0.0015059507130867585 -0.012420592169067129 0 0 -0.21868250308761938 0
leaf_weight=3019 566 78 409 308 58 4797 1296 124 11465 57750 2631 65 264 199 72 178 472 188 19972 5704 2480 17964 2173 400 187 58 106 47
leaf_count=3019 566 78 409 308 58 4797 1296 124 11465 57750 2631 65 264 199 72 178 472 188 19972 5704 2480 17964 2173 400 187 58 106 47
internal_value=0 -0.0180656 -0.0878201 -0.195825 -0.218683 -0.0122591 -0.00428419 -0.0333951 0.00204893 0.000257611 -0.0252175 -0.0655531 -0.14431 -0.177922 -0.218683 -0.140683 -0.0342695 -0.0791057 0.00157747 0.000330501 -0.00817834 -0.00373528 0.0155184 -0.0241114 -0.0539063 -0.0809914 -0.102143 -0.218683
internal_weight=0 21284 1513 444 366 19771 14672 5099 111746 100281 4595 1964 600 535 336 302 1069 597 95686 13376 8184 37936 5192 1364 798 611 553 153
internal_count=133030 21284 1513 444 366 19771 14672 5099 111746 100281 4595 1964 600 535 336 302 1069 597 95686 13376 8184 37936 5192 1364 798 611 553 153
is_linear=0
shrinkage=0.0663016


Tree=32
num_leaves=29
num_cat=0
split_feature=45 20 13 94 16 2 16 91 35 13 40 35 4 58 42 70 98 12 34 45 64 62 54 63 67 54 22 70
split_gain=1376.76 2755.84 2149.37 1336.7 1021.13 964.597 1623.43 909.2 806.701 798.613 703.956 652.586 606.571 590.14 821.184 840.634 842.056 617.686 578.839 514.096 492.703 893.819 437.765 427.939 410.612 386.947 376.597 371.914
threshold=-0.53309640368510924 1.5111554108561522 0.1333615690429617 0.87083074188507936 0.82161137745683199 -0.35755351779249805 -1.2048475751084824 -2.7255777117872602 -0.40470261818619285 0.83037918788786058 -0.22242491584673799 -0.40470261818619285 4.0804546763764042 -0.52877462209876558 0.14508451963458172 0.15491451816437821 -0.43344287456077829 -0.42644163647328637 1.8192534719382927 -0.71023258061231975 -0.29165629590086933 -1.1043465096226273 0.60166487181048589 -0.66493273739247283 0.10228340251000996 -1.5207415466942542 -0.083717033572326141 0.44794227623640243
decision_type=10 8 10 10 8 10 10 10 8 10 10 8 10 10 10 8 8 10 8 10 10 2 8 8 10 10 10 10
left_child=1 4 3 5 7 -3 -7 27 23 13 12 -6 -8 -9 15 16 19 -18 26 -15 -19 -22 -10 -2 -23 -13 -17 -1
right_child=8 2 -4 -5 11 6 10 9 22 -11 -12 25 -14 14 -16 18 17 20 -20 -21 21 24 -24 -25 -26 -27 -28 -29
leaf_value=0.040784855402350849 0.050300903654188156 0 0 0 0.01864786293203936 0 -0.21868250308761938 -0.012206584384318115 -0.0090542430013981472 0.0080157794544727084 0 0 0 -0.21868250308761938 -0.0025008352208846459 0 0 -0.036173134834174905 0 0 0 -0.21868250308761938 0.0023691493248455047 0.0077413829067368104 0 -0.027718118843098001 -0.084965941043548668 -0.026803050444238828
leaf_weight=1230 1158 81 579 173 6455 105 542 3214 26347 1582 48 5984 60 404 1448 382 450 492 1019 56 43 182 31553 44902 56 3111 1039 335
leaf_count=1230 1158 81 579 173 6455 105 542 3214 26347 1582 48 5984 60 404 1448 382 450 492 1019 56 43 182 31553 44902 56 3111 1039 335
internal_value=0 -0.013877 -0.0993518 -0.157772 -0.0086007 -0.192522 -0.215989 -0.0232604 0.00241727 -0.0307449 -0.218683 0.00205546 -0.218683 -0.0387748 -0.0524447 -0.0677461 -0.107116 -0.0661299 -0.0367958 -0.195873 -0.102117 -0.184553 -0.00266974 0.00901212 -0.218683 -0.00870707 -0.0641448 0.0204222
internal_weight=0 29070 1588 1009 27482 836 755 11932 103960 10367 650 15550 602 8785 5571 4123 1683 1223 2440 460 773 281 57900 46060 238 9095 1421 1565
internal_count=133030 29070 1588 1009 27482 836 755 11932 103960 10367 650 15550 602 8785 5571 4123 1683 1223 2440 460 773 281 57900 46060 238 9095 1421 1565
is_linear=0
shrinkage=0.0663016


Tree=33
num_leaves=29
num_cat=0
split_feature=5 36 42 85 82 48 4 58 43 76 58 42 35 44 87 61 9 64 82 40 58 45 57 58 60 36 94 90
split_gain=1546.29 1507.61 1245.71 1282.57 1041.68 945.571 1138.67 873.923 659.602 656.137 722.69 534.952 515.729 491.736 507.288 502.332 641.163 489.425 397.691 390.615 350.342 484.271 783.285 575.894 345.786 334.568 317.989 316.218
threshold=0.17255971903868064 0.12214626252119472 -1.0944955968355725 0.5360471584693226 -1.9498356695685561 -1.7850935059138384 1.3203741408477669 -0.65876899672265699 0.086852844136431795 -0.043187622099485949 1.9411184957551706 0.015553552785912226 -0.40470261818619285 2.6175996793537482 1.1569138448788718 -0.76900530212852269 -1.0296734373732284 -0.69013952913803245 -2.1370720809642609 1.2210591370664408 -1.0000000180025095e-35 -1.1646427626316054 -0.63607758050089924 0.25119162564458258 0.48210109325632661 1.1079327158425221 -0.092618981658910221 2.9608793421330994
decision_type=8 8 10 10 10 8 10 8 10 10 10 8 8 10 10 10 2 8 10 10 8 10 10 10 8 10 8 10
left_child=1 11 3 7 13 6 -2 -3 9 -9 -11 17 18 14 15 -4 -17 -1 20 -19 -7 22 -22 -24 26 -25 -6 -13
right_child=5 2 4 -5 24 12 -8 8 -10 10 -12 27 -14 -15 -16 16 -18 19 -20 -21 21 -23 23 25 -26 -27 -28 -29
leaf_value=2.1838126166393203e-05 -0.020451892295163795 0 0 0 -0.057928821691720485 0.011382519278999468 -0.21868250308761938 0 0 -0.21868250308761938 0 -0.0026270002576809217 -0.00082520184906879044 0 0 0 -0.21868250308761938 -0.030433091299623228 0.010705259457931968 0.03186150924482635 0 -0.01112039268783461 0 -0.21868250308761938 0.0050983873024762275 0 0 0.02505602714499967
leaf_weight=3662 3899 118 46 426 950 1783 113 43 112 430 71 9930 52622 133 74 71 264 7809 42570 325 70 2699 51 112 1894 45 553 2150
leaf_count=3662 3899 118 46 426 950 1783 113 43 112 430 71 9930 52622 133 74 71 264 7809 42570 325 70 2699 51 112 1894 45 553 2150
internal_value=0 -0.0150794 -0.0478319 -0.109771 -0.0268551 0.0021837 -0.0291298 -0.161113 -0.190984 -0.218683 -0.218683 -0.00757968 0.00353301 -0.110091 -0.142846 -0.173806 -0.202319 -0.0176978 0.00857333 -0.0268086 -0.00855496 -0.0235934 -0.111342 -0.181866 -0.00971922 -0.218683 -0.0345213 0.00153741
internal_weight=0 29061 5185 1200 3985 103964 4012 774 656 544 501 23876 99952 588 455 381 335 11796 47330 8134 4760 2977 278 208 3397 157 1503 12080
internal_count=133025 29061 5185 1200 3985 103964 4012 774 656 544 501 23876 99952 588 455 381 335 11796 47330 8134 4760 2977 278 208 3397 157 1503 12080
is_linear=0
shrinkage=0.0663016


Tree=34
num_leaves=29
num_cat=0
split_feature=3 11 9 23 4 0 87 29 31 56 98 28 83 46 9 54 27 42 81 75 42 63 3 60 51 93 84 81
split_gain=1339.48 2066.64 2571.53 2793.79 1401.83 1826.58 1473.76 638.459 534.819 527.093 526.288 510.766 499.561 639.253 496.958 486.444 455.915 734.402 1036.6 432.307 461.864 458.05 433.992 386.39 360.408 322.899 265.919 256.119
threshold=-0.30530063153194048 1.0000000180025095e-35 -0.78474299194139929 -0.2452045746178842 -0.25681473659716847 -1.0000000180025095e-35 -0.40659724117061424 0.35958385493779121 0.49350349072655092 -1.0000000180025095e-35 -0.62950204803714527 -0.050288706088896691 0.11470582554055342 -0.00054944631184999872 1.0000000180025095e-35 -1.3659360116799377 0.55209652114450003 -1.0643719950813935 -0.15837289320171108 -0.21458279849394765 -1.0643719950813935 -0.61795714491511189 -2.0405198455099982 -3.3232833561575439 0.16755225565881557 -0.74413241087948623 -0.28547327448542331 -0.6558034197367012
decision_type=8 10 2 10 8 8 10 8 10 8 8 8 8 10 2 8 8 10 8 10 10 8 10 10 8 8 8 8
left_child=1 8 -3 4 24 12 7 -7 19 10 15 26 13 23 -13 -10 17 18 -5 21 22 -1 -21 -6 -4 -26 27 -2
right_child=11 2 3 16 5 6 -8 -9 9 -11 -12 14 -14 -15 -16 -17 -18 -19 -20 20 -22 -23 -24 -25 25 -27 -28 -29
leaf_value=0.039849345636664833 0.015662894654504343 0.0076161914702600102 0.018710133394406608 0 0 0 -0.023558454208465869 -0.21868250308761938 -0.21868250308761938 -0.0024362604448417749 -0.02095343083035266 0.00084191796656672094 0 0 -0.01497671973749338 -0.025444306640807077 0.00081618481945215247 -0.01651964332880888 -0.21868250308761938 0 -0.0034349839063529857 0.0022931593558007633 -0.084888985995064711 -0.21868250308761938 -0.20605689220067264 0 0.0087993760961410945 -0.0039719424797488023
leaf_weight=1823 3534 2509 248 127 53 55 781 167 143 2112 902 28503 46 64 12020 241 1293 1147 112 285 6195 9876 671 610 72 262 42771 16403
leaf_count=1823 3534 2509 248 127 53 55 781 167 143 2112 902 28503 46 64 12020 241 1293 1147 112 285 6195 9876 671 610 72 262 42771 16403
internal_value=0 -0.0138814 -0.0439689 -0.0714932 -0.125006 -0.15532 -0.0802925 -0.218683 -0.00326123 -0.0275538 -0.0616192 0.00203949 -0.218683 -0.218683 -0.00362277 -0.133008 -0.0209367 -0.0478749 -0.159507 0.000629227 -0.0116691 0.00893505 -0.0553567 -0.218683 -0.0166164 -0.0704086 0.0058456 -2.8635e-05
internal_weight=0 29794 7546 5037 2358 1776 1003 222 22248 3398 1286 103231 773 727 40523 384 2679 1386 239 18850 7151 11699 956 663 582 334 62708 19937
internal_count=133025 29794 7546 5037 2358 1776 1003 222 22248 3398 1286 103231 773 727 40523 384 2679 1386 239 18850 7151 11699 956 663 582 334 62708 19937
is_linear=0
shrinkage=0.0663016


Tree=35
num_leaves=29
num_cat=0
split_feature=5 36 13 94 96 11 48 4 78 42 81 62 44 58 53 7 27 82 43 44 91 3 49 10 76 57 45 85
split_gain=1284.32 1044.52 1621.88 1207.97 975.744 1098.35 739.776 977.047 707.967 1695.88 691.246 609.582 562.524 812.094 512.864 452.768 673.851 552.667 466.82 391.692 527.918 400.045 364.116 349.487 634.375 345.819 339.162 1019.6
